# Shape: (10, 6, 3, 3)
-29 23 -1 50 -49 -61 19 -81 18 
-7 51 -16 57 11 9 -30 44 -7 
-44 15 8 -14 -6 27 15 -49 -5 
-42 25 12 -74 -3 -25 4 20 -22 
-23 13 27 28 -20 3 -6 48 6 
-46 -7 22 -29 -35 -4 0 29 10 
-26 -27 24 5 -53 -1 -9 -17 -40 
-10 -80 15 -40 -29 -32 18 6 20 
26 1 36 60 -72 -14 -30 21 -26 
-48 26 -9 25 18 -2 -19 -26 19 
-2 -14 1 45 35 17 -13 -22 46 
3 -66 5 -20 72 -40 19 58 20 
-3 2 -10 6 31 24 4 -50 -55 
26 16 -37 20 -104 -22 -24 26 18 
-4 -51 -12 16 86 -30 17 -30 35 
-24 2 -71 17 -19 39 1 21 -2 
12 31 33 -46 -74 6 34 -32 23 
2 20 -9 13 -60 49 33 4 5 
30 -57 -11 71 -18 51 31 13 21 
-22 -53 8 -8 23 -32 3 -22 12 
37 -26 -1 -115 -4 -28 4 -44 19 
58 -25 32 -44 -3 38 7 -4 -16 
22 -43 33 4 17 -20 27 -15 -26 
-8 15 52 11 -24 37 -2 38 10 
-4 -18 40 -22 -44 -4 -8 -85 80 
36 -24 -11 37 -69 -30 -18 11 -49 
1 57 -5 -5 8 -28 5 -20 70 
4 19 3 -58 -4 -7 4 0 43 
6 14 -23 17 25 40 -12 0 9 
-5 30 -28 44 31 -15 -6 7 -2 
-4 31 49 -20 17 6 53 -12 -18 
-19 22 -6 -22 -9 35 -1 -52 -37 
6 0 9 -14 1 16 43 -14 -11 
15 31 31 14 11 -78 4 -59 42 
-1 18 32 -13 -75 23 4 27 58 
41 12 2 -89 -20 -59 0 16 16 
-44 63 -3 -17 -28 -2 -21 9 10 
45 -3 44 -23 48 -38 -8 -42 38 
27 -32 -50 -6 -25 58 4 -5 -5 
16 11 -14 18 -73 -60 -7 42 -20 
17 14 45 23 -54 -32 6 -3 -11 
-13 5 -12 -10 -14 61 32 31 -17 
28 0 11 -19 -32 5 25 20 -26 
7 -6 -9 26 -28 25 3 -60 -6 
23 -62 9 13 0 -15 -10 -18 8 
-2 88 -27 -26 -15 48 -14 17 35 
12 -81 34 6 75 -23 15 -63 -15 
2 -52 -61 4 9 47 -7 -9 22 
1 -9 -17 -20 -19 3 -37 -16 35 
-6 12 -36 -31 -17 -33 33 -14 44 
-5 11 -32 27 -6 -33 -38 -42 24 
-22 1 -32 46 44 -4 -3 15 -23 
-73 -45 59 15 55 -39 8 -43 -1 
-43 -2 0 30 67 -6 8 -4 42 
39 24 -2 -4 11 -6 7 9 11 
-55 -41 30 25 -32 4 -20 5 21 
16 41 -14 10 32 9 -43 29 47 
-47 -110 39 -17 1 -128 32 1 -35 
55 -6 74 5 27 8 -3 27 4 
-60 -37 -19 10 -2 -79 -59 -29 6 
