# Shape: (6, 6, 3, 3)
-5 18 67 11 13 13 -65 17 53 
-34 -38 9 -5 -7 14 -27 10 59 
56 41 53 -31 -19 19 -10 41 2 
36 14 28 -41 -29 2 -37 -14 2 
74 64 93 -7 21 7 -9 -4 14 
17 17 0 -3 -40 8 21 50 -47 
36 -6 -47 -2 38 -43 29 0 11 
25 -20 -31 35 41 3 35 -8 -22 
18 -10 -23 22 -22 30 -38 52 33 
29 16 23 -68 -14 88 -78 13 72 
68 -22 12 -39 -61 -8 -3 -38 36 
16 8 31 11 18 59 -11 19 11 
-30 33 -6 -5 20 -7 52 35 -73 
-76 33 33 -49 49 46 12 32 -65 
76 9 -7 8 0 36 -2 -21 -16 
-4 -9 -32 52 17 -2 54 16 12 
43 38 -50 -19 9 -39 -14 -17 -8 
-8 10 -29 74 14 -40 36 16 33 
66 47 -2 52 13 -29 -53 -11 -57 
22 -5 21 7 -24 -54 -10 1 -27 
24 -3 5 61 23 21 -32 3 -5 
30 54 48 43 39 65 -27 -38 -63 
-26 20 -17 54 97 127 23 -4 -13 
-48 -45 -10 -34 -27 0 63 22 18 
10 15 50 4 10 24 19 44 27 
44 35 43 42 52 75 -1 21 -7 
-15 17 -32 -16 44 18 40 55 68 
-28 -6 -39 -52 -51 -36 -22 -4 25 
-12 7 -28 23 10 -5 39 53 83 
-21 -24 -11 1 4 -46 -21 -2 -38 
-19 -35 -24 -9 -2 -20 -24 -3 -12 
-18 -19 7 -29 -66 -20 -62 -31 -15 
37 -3 -30 20 62 57 45 48 20 
25 -26 -37 4 2 12 67 30 13 
10 -26 -86 0 -8 29 41 14 8 
25 18 22 -21 32 26 -3 48 -35 
