# Shape: (10, 10, 3, 3)
-42 -9 -19 -18 22 -26 -79 -58 -47 
-6 -6 -14 -4 -12 -6 -115 48 -59 
-16 16 25 -21 -6 -15 24 6 18 
-16 -6 4 8 -3 -8 -37 7 -23 
-13 -12 10 -29 -49 -9 -31 -5 -8 
11 3 43 36 9 -39 -18 31 39 
6 17 -49 -19 -55 24 -7 -1 -36 
-63 19 -19 2 -4 -42 -18 4 -22 
-118 -3 -34 16 -32 -48 52 -14 10 
-20 -8 22 -1 -7 1 -23 -24 18 
-8 14 -13 12 -3 30 -27 15 -40 
0 -27 -5 36 -18 5 -7 -25 11 
14 -6 -30 0 9 -7 -48 7 5 
-22 7 45 -14 -9 -33 11 -54 12 
-1 6 -52 30 24 -39 -37 -15 -57 
-16 17 -2 3 12 1 -9 -29 5 
-5 -4 0 16 2 46 -20 -119 6 
-33 23 -31 -16 2 -13 13 -11 14 
-6 27 34 -45 -3 34 -10 -6 21 
2 14 -101 -22 15 10 5 -3 16 
-22 -25 13 -6 -8 -13 -55 -23 -66 
-11 15 -13 1 -53 7 -21 -31 21 
16 -1 10 -11 6 -31 -12 20 3 
-5 -19 -21 -7 24 5 12 -5 -31 
-7 -26 6 -28 32 9 18 -43 7 
-18 -25 33 12 7 -18 -24 -2 -21 
-1 4 -26 27 -12 14 -5 -9 -73 
-24 -8 1 -34 26 30 46 17 -32 
5 20 14 0 -2 7 -22 1 -1 
-17 3 -12 1 -30 14 -25 -37 28 
-9 -7 13 27 -28 7 -12 -49 -74 
14 11 -32 4 -15 5 7 0 -9 
1 15 19 -3 -10 6 1 -24 -9 
16 -74 -36 25 -25 -17 13 -22 1 
9 31 -5 -39 -9 8 -32 17 15 
-62 -14 -10 -19 -1 25 -15 9 -14 
-12 -6 -1 10 -8 8 27 -70 -52 
23 -7 9 5 -25 13 -31 -8 15 
-9 2 -30 -56 1 -32 -39 9 -24 
26 16 -26 -8 -31 -23 16 21 -38 
1 38 21 -92 -21 9 18 28 34 
26 -27 -36 -74 29 -4 26 -37 -11 
-31 -6 -7 27 -23 -49 10 19 -10 
10 -27 70 -29 5 4 -8 14 21 
-36 -42 -53 20 20 4 12 5 -60 
-4 30 -34 -19 -14 1 7 -43 5 
-12 1 18 -63 -26 -41 -15 -43 5 
17 24 -64 -11 -2 -2 1 -20 -37 
-7 -64 -42 22 7 39 11 -23 27 
-18 -12 4 -27 38 5 -18 -9 -20 
3 -2 -14 -15 -14 1 -7 -48 27 
-18 6 39 23 5 -27 -10 -13 -18 
6 -43 -73 3 -9 33 0 -26 -30 
-6 26 -20 5 -4 -15 5 -2 6 
13 27 -13 -29 -26 -25 -80 4 11 
-10 -6 -29 -20 4 17 -8 21 1 
1 -11 26 -11 16 13 13 16 18 
1 3 13 2 27 -11 -18 5 8 
-32 -42 22 -10 11 6 -20 -2 -7 
3 -27 -14 -14 17 -11 -4 -20 16 
-55 -3 -39 -80 38 -12 -83 -31 -73 
22 34 19 -12 -18 -36 -9 25 -8 
35 10 -9 -105 -2 14 16 -19 31 
-30 51 11 -23 -4 -30 2 8 -18 
1 -23 -52 19 -46 -11 -20 -18 25 
4 -22 -8 -5 -34 -23 -46 -14 12 
-40 -13 -10 -29 18 -17 -14 -28 14 
-56 -6 -16 29 21 1 -47 -5 -34 
3 -53 7 2 -18 -65 -28 -11 12 
51 -28 -35 3 27 -7 -127 2 -29 
-20 -4 -5 5 -18 -24 0 12 13 
10 41 -22 20 24 -4 -5 -48 -17 
-10 38 -1 -3 15 -32 -25 -22 16 
1 -3 9 5 -14 15 -38 -14 -6 
-9 -7 6 17 23 -10 23 -14 -62 
-19 -37 17 21 -11 2 34 -24 13 
8 -15 2 5 -24 -15 4 -1 17 
-5 -18 44 -39 -56 -12 9 19 -25 
33 -2 -26 -12 -10 16 12 -28 -32 
-5 7 44 -21 -36 -69 -14 21 12 
43 6 -2 -35 3 -51 -10 -25 -80 
-19 -17 -13 -7 -9 -15 -38 9 15 
-7 -24 4 -21 -37 9 6 -20 7 
20 4 -10 -17 13 -19 6 23 -26 
2 -19 6 -21 -11 18 -2 -4 18 
9 -8 -25 8 -8 -27 -13 11 -83 
25 -22 23 -37 -29 -30 -60 -35 22 
27 10 1 -2 -9 -22 3 -13 23 
11 -23 9 0 -6 -8 -4 15 -43 
-4 0 -12 -9 -44 -37 15 0 -48 
17 -11 -2 -39 -2 29 12 26 -44 
-47 -35 22 -46 4 23 12 -26 -1 
-100 -33 12 28 -28 -2 -11 11 -46 
-8 22 -50 20 -12 18 -32 -9 19 
-19 -13 25 -9 -12 -2 -6 23 -51 
29 -1 -33 -48 -4 17 7 -32 25 
-4 14 -18 -45 5 -18 -7 27 11 
17 -22 -3 -21 -31 -17 1 -29 7 
-57 -6 10 -8 14 -15 -1 -14 1 
-28 7 -15 1 5 8 -38 4 -1 
