-0.029806 -0.029314 0.025287 -0.030875 0.023236 -0.031963 -0.022180 -0.016511 0.030915 0.025527 -0.030886 0.006487 0.091701 0.038820 0.029523 -0.035033 -0.023015 -0.012523 0.029143 0.018995 -0.020960 -0.015456 0.031945 -0.006009 -0.025640 0.000712 0.023857 0.029814 -0.018848 0.033442 -0.033084 0.019231 0.076868 0.063644 0.071025 0.063713 0.072940 0.069619 0.207718 0.137845 0.123984 0.065145 0.006437 0.092909 0.006223 0.039823 0.114766 0.105795 0.199088 0.095567 0.098606 0.095552 0.010934 -0.016964 -0.024455 0.019855 -0.009027 -0.000976 0.035110 0.019793 0.112738 0.011784 0.074205 0.051774 0.002759 0.013098 0.023769 0.133846 0.150605 0.159278 0.130087 0.148785 0.211091 0.155221 0.153748 0.137513 0.101702 0.165314 0.223027 0.132953 0.040659 0.061610 -0.010641 -0.010450 -0.002645 -0.027731 0.009463 0.089160 0.034142 -0.019300 0.007721 -0.040027 -0.111868 -0.037424 -0.050557 -0.004129 -0.013756 0.013351 0.007916 0.014892 0.064890 0.131855 0.089212 0.178698 0.105107 0.158802 0.158368 0.155706 0.025792 -0.046200 -0.047665 0.008568 0.004780 -0.002372 0.003160 0.031987 -0.015797 -0.055717 -0.126447 -0.158748 -0.120191 -0.044162 -0.015425 -0.108889 -0.095379 -0.057451 -0.073997 -0.062178 0.073253 0.086992 0.149919 0.225328 0.108572 0.035226 0.005981 -0.048190 -0.156496 -0.232803 -0.076815 -0.044904 0.008392 0.017521 0.129574 -0.047044 -0.113118 -0.126679 -0.154827 -0.201314 -0.130837 -0.184990 -0.164306 -0.121272 -0.085439 -0.055342 0.047207 0.148026 0.082079 0.037955 0.047940 0.059061 -0.030750 -0.077170 -0.104312 0.005216 -0.068606 -0.207953 -0.105807 -0.009018 -0.000720 0.018798 0.010258 -0.112247 -0.252842 -0.217167 -0.278536 -0.231796 -0.150029 -0.176307 -0.117202 -0.025198 -0.056440 -0.012776 0.052391 0.051747 0.072317 -0.040248 -0.038827 -0.165348 -0.206814 -0.176700 -0.062085 0.006956 -0.045133 -0.068752 -0.061648 0.001278 0.017459 0.016456 -0.083792 -0.122091 -0.299653 -0.217272 -0.300146 -0.163593 -0.083997 -0.080974 -0.023722 0.033841 -0.015794 -0.011000 0.024415 0.051710 0.008954 0.009218 -0.135708 -0.251278 -0.207928 -0.159564 -0.012180 0.058503 0.068994 -0.022214 0.047914 -0.099365 0.029964 0.021446 -0.103795 -0.166732 -0.233553 -0.280469 -0.190595 -0.112790 -0.023234 -0.057233 -0.066754 -0.038069 -0.015903 0.093684 0.045169 0.079903 -0.034882 -0.096090 -0.264699 -0.267901 -0.185372 -0.146434 -0.076082 0.053523 0.110583 0.060123 -0.035889 -0.092458 -0.005988 -0.046131 -0.032370 -0.166470 -0.275893 -0.299538 -0.191660 0.071224 -0.050564 -0.071673 -0.127357 -0.019341 0.012705 0.079720 0.089581 0.073952 -0.074208 -0.201664 -0.333512 -0.251669 -0.192977 -0.082387 -0.032923 -0.005225 -0.042623 -0.059080 -0.040541 0.040294 -0.014001 -0.031165 -0.131539 -0.156236 -0.235595 -0.246524 -0.096717 0.029820 -0.017867 -0.054051 -0.009904 -0.080999 0.034175 0.086215 0.035557 0.077277 -0.087618 -0.217363 -0.307324 -0.175330 -0.041697 -0.059969 -0.009470 -0.044447 -0.093822 -0.141693 -0.077333 0.021886 -0.017109 0.011802 -0.037562 -0.129167 -0.212030 -0.176148 -0.042270 0.002964 0.011155 0.013398 -0.010732 -0.050041 0.066157 0.110474 0.035005 0.016424 -0.098737 -0.261002 -0.270341 -0.073582 0.037946 0.085349 0.036437 -0.070212 -0.226657 -0.268745 -0.216688 -0.025654 0.014867 -0.039972 -0.088054 -0.114520 -0.259586 -0.198686 -0.037271 0.034249 0.085007 0.072095 0.047419 0.007698 0.104351 0.083112 0.054892 0.012680 -0.063345 -0.144601 -0.158049 -0.016158 0.060456 0.114808 0.049224 -0.009638 -0.089531 -0.191665 -0.255672 -0.129718 0.078371 -0.025827 -0.061064 -0.106849 -0.307517 -0.223885 -0.047652 0.028600 0.115634 0.164266 0.060405 0.010672 0.012324 0.041430 0.084267 0.116959 -0.026650 -0.111770 -0.028378 0.052784 0.086023 0.074181 0.039302 0.065006 -0.081049 -0.123439 -0.190208 -0.063649 0.011992 -0.005864 -0.011019 -0.066086 -0.135548 -0.125998 0.029087 0.086550 0.178468 0.175960 0.016442 -0.015458 -0.040279 0.046360 0.098370 0.072315 -0.021949 -0.161139 -0.111433 0.028843 0.073248 0.069434 0.091911 -0.042471 -0.101588 -0.078218 -0.168053 -0.054492 0.033345 -0.005913 0.049815 -0.085734 -0.101650 -0.145442 -0.006587 0.166248 0.167744 0.121008 -0.001684 0.036602 0.002779 0.073060 0.115877 0.045181 -0.007809 -0.107666 -0.092104 -0.007387 0.014971 0.084776 0.069608 0.019012 -0.111254 -0.055183 -0.167501 -0.076645 -0.000382 0.027034 -0.005633 -0.058014 -0.176243 -0.067538 0.004469 0.152799 0.153693 0.072082 0.039388 0.061985 0.004145 0.019059 0.116038 0.058838 0.040148 -0.133488 -0.016969 0.023015 0.046700 0.009901 0.045646 0.095369 -0.033734 -0.114928 -0.204427 -0.102182 0.026366 0.086025 0.019043 -0.088041 -0.153096 -0.095726 -0.017035 -0.021247 0.085045 0.046414 0.013034 -0.026546 0.000647 0.094928 0.104643 0.085095 0.035800 -0.137363 -0.087623 -0.076255 0.012999 0.014200 0.045604 0.010792 -0.078036 -0.197251 -0.113056 -0.090239 0.026253 0.066780 -0.030802 -0.064125 -0.107060 -0.081598 -0.078674 -0.059455 -0.041451 -0.042087 -0.076952 -0.098506 0.101984 0.089503 0.106020 0.064109 -0.048438 -0.115618 -0.083953 -0.049475 -0.021633 -0.021246 -0.111631 -0.141111 -0.148127 -0.151660 -0.055581 -0.021871 0.048142 -0.021439 -0.006242 -0.098038 -0.049352 -0.153573 -0.121126 -0.065163 -0.058746 -0.055244 -0.067416 0.024090 0.119378 0.114731 0.097160 0.102206 0.064165 -0.092541 -0.032823 -0.011450 0.027993 -0.037744 -0.054380 0.037268 0.015607 -0.108036 0.062156 0.076162 0.028210 0.005083 0.052336 -0.097459 -0.094479 -0.116250 -0.162696 -0.095257 -0.088378 -0.011145 0.048226 0.115673 0.188649 0.061562 0.154849 0.080477 0.068437 0.018801 0.073266 0.011185 0.022170 0.039667 0.039294 0.052294 -0.002359 0.020097 0.037044 0.014064 0.040743 0.044788 -0.000444 -0.042276 -0.168083 -0.158399 -0.143938 -0.138366 -0.055340 -0.018540 0.050926 0.044041 0.137007 0.138610 0.124035 0.073847 0.045279 0.013893 0.037561 0.058154 0.006659 0.020164 0.060481 0.048003 0.015276 0.005877 0.056577 -0.065350 0.066294 0.053861 -0.051765 -0.014862 -0.004576 0.005918 -0.092525 -0.128793 -0.102510 -0.132629 -0.057593 -0.050301 0.000376 0.030865 0.046780 0.083853 0.118632 0.137937 0.139425 0.137762 0.100356 0.011205 -0.043548 0.024865 -0.028418 0.032520 0.154125 -0.058023 -0.024864 -0.016165 -0.032967 -0.018037 -0.031643 0.039996 -0.004755 -0.079235 -0.078894 -0.103426 -0.137204 -0.068495 -0.038655 -0.003077 0.001256 0.058831 0.110007 0.052041 0.046553 0.163928 0.134488 -0.003000 -0.101192 -0.101344 -0.078622 -0.016241 0.107931 -0.013339 0.010605 -0.001059 -0.002412 -0.017926 -0.039746 -0.010287 0.076846 -0.074526 -0.078633 0.036406 -0.044535 0.021624 -0.074507 -0.186757 -0.039337 -0.007466 -0.043965 -0.074580 -0.065918 0.035584 0.039765 -0.119032 -0.074560 -0.094195 -0.055839 0.076348 0.025696 0.031391 -0.022979 -0.012749 0.021601 0.000508 -0.060242 -0.104497 -0.009902 -0.143871 -0.130328 -0.051778 -0.113312 -0.115676 -0.135862 -0.172064 -0.179603 -0.169402 -0.296919 -0.264116 -0.204915 -0.138074 -0.037608 -0.145215 -0.067928 0.003952 -0.037732 -0.023590 0.021104 -0.015756 -0.024847 0.004436 -0.011680 -0.006332 0.020083 0.035900 -0.040743 -0.037793 -0.000122 -0.072000 -0.116033 -0.137926 -0.260367 -0.363130 -0.347147 -0.135346 -0.236421 -0.265726 -0.256427 -0.218076 -0.205431 -0.192737 -0.114225 -0.023864 0.020434 -0.034999 -0.008812 0.029525 0.006891 0.023104 0.031856 -0.000511 -0.032478 -0.025089 -0.022910 0.011332 0.071821 0.038384 -0.034396 -0.082846 -0.087520 -0.153394 -0.192867 0.046690 0.069318 0.003007 0.021917 -0.026950 -0.068716 -0.041369 -0.037914 0.018315 0.003622 -0.017025 -0.029433 0.035601
-0.003799 0.000013 0.035315 0.023327 0.001235 -0.034528 0.003043 -0.022053 0.034259 -0.018052 0.030315 -0.022616 0.015533 0.054621 -0.062865 -0.004748 -0.015651 -0.015605 0.014430 -0.021959 -0.020411 0.035194 0.032914 -0.035340 0.031592 -0.017393 0.035088 -0.027305 0.022234 -0.007808 -0.023223 -0.013302 0.076619 0.013577 0.096535 0.124164 0.198303 0.144299 0.157431 0.147891 0.167435 0.079568 -0.013027 0.072512 0.075634 0.160339 0.168932 0.160684 0.219229 0.106931 0.121241 0.101497 0.005993 0.033634 -0.014903 -0.012466 -0.023719 -0.015215 0.027002 0.034746 0.079454 0.117477 0.168099 0.183929 0.264833 0.126034 0.136059 0.099606 0.179256 0.179367 0.136493 0.200005 0.181714 0.219664 0.282403 0.259729 0.147980 0.132169 0.164202 0.124772 0.044397 0.058930 0.028201 0.034930 -0.025270 0.026445 -0.087249 -0.002715 0.011402 0.121178 0.074470 0.100778 0.164889 0.216267 0.094559 0.062088 0.129223 0.148038 0.090068 0.116463 0.099978 0.102770 0.104140 0.063279 -0.006037 0.058549 0.102302 0.152493 0.068391 -0.083217 -0.018723 -0.013783 0.008399 0.004263 -0.065679 -0.093088 0.059983 0.060248 0.106076 0.131582 0.177169 0.249631 0.197341 0.015819 -0.007898 0.031526 0.051129 -0.014454 0.044218 0.025514 0.019468 -0.020359 0.001451 -0.061895 -0.097578 -0.086188 -0.144387 -0.112534 -0.004217 0.066940 -0.012959 0.002299 0.042014 0.015045 0.034798 -0.008720 0.041402 0.082896 0.144890 0.087234 0.005160 -0.063975 -0.013887 -0.046865 0.017405 -0.029688 -0.016942 -0.079493 -0.160851 -0.130661 -0.134460 -0.129400 -0.093433 -0.069688 -0.067516 -0.106207 0.001776 0.086719 -0.016621 -0.009011 0.113034 0.015067 -0.005122 -0.036881 -0.067241 0.071940 0.026325 -0.041936 -0.078371 -0.077936 -0.053489 -0.094818 -0.143993 -0.127564 -0.149453 -0.217143 -0.270871 -0.217541 -0.243228 -0.202019 -0.049865 0.082525 0.022021 -0.028617 -0.041416 0.053834 -0.020514 -0.064660 -0.024536 -0.040023 -0.088136 -0.134338 -0.044586 0.112813 0.058523 -0.022196 0.002094 0.012000 -0.032960 -0.095388 -0.164462 -0.112863 -0.138968 -0.170655 -0.185513 -0.218575 -0.202339 -0.129549 -0.080029 -0.053364 0.080857 -0.014651 -0.090245 -0.021218 0.039350 -0.050777 -0.029683 -0.116308 -0.173000 -0.102821 0.022687 0.091484 0.054638 0.002177 0.043092 -0.035755 0.017060 -0.105563 -0.128780 -0.120323 -0.178103 -0.183347 -0.183827 -0.149621 -0.057524 -0.116673 -0.090672 -0.105498 -0.065967 -0.144193 -0.104904 -0.036627 -0.061159 -0.026713 -0.008798 -0.161873 -0.212359 -0.087906 0.032192 0.063009 0.066832 0.020397 -0.029520 0.007857 -0.088100 -0.129430 -0.085394 -0.137780 -0.068005 -0.146705 -0.105319 -0.028051 -0.024670 0.031688 -0.040380 -0.060145 -0.123413 -0.223775 -0.147894 -0.077578 -0.016553 0.022993 -0.119424 -0.105873 -0.140730 -0.052236 -0.004096 0.117355 0.110934 -0.025543 0.002060 -0.067361 -0.091917 -0.028145 -0.026888 -0.039782 -0.053404 -0.060913 -0.062708 -0.043870 0.015272 0.066181 -0.032570 -0.033470 -0.030388 -0.192353 -0.091059 -0.079824 -0.051300 0.041377 -0.073942 -0.166985 -0.223584 0.022543 0.018947 0.074848 0.011994 0.043883 0.000374 -0.055778 -0.044676 -0.087917 -0.062773 -0.052921 0.017985 -0.065489 -0.067415 -0.025428 0.001618 -0.017380 0.007133 0.010220 0.020807 -0.053694 -0.075126 -0.084102 0.030589 -0.051436 -0.115121 -0.162361 -0.176202 -0.040531 0.020268 0.083247 0.022142 -0.015476 -0.025416 -0.048102 -0.020923 -0.047419 -0.007300 0.002788 0.062487 -0.008617 -0.062957 0.012635 0.025062 0.110434 0.095264 0.064706 0.121271 0.019155 -0.102887 -0.134386 0.067366 0.020982 -0.087084 -0.101821 -0.176595 -0.016908 -0.003701 0.013067 -0.042380 0.013666 -0.025753 -0.010504 -0.050385 -0.085783 -0.006114 0.072988 0.078553 0.016126 0.034429 0.118095 0.075348 0.086307 0.144770 0.178412 0.117346 0.013182 -0.096525 -0.065862 -0.008971 -0.014331 -0.055566 -0.056455 -0.159517 -0.019739 0.042836 -0.062750 -0.039289 -0.087781 -0.115165 -0.080212 -0.116808 0.013018 0.101784 0.134888 0.052645 0.007123 0.037419 0.028721 0.052430 0.099287 0.148735 0.106974 0.056938 -0.011658 -0.040510 -0.109919 -0.017648 0.028794 0.021596 0.049696 -0.025582 -0.040373 0.017694 -0.027920 -0.023630 -0.070499 -0.192134 -0.125973 -0.041653 0.156543 0.197905 0.096182 0.031929 0.019318 0.032177 0.048620 0.066622 0.064399 0.043182 0.075760 0.031758 0.100407 -0.077976 -0.084341 -0.029671 0.019248 0.050276 0.025489 -0.086153 -0.111205 -0.045953 -0.087343 -0.067183 -0.051596 -0.103531 -0.058525 0.022835 0.091083 0.197234 0.093951 0.069246 -0.022851 0.074728 0.069276 -0.035323 -0.060614 -0.010452 0.096597 0.121501 0.175266 -0.003882 -0.024708 -0.032595 0.044456 0.010501 0.034304 -0.055404 -0.093401 -0.147304 -0.128291 -0.111909 -0.144759 -0.117337 -0.034176 0.057014 0.110394 0.119270 0.059377 -0.006491 -0.036247 0.055166 0.021088 -0.018269 -0.007159 0.007799 0.063031 0.070438 0.091359 -0.067914 -0.051231 -0.073076 0.032891 -0.012590 0.018154 -0.089410 -0.130033 -0.166538 -0.120815 -0.072488 -0.126560 -0.081661 -0.016266 0.112448 0.086214 0.060695 0.031262 -0.002174 0.002800 0.059091 -0.028744 -0.006722 -0.037848 0.031892 0.041087 0.086847 0.014108 -0.002830 0.047481 0.005241 -0.019666 0.031096 -0.101197 -0.170908 -0.185879 -0.123303 -0.053836 -0.095510 -0.046056 0.042890 0.191936 0.181940 0.095421 0.060456 0.032718 0.076055 0.089361 0.063124 -0.070427 -0.068703 0.036449 0.036758 0.079959 -0.018707 -0.055677 0.023543 0.069742 0.022231 0.015236 0.074580 -0.058774 -0.182149 -0.173822 -0.107663 0.001609 -0.029205 0.037839 0.139744 0.198665 0.119573 0.090997 0.100427 0.047070 0.068978 0.081652 0.034139 -0.070208 0.015656 0.003552 0.001792 -0.068282 -0.109839 -0.068625 0.084046 0.021176 0.078610 -0.056597 -0.060462 -0.012648 -0.073584 -0.118822 -0.127944 -0.004396 0.043486 0.073432 0.098796 0.105002 0.105309 0.130539 0.125419 0.091607 0.038296 0.101924 -0.004156 -0.033827 -0.042321 -0.079465 -0.049598 -0.119062 -0.124022 -0.009820 0.053684 0.031642 0.065233 0.000549 -0.000667 0.068172 0.022351 -0.015724 -0.104430 -0.108622 -0.034736 -0.028615 -0.042699 -0.085043 -0.062187 -0.000437 -0.028319 -0.039434 0.007648 0.069242 -0.010296 0.037301 -0.043919 -0.151319 -0.093607 -0.127804 -0.080317 0.031721 0.074837 -0.012975 0.026636 -0.013971 -0.072870 -0.031927 -0.116626 -0.039608 -0.027980 -0.151752 -0.040933 0.015992 -0.130963 -0.106364 -0.058373 -0.048983 -0.059250 -0.008606 -0.005271 -0.098262 -0.109483 -0.087933 -0.076210 -0.040060 -0.002331 -0.039665 -0.120258 -0.102208 0.064955 -0.030428 0.025815 -0.030731 -0.018390 -0.079401 -0.192911 -0.094845 -0.081945 -0.191782 -0.137718 -0.081172 -0.139789 -0.049641 -0.012879 -0.091795 0.042353 -0.001170 -0.009307 -0.120924 -0.102375 -0.101839 -0.107544 -0.075861 0.026517 0.107264 0.049463 0.022577 0.003999 0.015216 -0.015135 0.009283 0.020909 0.019959 -0.089403 -0.033852 -0.027493 -0.085718 -0.093484 -0.062215 -0.062419 -0.085950 -0.177039 -0.157142 -0.113417 -0.130129 -0.160793 -0.107571 -0.177452 -0.142423 -0.118004 -0.111558 -0.086611 -0.048880 -0.081601 -0.013854 0.007025 -0.019106 -0.006926 -0.018400 -0.000374 -0.017256 -0.003346 0.071454 0.005244 -0.150724 -0.267553 -0.257707 -0.277659 -0.210443 -0.240667 -0.248509 -0.240250 -0.203726 -0.214793 -0.175442 -0.067680 -0.074636 -0.064145 -0.046385 -0.114046 -0.026363 -0.036138 0.032578 0.014248 -0.005987 0.012599 0.017716 -0.012323 0.015322 0.024147 -0.042075 -0.153654 -0.033857 -0.002030 0.088263 -0.084116 0.014167 -0.027580 -0.081551 -0.088586 -0.113691 -0.033021 -0.052024 -0.061852 -0.078042 -0.029046 -0.023874 0.009230 -0.022752 -0.035279 0.011563 0.024726 0.022211
0.020512 0.001916 -0.031176 -0.023045 -0.001872 -0.011963 -0.011542 0.018187 -0.016698 0.017135 0.004257 -0.007267 -0.019356 0.013363 0.003388 0.022998 0.015810 0.011905 0.019183 -0.004897 -0.008377 0.010130 -0.018977 0.009248 -0.000241 -0.011105 -0.035046 -0.017356 0.029163 0.020656 -0.015285 -0.029261 -0.031143 0.027311 0.048914 0.023163 0.043533 0.051238 0.061077 0.115075 0.046814 0.044739 0.047969 0.042481 0.041013 0.058206 0.052134 0.112187 0.058512 -0.008768 0.034482 0.000415 -0.006335 -0.027197 -0.033963 -0.031228 -0.026673 -0.020725 0.026685 -0.022435 0.033397 0.038601 0.033513 0.051086 0.012313 0.006988 0.002120 0.030973 0.084883 -0.036676 -0.038893 -0.013669 -0.039058 0.030922 0.091493 0.045072 0.001916 0.064814 0.053485 0.088753 0.074071 0.053555 -0.000818 -0.030287 -0.021444 -0.025403 -0.013342 0.006069 -0.030500 -0.009922 -0.015273 -0.044168 -0.055748 -0.035365 0.000406 -0.041657 -0.014411 -0.151282 -0.149763 -0.093423 -0.065097 -0.049783 -0.132324 -0.140801 -0.196926 -0.057047 -0.055133 0.034541 0.119585 0.096129 -0.049125 -0.010622 0.010565 -0.015556 0.047561 0.023037 -0.063151 -0.062328 -0.078871 -0.074479 -0.011727 -0.060171 -0.095167 -0.111543 -0.088310 -0.052698 -0.013022 0.034713 0.078843 0.057310 -0.027303 -0.033360 -0.003711 -0.062503 -0.171000 -0.123443 -0.082194 0.014921 0.044526 0.007923 0.023057 0.013842 0.016571 -0.136869 -0.183113 -0.245553 -0.241789 -0.092835 -0.014812 0.018003 -0.005054 -0.044859 -0.053279 0.060012 0.005387 -0.044671 0.023799 0.054101 -0.002239 -0.037406 -0.015077 -0.059170 -0.120004 -0.152414 -0.102684 0.071720 -0.036609 0.018008 0.014241 0.014918 0.054971 -0.137384 -0.104904 -0.095544 -0.081119 0.078572 0.070500 -0.011019 -0.006949 0.022057 0.033999 0.022833 -0.024071 0.003173 -0.017875 0.004005 -0.081358 -0.004420 0.008538 0.012605 0.005350 -0.068252 -0.102107 -0.098193 0.023686 0.052673 -0.005334 0.059669 0.075988 0.014318 -0.008448 0.043558 0.108979 0.038042 0.042090 0.074706 0.050444 0.131800 -0.004002 0.002918 -0.043302 -0.013763 -0.011845 -0.000612 0.025486 0.038412 -0.017334 0.088103 0.157813 0.058762 -0.016910 -0.094777 -0.033625 0.050731 0.038603 0.067858 0.091725 0.117282 0.117647 0.081556 0.090830 0.098885 0.153582 0.156122 0.113201 0.117021 0.081370 0.075283 0.084600 0.042201 0.061334 0.077065 0.020317 0.052593 0.089152 0.029170 0.055452 0.157620 -0.032168 -0.124517 -0.076094 0.030457 0.079832 0.150797 0.250469 0.124764 0.190578 0.070405 0.068337 0.102105 0.096214 0.066427 0.133364 0.161738 0.192914 0.241948 0.089750 0.043091 0.044503 0.103524 0.092889 0.090618 0.067299 0.032938 0.064811 0.193430 0.039239 -0.114409 -0.043252 0.050843 0.045216 0.092812 0.109998 0.054298 -0.027911 0.025943 0.036093 0.126645 0.123003 0.111793 0.138706 0.244721 0.248118 0.206328 0.075238 -0.020277 -0.019833 0.109560 0.103667 0.057119 0.052837 0.022793 0.019399 0.117255 0.124104 -0.150109 -0.080381 0.048941 0.095902 0.121813 0.114129 -0.067472 -0.027465 0.034787 0.074715 0.162480 0.122679 0.127022 0.036575 0.135217 0.062916 0.000412 -0.134015 -0.176588 -0.059073 0.058293 0.037663 0.080491 0.013929 -0.041150 -0.034554 0.044074 0.152633 -0.027858 -0.023060 -0.030766 0.012374 0.056604 0.101311 -0.031992 -0.028970 0.016356 0.023809 0.074215 0.081998 0.059868 -0.085380 -0.089782 -0.109872 -0.227313 -0.315134 -0.275231 -0.130027 -0.020131 -0.002694 -0.022325 -0.050378 -0.128195 -0.062272 0.058982 0.288434 0.105725 -0.030950 -0.011220 0.001011 0.020300 0.156702 -0.089014 -0.216577 -0.102147 -0.060130 -0.056974 -0.096078 -0.027790 -0.141733 -0.167236 -0.206939 -0.232072 -0.299146 -0.211484 -0.132549 -0.100373 -0.061619 -0.109135 -0.156070 -0.155747 -0.010569 0.110540 0.142511 0.078378 0.048789 0.063603 0.032644 0.017654 0.072255 -0.072221 -0.160532 -0.110722 -0.119133 -0.114110 -0.236602 -0.178120 -0.121905 -0.160064 -0.215157 -0.197347 -0.159344 -0.102377 -0.135680 -0.073084 -0.123942 -0.194920 -0.171018 -0.075153 0.000554 0.038731 0.165852 0.068220 0.122032 0.111433 -0.035926 0.026185 -0.076844 -0.171627 -0.035052 -0.133351 -0.119682 -0.171306 -0.239890 -0.235811 -0.110418 -0.105648 -0.050502 -0.093313 -0.132482 -0.095559 -0.125428 -0.100414 -0.140307 -0.132217 -0.126267 -0.010033 -0.011537 0.038043 0.120924 0.137825 0.189066 0.049120 -0.032051 -0.014384 -0.127495 -0.168916 0.003827 -0.088463 -0.162020 -0.178636 -0.264456 -0.156392 -0.021881 0.031006 0.101643 -0.061585 -0.037566 0.004025 -0.034179 -0.081965 -0.145950 -0.141129 -0.103395 -0.043898 -0.135789 0.047218 0.075859 0.184994 0.162483 0.057998 0.003711 0.015170 -0.066033 -0.138978 -0.048536 -0.114711 -0.211394 -0.272737 -0.194732 -0.052178 0.098149 0.125620 0.124235 0.034163 0.039818 0.007889 -0.053932 -0.064571 -0.168704 -0.126044 -0.094310 -0.123750 -0.092742 -0.017798 0.088319 0.150389 0.054962 0.099401 -0.050153 -0.018964 -0.061581 -0.085285 -0.005335 -0.066275 -0.162417 -0.171596 -0.150076 0.023642 0.168381 0.185088 0.134425 -0.003514 -0.058061 -0.034240 -0.061723 -0.075264 -0.082885 -0.152219 -0.101428 -0.086665 -0.057843 0.052775 0.157160 0.150748 0.066598 0.111805 -0.010895 -0.028692 0.028931 -0.078110 0.017727 -0.087035 -0.068466 -0.071852 -0.066507 0.111393 0.205565 0.257879 0.136810 0.012360 0.019922 0.031643 -0.033924 0.008380 -0.042281 -0.130037 -0.036137 -0.046004 -0.042127 -0.031482 -0.073463 0.076855 0.086587 0.028216 -0.002522 0.042797 0.078878 0.069187 0.000544 0.012698 0.057040 0.015742 0.038315 0.135738 0.201952 0.237426 0.192043 0.074367 0.060161 0.171869 0.039808 -0.038957 -0.052363 -0.016443 -0.004665 -0.044402 -0.085808 -0.123359 -0.072954 0.065642 0.005387 -0.099231 0.029296 0.056599 0.087241 0.074892 -0.063866 -0.006379 0.072208 -0.000805 -0.025721 0.089438 0.142632 0.176491 0.186548 0.136937 0.176431 0.122873 0.013536 0.028882 0.044973 -0.002112 -0.015942 -0.113162 -0.058214 -0.012437 0.031018 0.174093 0.046131 0.024183 0.007776 0.032756 0.007953 -0.020334 -0.086240 0.030629 0.076936 0.032729 0.030642 0.067226 0.042126 0.134505 0.125803 0.116293 0.157122 0.099429 -0.021392 0.017112 0.038174 0.054741 0.055625 0.030372 0.025989 -0.000355 0.076799 0.112671 -0.039777 0.009004 0.003415 -0.004680 -0.075415 -0.110042 -0.150256 -0.030184 -0.003196 -0.011271 -0.014263 0.020654 0.051509 0.149041 0.183205 0.163423 0.196028 0.133725 0.092149 0.081801 0.148216 0.182277 0.088798 0.138456 0.253189 0.151385 -0.004724 0.045980 -0.153394 0.005929 0.030914 -0.025943 -0.059501 -0.135132 -0.162081 -0.186549 -0.156284 -0.205452 -0.116674 -0.074722 -0.049110 0.073260 0.122773 0.149050 0.122342 0.129987 0.157834 0.179855 0.205421 0.197858 0.167223 0.131976 0.151428 0.169435 0.114282 0.056012 -0.057118 -0.026678 -0.007087 0.028352 -0.070360 -0.067674 -0.089674 -0.233269 -0.035441 -0.082076 -0.125178 -0.042163 0.001850 -0.008874 -0.024310 -0.039600 0.045403 0.123503 0.113000 0.094130 0.178682 0.127271 0.071846 -0.007663 -0.058138 -0.075981 -0.056729 -0.065483 -0.033411 0.018913 0.030138 -0.019804 -0.002503 -0.024909 -0.092193 -0.099661 -0.052067 -0.014332 -0.021201 -0.091073 -0.016315 0.061884 -0.003993 0.034574 -0.015826 -0.012272 -0.009359 0.002188 0.088554 0.130280 -0.068172 -0.099455 -0.019425 -0.013972 -0.041621 -0.031493 -0.010093 0.034192 -0.005834 -0.030829 0.000256 0.027902 0.083685 0.072579 0.111848 0.079438 0.058999 0.095506 0.070918 -0.002856 0.031374 0.140459 0.047094 0.015286 0.154690 0.137400 0.099273 0.099868 0.006525 -0.019838 -0.077545 -0.009758 -0.014394 0.030694 -0.007245 -0.031373
-0.022722 -0.011133 -0.022077 -0.031421 -0.018519 -0.029643 0.012791 -0.002613 0.029669 0.017197 0.008442 -0.024529 -0.034686 0.033554 0.015053 0.032283 -0.011478 -0.025674 0.033544 -0.021003 0.011400 -0.004615 0.030988 0.005579 -0.015018 0.013240 0.006209 0.032119 0.025587 -0.005963 0.012961 -0.025028 -0.033833 0.018809 0.000450 0.076421 0.015777 -0.038147 -0.029004 -0.021388 0.046333 0.045386 0.020319 0.095683 0.040257 0.074624 0.126404 0.138165 0.181122 0.118690 0.089595 -0.004041 0.009232 -0.016156 0.011574 -0.023364 0.034934 0.013443 0.034287 0.057972 0.109599 0.068031 0.039815 0.021273 -0.038746 -0.102908 -0.044131 -0.024651 0.022012 0.015098 -0.072779 0.075876 0.181179 0.144347 0.193969 0.376660 0.301245 0.272034 0.286371 0.261770 0.022125 -0.015875 -0.008437 -0.016311 -0.009290 0.011020 -0.055826 -0.015005 0.091643 0.073292 0.015497 0.005093 -0.145980 -0.251036 -0.238236 -0.237567 -0.185631 -0.141672 -0.106852 -0.020239 -0.012524 0.089043 0.130450 0.173494 0.181922 0.232894 0.273496 0.206844 0.083524 0.027157 0.050797 0.006986 -0.013924 0.018856 -0.087913 -0.037459 -0.073225 0.050895 -0.044832 -0.088716 -0.272746 -0.292852 -0.300682 -0.216576 -0.233766 -0.132077 -0.180385 -0.101160 -0.034793 0.016273 -0.016259 0.036668 0.111133 0.104660 0.082340 0.161391 0.052488 0.048453 0.088198 0.031037 -0.033396 0.014220 -0.003408 -0.120114 -0.057524 -0.036623 -0.116614 -0.167993 -0.308759 -0.347013 -0.285286 -0.151258 -0.078895 -0.048043 -0.003541 -0.006713 -0.005603 0.095471 0.010933 0.049269 0.043580 0.053986 -0.004100 0.038895 0.098045 -0.027803 0.162514 0.086289 0.021471 -0.090337 0.013988 0.010419 0.030970 0.070140 -0.090673 -0.197870 -0.374652 -0.415121 -0.212229 -0.070894 0.009799 -0.005173 0.011785 -0.013345 -0.062395 -0.014757 -0.001155 0.090985 0.104430 0.031853 0.062596 0.075217 0.180247 0.160133 0.212326 0.082504 -0.002439 -0.142425 0.023831 -0.009807 -0.013827 -0.149011 -0.180443 -0.218190 -0.372507 -0.373588 -0.100688 0.044574 0.070316 0.016783 0.071529 0.043251 -0.030125 -0.018073 0.069464 0.046250 0.149887 0.075438 0.104216 0.176083 0.228248 0.217851 0.229192 0.052082 0.004098 -0.048529 -0.060453 -0.074703 -0.123682 -0.119143 -0.175708 -0.252204 -0.325431 -0.273840 -0.192839 0.054479 0.084623 0.143616 0.117656 0.007365 -0.063449 -0.032862 -0.021634 0.041280 0.072344 0.169071 0.109243 0.213994 0.370516 0.279633 0.122517 -0.011555 -0.048705 -0.054888 -0.022015 -0.081384 -0.068969 -0.150209 -0.190684 -0.224380 -0.276267 -0.261963 -0.082109 0.058260 0.168525 0.130323 0.170334 0.069977 -0.075442 -0.123271 -0.160585 -0.130995 -0.065628 0.036002 0.006698 0.165012 0.349578 0.329557 0.078128 -0.012858 -0.006445 -0.064007 0.005346 -0.070537 -0.105738 -0.069827 -0.243890 -0.235872 -0.230889 -0.264474 -0.106672 0.025268 0.142117 0.200428 0.188126 -0.010174 -0.128184 -0.235606 -0.255051 -0.291932 -0.266816 -0.271373 -0.189960 -0.090304 0.131124 0.086907 0.071813 -0.041633 -0.044153 -0.001398 -0.049361 -0.080838 -0.058771 -0.123717 -0.177888 -0.230100 -0.282513 -0.280397 -0.152414 -0.053005 0.098839 0.206593 0.144027 -0.019929 -0.155340 -0.242060 -0.283466 -0.336471 -0.488078 -0.438985 -0.429346 -0.251299 -0.137488 -0.038189 0.087558 -0.019622 0.034161 -0.013527 -0.011671 -0.063890 -0.105502 -0.107547 -0.096014 -0.141731 -0.205702 -0.205970 -0.102234 -0.028260 0.090564 0.126970 0.096791 -0.072284 -0.078402 -0.084085 -0.122742 -0.142380 -0.197574 -0.351964 -0.430303 -0.380844 -0.318255 -0.155417 -0.042532 -0.074622 0.047374 -0.008129 -0.017767 -0.042725 -0.163893 -0.054955 -0.034158 -0.098851 -0.122452 -0.092329 -0.033313 -0.049614 0.089420 0.088234 0.050958 0.053978 -0.019283 -0.042362 -0.014669 0.027749 0.015212 -0.229736 -0.305018 -0.296745 -0.239263 -0.121181 -0.144494 -0.030167 0.029104 -0.026392 -0.044796 0.032192 -0.012840 0.000745 -0.043611 -0.126181 -0.011837 0.044999 0.014819 -0.026207 0.030326 0.032369 0.063925 0.025856 0.021108 -0.075480 -0.049510 0.031239 0.056511 -0.053166 -0.242387 -0.242855 -0.229115 -0.162811 -0.096873 -0.044356 0.071283 0.006785 -0.108651 -0.050709 -0.039503 -0.016851 -0.054686 -0.085337 0.009286 0.036049 -0.035272 -0.008018 0.060026 -0.017211 -0.009306 -0.046313 -0.061232 -0.059344 0.086425 0.064660 0.093020 0.033011 -0.105577 -0.246437 -0.185819 -0.168559 -0.168153 -0.128038 -0.008911 0.056518 -0.069121 -0.051985 0.005382 -0.012844 -0.097020 -0.067615 -0.034216 -0.089568 0.001404 -0.010968 -0.048005 0.012836 0.004460 -0.052131 -0.068819 -0.067618 0.039884 0.049220 0.034010 -0.011706 -0.050830 -0.232101 -0.216270 -0.156875 -0.117678 -0.052221 -0.005042 0.000862 -0.085740 -0.028904 -0.017834 -0.020553 -0.000203 -0.026201 -0.057598 -0.052350 0.031003 -0.019372 -0.063782 -0.054984 0.035730 -0.036079 -0.048494 0.028080 0.094729 0.055577 0.057928 0.060296 -0.037314 -0.119294 -0.215234 -0.254476 -0.088123 -0.020662 -0.033657 0.012031 -0.086600 -0.031735 0.022457 0.008622 0.002745 0.004356 -0.004300 -0.060041 -0.034542 -0.047177 -0.000147 -0.054150 0.039882 0.032001 0.034278 0.029605 0.087351 0.042632 -0.039807 -0.065678 -0.276744 -0.298644 -0.225177 -0.177204 -0.030813 0.079770 0.050008 0.035167 0.032940 -0.092839 -0.011332 0.053098 0.014124 0.007479 0.018981 0.010236 -0.075238 -0.005988 -0.030829 0.020657 0.002799 0.064673 0.101345 0.063122 0.048875 0.007992 -0.063092 -0.116778 -0.287701 -0.206191 -0.116066 -0.095826 0.009008 0.059028 -0.023699 0.041188 0.042229 -0.150838 -0.082171 0.003998 0.033302 0.045475 0.056780 0.051123 0.020679 0.024192 -0.012147 0.007737 0.067442 0.105044 0.088758 0.060302 0.071142 0.022798 -0.020647 -0.179009 -0.292601 -0.289442 -0.098936 -0.080855 0.027745 0.051976 0.059726 -0.009993 -0.227395 -0.129924 -0.097315 -0.101157 -0.058939 -0.009311 0.052959 0.029240 -0.005040 0.003876 0.047940 0.076715 0.072116 0.128463 0.097010 0.057717 0.057160 0.046916 -0.069088 -0.175594 -0.187330 -0.180351 -0.137371 -0.038168 0.013025 0.002309 0.037577 -0.010316 -0.217945 -0.088772 -0.074390 -0.057510 -0.091454 -0.072948 -0.040670 0.016273 0.021199 0.026057 0.129242 0.102987 0.100536 0.126115 0.114935 0.028784 0.075691 0.000621 -0.125384 -0.148157 -0.115130 -0.056372 -0.086408 -0.011387 0.137842 0.020801 -0.007340 0.029568 -0.183074 -0.056072 -0.006372 0.013957 -0.004874 -0.110747 -0.027569 -0.004806 -0.009866 -0.020303 0.065887 0.073817 0.051127 0.060574 0.022770 -0.062544 -0.087481 -0.045634 -0.011396 -0.033384 -0.071030 -0.077445 -0.108527 -0.114038 0.089799 -0.023936 0.017703 0.002652 -0.125304 -0.121812 -0.088032 -0.045506 -0.000252 -0.011540 0.008315 0.113423 0.029816 -0.060063 0.041246 0.019476 0.013740 -0.065429 -0.107976 -0.197103 -0.178961 -0.048810 0.034932 0.084653 -0.033446 -0.034565 -0.062370 0.045210 0.030901 0.019443 -0.035135 -0.005607 0.007640 -0.027449 -0.178195 -0.171148 -0.076526 -0.054125 -0.151317 -0.048749 -0.104645 -0.056285 -0.094556 -0.144964 -0.230474 -0.231616 -0.341535 -0.293611 -0.174839 -0.091405 -0.056440 -0.045848 -0.001159 -0.002979 -0.012033 0.005219 0.006256 0.004596 0.013583 -0.025020 -0.020905 -0.022609 -0.032696 -0.157584 -0.132944 -0.110772 -0.178814 -0.079297 -0.181603 -0.144172 -0.116597 -0.106130 -0.169331 -0.139399 -0.037992 -0.083925 -0.110917 -0.097200 -0.033638 -0.063752 -0.025850 -0.012046 -0.019505 -0.024137 -0.020448 0.028234 0.010669 -0.000131 -0.035401 0.017342 -0.054494 -0.005010 -0.036551 -0.043719 -0.055553 0.024698 -0.018583 0.053447 -0.040585 -0.149702 -0.145674 -0.036339 0.034962 0.004222 0.023294 -0.001887 0.021541 -0.009528 0.022619 -0.021165 0.026422 0.012294 0.022036 -0.028083
-0.014506 -0.030787 0.007986 0.026362 -0.020156 -0.020351 0.026745 0.028695 -0.018118 0.023227 0.018491 -0.008615 0.042211 0.011190 0.028188 0.019757 -0.027538 0.000504 -0.007616 0.030254 0.007999 -0.022412 0.005711 0.003390 -0.011574 -0.015647 0.025431 0.021807 0.030130 0.029585 0.003378 0.025338 0.004479 0.010560 0.022668 0.010990 0.074882 0.023735 -0.072910 -0.088945 -0.018818 0.007328 0.000887 -0.054603 -0.029817 -0.021122 -0.024324 0.021859 0.014280 -0.017222 -0.031327 0.003863 -0.004819 -0.005541 -0.009151 0.023791 0.007199 -0.022952 0.004089 -0.002697 -0.027769 0.048176 -0.002698 0.011849 0.138241 0.132112 0.133653 0.089210 0.073506 -0.043617 -0.003288 -0.112071 -0.137824 -0.170153 -0.066334 -0.067719 0.045132 -0.001458 -0.012803 0.026290 0.067091 0.007240 -0.022695 0.019829 0.022234 -0.032880 -0.067376 -0.012673 -0.015209 0.111602 0.054600 0.095676 0.202992 0.216394 0.165851 0.101311 0.267142 0.168949 0.092393 0.121878 0.035043 -0.024917 0.088752 0.077099 0.047307 0.015868 -0.020894 -0.005238 0.062872 0.067785 0.027671 -0.028735 0.007878 -0.019489 -0.103992 0.000889 0.002985 0.110730 0.110186 0.086284 0.121989 0.192231 0.107196 0.129753 0.166598 0.080482 0.071470 0.125193 0.060942 0.046229 0.045091 0.029744 0.069753 0.037824 0.117499 0.110813 0.112093 0.120228 0.040411 -0.030172 0.013293 -0.018212 -0.075057 0.016992 -0.016865 -0.054468 -0.067491 -0.015740 0.096429 0.061936 0.146980 0.148817 0.087159 0.147233 0.183849 0.101531 0.182275 0.185692 0.168458 0.104582 0.133498 0.084770 0.118898 0.093236 0.103851 0.173817 0.054863 0.007860 0.016740 0.032001 0.009293 0.037952 0.032359 0.016378 0.042967 0.078149 0.108050 0.115888 0.158990 0.153286 0.197737 0.244765 0.256734 0.336039 0.289815 0.172839 0.170895 0.095506 0.031357 0.035223 0.025923 0.050266 0.111928 0.063692 0.014120 0.089889 0.024571 0.048767 -0.053419 -0.033796 0.077240 -0.001643 0.002229 0.023664 0.079351 0.051957 0.074109 0.133215 0.186529 0.217286 0.341516 0.267627 0.202475 0.093174 0.036969 -0.047820 -0.031886 -0.027983 -0.034386 -0.060884 -0.052429 0.002122 0.001513 0.122034 -0.005836 0.061420 -0.099767 0.040699 0.033346 -0.025033 -0.055612 -0.065671 -0.014477 0.058166 0.011464 0.069607 0.068735 0.068977 0.079400 0.028614 -0.026621 -0.035309 -0.121760 -0.069066 -0.121732 -0.087816 -0.098969 -0.082578 -0.045506 0.033357 0.014649 0.062577 -0.013164 0.017599 0.029769 0.066528 0.052306 -0.021292 -0.025938 -0.060661 0.027352 0.015083 -0.014152 -0.028929 -0.069352 -0.101274 -0.210522 -0.253449 -0.166471 -0.104970 -0.119303 -0.123974 -0.091985 -0.151104 -0.140547 -0.114720 -0.024461 0.132461 0.102913 0.102489 -0.008909 0.036922 -0.038791 0.127424 0.019826 0.018814 0.012369 -0.081255 0.009016 -0.065440 -0.062984 -0.119884 -0.185956 -0.297171 -0.297530 -0.336181 -0.158300 -0.135656 -0.099221 -0.094084 -0.111432 -0.094892 -0.124573 -0.149207 0.072747 0.049649 0.199301 0.056660 -0.043028 -0.038563 -0.023364 0.008556 -0.005161 -0.099128 -0.012364 -0.033196 -0.007822 -0.039429 -0.056840 -0.074516 -0.187788 -0.195387 -0.198124 -0.161112 -0.076343 -0.014136 -0.004302 -0.039091 -0.072256 -0.101107 -0.170596 -0.237186 0.022967 -0.001278 0.071200 -0.001139 -0.077669 -0.024166 -0.045704 -0.044296 -0.121458 -0.153321 -0.087378 0.014470 -0.030040 -0.018714 -0.024320 -0.015617 -0.069722 -0.044665 -0.007797 -0.049054 0.000553 -0.016020 0.004994 0.037493 0.050498 -0.002299 -0.221765 -0.236352 -0.122039 -0.146888 -0.019854 -0.100673 0.016752 -0.025144 -0.099490 -0.062351 -0.152677 -0.238570 -0.071644 -0.027885 -0.073007 -0.019390 0.000317 -0.040769 -0.039136 0.044949 -0.020587 -0.091673 -0.065870 -0.053240 0.038728 0.078053 0.070888 -0.020588 -0.172899 -0.102485 -0.124872 -0.110288 -0.003222 -0.028970 0.086842 -0.016943 -0.058391 -0.036647 -0.171613 -0.180452 -0.097871 -0.008943 -0.014194 -0.063546 -0.019191 -0.104495 -0.038537 -0.010374 0.010121 -0.021365 -0.089807 -0.081278 -0.035251 -0.072843 0.033085 0.026185 -0.057493 -0.145189 -0.113070 -0.159164 -0.016298 0.093423 0.057542 0.008411 -0.082998 -0.035049 -0.135029 -0.200729 -0.055414 0.017078 0.017804 -0.066330 -0.073433 -0.054687 -0.016288 0.007433 -0.027811 -0.008713 -0.076516 -0.102700 -0.064751 -0.106944 -0.006840 0.021278 -0.105873 -0.148900 -0.058491 -0.091299 0.071006 0.068235 0.005378 -0.020964 -0.049913 0.027097 -0.101810 -0.194214 -0.049201 -0.075952 -0.094015 -0.039109 -0.007211 -0.011690 0.040161 0.105572 -0.001044 -0.012748 -0.094104 -0.054176 -0.069683 -0.051686 -0.019358 -0.017698 -0.058320 -0.102761 -0.080216 0.000654 0.097085 0.081718 -0.025362 0.029542 0.009130 0.063858 -0.066489 -0.173868 -0.115376 -0.113856 -0.119621 -0.125134 -0.021205 0.062997 0.123570 0.102824 0.067651 -0.046349 -0.025604 -0.072584 -0.062562 -0.060312 -0.009805 -0.075035 -0.031499 -0.040054 0.022541 0.068135 -0.000177 0.088426 -0.024146 0.024488 -0.066122 -0.026767 -0.003555 -0.068724 -0.069940 -0.131030 -0.060701 -0.090052 -0.040602 0.002745 0.011318 -0.059905 -0.062000 -0.048068 -0.027705 -0.078086 -0.105850 -0.027813 0.074355 0.006730 -0.042768 0.087867 0.166099 0.104579 0.032489 0.015139 -0.000172 -0.053559 0.043328 -0.030411 -0.008611 -0.066367 -0.059980 -0.019090 0.003917 -0.135928 -0.117209 -0.057478 -0.015192 -0.029523 -0.006630 -0.001226 0.025851 0.023616 -0.001424 0.070550 0.044214 -0.006761 -0.022595 0.026202 0.066574 0.182271 0.032899 -0.058540 0.007264 0.015165 0.004233 0.136542 0.033174 0.081173 0.059783 0.031544 0.023892 0.039617 -0.011615 -0.010283 0.060010 0.081528 0.052992 0.046718 0.039725 0.046574 0.036874 0.046423 0.076791 0.000997 0.069502 0.105918 0.028437 0.077181 -0.041966 -0.017091 -0.019869 0.058019 0.125738 0.136363 0.086970 0.066617 0.030484 0.068193 0.066873 0.090156 0.067799 0.083897 0.063749 0.063913 0.109377 0.108165 0.126196 0.062704 0.080874 0.065009 0.073275 -0.008350 0.112379 0.151937 0.071770 0.049741 0.102214 0.005024 -0.026266 0.034876 0.111536 0.162197 0.089900 0.045489 0.069908 0.054729 0.075245 0.106135 0.049737 0.140779 0.038298 0.030606 0.087383 0.084501 0.117435 0.072898 0.110637 0.068979 0.120962 0.048280 0.174250 0.231320 0.145518 0.024192 -0.051614 0.016682 0.032538 0.032892 0.074265 0.208899 0.152887 0.088331 0.116747 0.193697 0.091219 0.114415 0.112274 0.147721 0.068039 0.019887 0.061741 0.150341 0.151065 0.176026 0.142657 0.081606 0.135572 0.136718 0.214139 0.179289 0.064284 0.040985 -0.095661 -0.011917 0.035339 0.025327 -0.021921 0.067600 0.081767 0.043510 0.155637 0.195787 0.184626 0.141404 0.113554 0.078447 0.113759 0.120215 0.161597 0.158995 0.127090 0.223343 0.195721 0.078273 0.066040 0.154312 0.162947 0.026573 0.032270 -0.012330 -0.102137 0.018143 -0.020601 0.000002 -0.026710 -0.000986 0.003244 0.060767 0.170553 0.196429 0.125231 0.068242 0.098957 0.100689 0.129719 0.151386 0.044994 0.133982 0.082932 0.150812 0.197393 0.201631 0.117181 0.083497 0.161922 0.050031 -0.052921 -0.034052 -0.020279 -0.034672 -0.032840 0.029558 0.013703 -0.032134 -0.029820 -0.057922 -0.169182 -0.214302 -0.205069 -0.131605 0.002426 0.060710 0.074264 0.080559 -0.004222 0.011525 -0.082036 0.013774 0.009501 0.033688 0.084147 0.162404 0.186334 0.089587 -0.010866 -0.034844 -0.033105 -0.017157 0.025259 -0.008767 0.013858 0.014005 0.033606 0.026639 -0.013288 -0.015484 -0.038120 -0.141634 -0.130948 -0.135392 -0.074890 -0.090686 -0.118685 -0.110244 -0.081222 -0.106099 -0.081254 -0.030887 0.019635 0.027412 -0.017947 0.031083 -0.023565 0.014954 -0.010281 0.028303
0.018880 0.018424 0.009140 0.019694 0.017343 0.005748 0.017438 -0.029224 -0.002079 0.030998 -0.026528 0.026738 0.050193 0.120558 0.044474 0.044488 0.018365 0.030623 -0.005261 -0.030713 -0.004642 -0.029932 0.011487 0.034450 -0.017230 0.002075 -0.015535 -0.010907 0.002624 0.001769 0.004526 -0.009081 0.077423 0.056966 0.064936 0.101528 0.194388 0.084065 0.126890 0.216438 0.204281 0.117987 -0.054745 0.030961 0.099399 0.224239 0.150180 0.173074 0.174239 0.100813 0.114422 0.048928 0.030157 0.012129 0.000387 -0.003904 -0.027802 0.035667 0.051905 0.064979 0.157678 0.057713 0.120681 0.137415 0.261285 0.279891 0.218687 0.289199 0.307456 0.249122 0.175896 0.097937 0.237077 0.142642 0.086837 0.161591 0.116429 0.184911 0.190957 0.225055 0.185541 0.099431 0.010535 -0.014163 -0.021823 -0.028326 -0.054712 0.037089 0.094145 0.174369 0.167554 0.157712 0.227033 0.265250 0.207831 0.221847 0.185835 0.225606 0.153726 0.117410 0.127497 0.078146 -0.018934 0.059137 0.043420 0.063446 0.065179 0.138457 0.099609 0.006234 0.056186 -0.024515 -0.018536 -0.032735 -0.077623 -0.104272 0.119836 0.149549 0.129383 0.138034 0.149519 0.198901 0.223320 0.171587 0.087305 0.112824 -0.011010 -0.056682 -0.059005 -0.037902 -0.075638 -0.023556 0.045993 -0.014240 -0.057184 0.003621 -0.059231 -0.085645 -0.064523 -0.001453 0.017625 0.023584 0.030924 -0.034708 0.165595 0.116903 0.028013 0.015857 0.081753 0.045001 0.035070 0.028167 -0.006159 -0.047255 0.076737 0.045416 0.114744 0.030446 -0.058067 -0.116398 -0.105891 -0.137703 -0.168841 -0.074518 -0.024922 -0.041384 0.021499 0.026492 -0.020254 0.037145 0.151616 0.095724 0.205014 0.077887 0.021133 -0.027872 -0.078224 -0.095869 -0.099829 -0.051075 -0.144057 -0.098368 -0.009933 0.052320 0.095179 -0.022917 -0.050334 -0.188739 -0.233332 -0.191347 -0.215950 -0.118281 -0.149357 -0.058221 -0.019604 0.008419 -0.021873 0.065324 0.068392 -0.001221 0.047801 -0.028493 -0.064748 -0.045306 -0.124248 -0.107730 -0.118329 -0.042583 -0.123471 -0.077700 -0.010785 0.050065 0.066144 0.044278 -0.066781 -0.184174 -0.181354 -0.184824 -0.197182 -0.264523 -0.211330 -0.191581 -0.044885 -0.041374 0.049018 0.027651 -0.014810 0.019741 -0.034888 -0.056315 -0.052702 -0.089986 -0.128981 -0.081459 -0.024714 -0.090485 -0.168213 -0.070750 0.056305 0.118249 0.076859 0.012848 -0.135602 -0.175980 -0.134489 -0.236775 -0.196400 -0.199342 -0.380639 -0.375241 -0.171668 -0.039708 0.014624 -0.052985 -0.015882 0.075140 0.055215 -0.063611 -0.138238 -0.061978 -0.038506 -0.054053 -0.061056 -0.127647 -0.148014 -0.031484 0.092952 0.185036 0.079480 -0.013585 -0.083302 -0.112701 -0.156168 -0.167851 -0.159075 -0.131417 -0.303953 -0.315407 -0.147916 -0.102040 -0.014302 -0.089786 0.037659 0.061581 0.000434 0.008294 -0.042575 -0.019308 0.000774 -0.026275 -0.044111 -0.078898 -0.130958 -0.032068 0.055826 0.069818 0.043986 -0.006388 -0.116209 -0.142464 -0.161213 -0.144562 -0.079427 -0.083751 -0.103938 -0.172621 -0.092583 -0.116210 -0.006292 0.004104 -0.030214 -0.055696 -0.042495 0.005022 -0.052720 -0.088795 -0.088697 -0.085812 -0.126178 -0.141047 -0.105339 -0.071052 -0.065450 -0.038064 -0.049394 -0.001920 -0.052918 0.001804 -0.092254 -0.012049 0.003024 -0.003488 -0.094625 -0.164587 -0.228491 -0.090050 0.020735 0.009328 -0.086167 -0.215399 -0.109967 -0.044523 -0.073085 -0.092919 -0.044552 -0.068593 -0.038071 -0.050582 -0.015791 -0.053379 -0.076853 -0.053074 0.026486 -0.014898 -0.070313 -0.023530 0.026707 0.023366 0.045910 -0.045308 0.045319 -0.069965 -0.142326 -0.035896 0.070244 -0.014363 -0.062810 -0.191323 -0.162386 -0.068255 -0.053212 -0.091961 -0.025126 -0.021485 0.035222 0.027931 0.080665 0.058090 -0.049264 0.011203 0.062194 0.021662 -0.044729 -0.037239 -0.071956 0.034938 0.076132 0.123617 0.162811 -0.015959 0.022959 0.048465 0.051491 -0.039386 -0.020809 -0.026648 -0.145738 -0.046301 -0.017511 0.008756 0.036578 0.057158 0.026297 0.031956 0.021505 0.030567 -0.003555 -0.055419 0.022882 -0.008717 0.015298 -0.119785 -0.037785 0.039449 0.148703 0.136444 0.152401 0.092885 0.137521 0.055641 0.049138 -0.030321 0.061104 0.021168 -0.025308 0.039060 0.045292 0.095307 0.015594 0.091894 0.104668 0.045267 0.023027 0.067328 0.004269 -0.042443 -0.013863 0.023631 -0.024211 0.032690 0.027439 0.086997 0.152937 0.143945 0.149347 0.199941 0.195255 0.123674 0.003817 0.060809 0.044949 0.010838 -0.010049 0.099265 0.082949 0.074181 0.025388 0.097954 0.104307 0.107239 0.044413 0.026778 -0.007386 0.031820 0.059031 0.053806 0.034458 0.058139 0.084387 0.188021 0.131516 0.187735 0.207476 0.393609 0.255227 0.114027 0.026440 0.058779 0.121168 -0.083863 0.059130 0.080441 0.114368 0.075188 0.005965 0.027389 0.026767 -0.005312 -0.024558 0.027618 0.063446 0.060389 0.118983 0.062638 0.082048 0.058603 0.037394 0.136131 0.179131 0.122168 0.143761 0.334997 0.100587 0.146838 -0.015371 0.019615 -0.035766 0.027317 0.135778 0.117733 0.084419 0.082460 0.040152 0.042197 -0.002628 -0.046059 0.109941 0.043658 0.093389 0.103040 0.161837 0.100565 0.088099 0.054832 0.048668 0.133474 0.144163 0.185260 0.216704 0.396210 0.142175 0.180607 0.064090 -0.037626 -0.062016 0.026018 0.118675 0.021753 0.014223 0.049361 -0.002027 0.029160 0.031777 0.085604 0.172687 0.165096 0.172146 0.214353 0.180478 0.117997 0.127850 0.053601 0.049780 0.103676 0.185115 0.152346 0.143294 0.223820 0.224437 0.129490 -0.016076 -0.071361 0.042612 0.161889 0.138971 0.032687 -0.050805 0.025652 0.044682 0.067338 0.052741 0.158106 0.171964 0.151641 0.155210 0.132163 0.116539 0.091719 0.162139 0.104333 0.107803 0.069556 0.052801 0.050947 -0.004128 0.064192 0.192438 -0.008270 0.059695 0.005466 0.094064 0.095175 0.156841 0.054571 -0.101872 -0.018140 0.059002 0.123828 0.063916 0.107069 0.134452 0.049860 0.064793 0.034479 -0.015782 0.006008 0.041724 -0.006417 0.013876 0.006778 0.014851 -0.034564 0.030413 0.105939 0.199918 -0.049354 0.084268 0.048799 0.096712 0.047698 0.091087 0.072131 -0.139237 -0.113348 0.051109 0.101832 0.057453 -0.014065 0.000640 -0.033881 -0.082579 -0.128001 -0.173091 -0.178981 -0.105682 -0.059904 -0.034108 -0.060725 -0.064653 -0.105155 -0.020603 0.075315 0.053040 0.008729 0.001657 -0.002590 0.011410 -0.051069 -0.050772 -0.001373 -0.064856 -0.010835 -0.010085 0.064259 0.022032 -0.011294 -0.142186 -0.205481 -0.220909 -0.276695 -0.337521 -0.395124 -0.272798 -0.132036 -0.111012 -0.111260 -0.060100 -0.132766 -0.093993 0.091598 0.029343 0.027473 0.022754 0.020171 -0.065968 -0.080778 -0.108257 -0.158182 -0.141772 -0.086899 -0.042650 -0.021254 -0.109845 -0.108550 -0.164994 -0.275138 -0.219442 -0.222157 -0.288889 -0.280133 -0.182210 -0.168551 -0.198567 -0.083737 -0.101437 -0.204270 -0.015368 0.082069 0.084171 0.010483 -0.015317 0.029457 -0.048027 -0.044721 -0.089609 -0.162126 -0.126308 -0.243812 -0.359953 -0.277258 -0.287931 -0.293584 -0.338035 -0.338076 -0.240242 -0.239863 -0.299061 -0.138176 -0.169077 -0.218538 -0.255290 -0.258029 -0.164793 -0.075751 -0.044766 0.082948 0.086262 -0.033973 0.007977 0.011168 -0.010893 -0.004093 -0.032461 -0.131620 -0.167749 -0.156430 -0.139987 -0.139281 -0.236899 -0.069553 -0.240322 -0.214661 -0.187382 -0.079344 -0.179530 -0.096453 -0.125845 -0.102427 -0.103124 -0.036997 -0.056203 0.026485 -0.021916 -0.030058 -0.025211 0.005668 0.007554 0.011210 0.000066 -0.014869 -0.001479 -0.030533 0.016407 -0.001354 -0.029936 -0.061599 -0.054224 -0.088164 -0.000512 -0.051648 -0.117945 0.027256 -0.021107 -0.021449 0.010294 -0.011195 -0.008649 0.002804 -0.017102 0.035266 -0.008779 0.008743 0.014834 0.034028
-0.032524 0.017276 0.011410 -0.024098 0.028521 -0.021019 -0.023919 -0.027546 -0.023500 0.010169 0.020366 -0.035658 0.014902 -0.026362 0.004399 -0.010711 0.008793 0.010047 0.034686 -0.027120 0.003839 -0.027709 -0.002034 -0.031654 -0.002512 -0.030144 0.033757 -0.021915 0.007734 -0.025444 0.032084 -0.004747 0.032663 0.025737 0.033038 -0.003500 0.031180 -0.007071 -0.020057 -0.003197 0.032706 -0.014555 0.018740 -0.012342 0.034953 -0.019760 -0.029180 0.018003 -0.017802 -0.000034 0.019110 0.007137 -0.017725 0.013139 0.030496 -0.013195 -0.022325 0.006838 -0.013113 0.029969 -0.018129 0.007299 -0.033461 -0.012821 -0.029613 -0.017809 0.000090 0.000782 -0.000579 -0.032142 -0.034064 -0.024200 0.004020 0.018453 0.012943 0.021549 0.000136 0.005327 0.033213 0.009038 0.019536 0.034246 0.014503 0.012788 -0.034106 -0.012953 0.015494 0.004248 0.027321 0.017922 -0.035486 -0.034559 0.000200 -0.032237 0.032344 -0.035354 0.007056 0.013714 -0.030562 0.005449 -0.020531 0.014782 -0.031398 -0.008122 -0.032577 0.011536 -0.022286 0.020141 -0.015533 -0.007784 -0.011060 0.020174 -0.032760 0.023709 0.026405 -0.000093 0.012454 -0.025442 -0.019158 0.003568 -0.031026 -0.001556 0.018098 0.003215 -0.018829 -0.011520 0.028330 -0.013785 0.017354 -0.019519 -0.022785 0.017880 0.001708 0.000790 -0.015058 0.009402 -0.013976 -0.012104 -0.019496 -0.007422 0.012783 -0.032368 0.028811 0.018879 0.001132 0.002611 -0.023576 -0.009594 0.006597 -0.031640 -0.030160 -0.026124 0.005186 0.009513 0.018883 0.014804 0.008404 -0.012048 0.007178 -0.020951 -0.021549 0.029116 0.014012 -0.001119 -0.017184 0.027738 0.031921 0.026762 0.015421 -0.005377 0.034952 0.006183 0.017317 0.026927 -0.031990 0.028890 -0.018374 -0.015528 0.024495 -0.029718 -0.031763 0.000493 -0.004734 -0.022043 -0.036417 0.004033 -0.013463 -0.029699 -0.026209 -0.015227 0.013644 0.018054 0.028771 0.008484 -0.032546 0.026112 0.011753 -0.008930 -0.028610 -0.029453 -0.031244 0.012985 -0.003040 -0.022647 -0.009947 -0.011701 -0.008890 -0.013050 0.005340 -0.036930 0.003444 0.006037 -0.007315 -0.007530 -0.025601 0.015457 -0.029332 0.025680 0.008610 -0.030114 -0.003704 -0.010108 -0.024305 -0.019414 -0.009012 -0.021108 0.003275 0.011774 0.033449 0.033416 0.027232 -0.016052 -0.017344 0.000744 -0.036704 0.024858 -0.019769 -0.003260 -0.004454 -0.003510 0.006839 0.001324 -0.035502 -0.010714 -0.004644 -0.002340 -0.032114 -0.006279 -0.020507 -0.021840 -0.034675 0.034249 0.020868 0.020048 -0.024865 0.008178 -0.011459 -0.019439 0.019200 -0.012523 0.016344 -0.030864 -0.028195 0.021282 -0.020674 -0.040624 -0.033103 -0.040127 0.025929 -0.021332 0.027933 -0.013148 0.013355 0.029932 0.026700 0.030158 -0.014417 -0.021755 0.006862 0.027027 0.006942 -0.027564 0.009147 0.004978 0.024287 -0.031467 -0.031788 0.010982 0.005340 -0.010278 -0.024729 0.028674 -0.021064 -0.041780 -0.012472 0.000723 -0.013834 0.012737 -0.011499 -0.026653 0.000903 -0.027763 -0.006692 0.019799 -0.007399 0.034328 0.007596 0.015284 0.025957 0.028930 0.002713 -0.013964 0.000852 0.029795 -0.021240 -0.032786 0.024370 -0.033187 -0.008196 -0.012622 0.020607 0.004496 0.016845 0.011944 0.026201 0.019246 0.003938 -0.024037 0.004139 0.026837 0.024411 0.016772 -0.025231 0.004975 -0.024458 -0.007540 0.012028 0.014555 -0.018501 0.032986 -0.022382 0.022372 0.014322 -0.036112 -0.013468 0.001009 -0.003493 -0.005174 -0.024736 -0.039577 0.016977 0.014344 0.003082 -0.006849 0.008771 -0.036903 -0.029414 -0.004199 -0.026261 0.019128 0.016739 -0.007582 0.011536 0.023873 0.023915 0.033129 0.015626 0.030029 -0.008378 -0.030985 0.027228 0.020166 -0.024141 -0.036748 0.007491 -0.018920 -0.039665 0.024074 0.000982 0.019310 -0.032784 -0.027931 0.025182 -0.032131 0.025106 0.020367 -0.020037 -0.006392 0.022124 0.005754 0.006834 0.035657 -0.008263 -0.000271 -0.011271 0.026295 0.012906 -0.003626 0.014726 0.015417 -0.007241 -0.038233 -0.008161 -0.031594 -0.014748 0.010871 -0.021519 0.000657 -0.009379 0.017994 -0.039078 0.027679 -0.013394 -0.014909 -0.029886 -0.004818 -0.022839 -0.026305 0.023405 -0.013649 0.025449 0.029700 0.026895 0.016007 0.029591 0.001669 -0.014267 0.009792 0.025803 -0.005051 -0.031046 0.000212 0.025365 0.010849 -0.011025 -0.019913 0.000155 0.005595 -0.040905 -0.026293 0.011946 -0.005141 -0.034888 -0.030063 -0.025002 0.016160 -0.012049 -0.012852 0.024080 -0.025603 0.019039 -0.002046 0.011172 0.024481 -0.039723 0.026469 -0.025289 -0.009444 -0.000568 -0.016376 -0.032461 -0.037658 0.014098 -0.017451 -0.034011 -0.007981 0.009517 -0.002959 0.005490 0.024118 0.031392 -0.005990 -0.004228 -0.026050 0.011085 -0.020878 0.033958 -0.021432 -0.006667 -0.011060 -0.034216 -0.024781 -0.026118 -0.032483 -0.029729 0.020288 0.020343 -0.014941 0.006712 -0.028079 -0.036134 -0.010080 -0.012403 -0.039097 0.019841 0.001833 -0.032094 -0.006519 0.010783 0.015895 0.024015 -0.006583 0.022455 0.013132 0.025262 -0.004758 -0.007326 0.012046 0.000157 -0.002784 0.002821 -0.015694 -0.031908 -0.034696 -0.000130 -0.039428 0.020634 0.021057 -0.030242 0.010924 -0.040993 -0.023686 -0.034871 -0.014992 -0.016298 -0.015578 0.015666 0.005071 -0.014954 -0.019200 -0.017076 -0.000336 -0.032933 -0.023419 -0.027283 0.012936 -0.012595 -0.018650 -0.032362 -0.035156 -0.003862 0.023853 -0.028172 -0.019947 -0.039188 -0.004783 -0.042047 0.010831 -0.031493 -0.020978 -0.011020 -0.025184 0.014614 -0.001499 0.015793 0.031167 0.034108 -0.000049 0.034180 -0.014806 -0.034378 0.003136 -0.025449 -0.006372 0.026851 -0.003350 0.024551 0.005992 -0.004997 -0.019013 0.007730 -0.031820 -0.038423 -0.030289 -0.017433 0.004935 -0.038347 -0.006675 0.007933 0.029889 -0.024336 0.019051 0.017558 0.020674 -0.010233 -0.026425 0.001580 0.024600 0.019990 0.035445 0.005180 0.015748 -0.030150 0.005831 0.031238 -0.020078 -0.023041 0.014976 -0.008717 -0.018603 -0.028549 -0.004907 -0.016296 0.003019 0.002706 -0.019391 -0.010961 -0.004371 -0.003961 0.026227 -0.030563 -0.028362 0.017411 -0.030109 -0.010957 -0.021812 0.020054 -0.028531 0.017720 -0.007986 -0.029803 0.032598 -0.035388 0.021862 -0.009368 -0.008429 -0.017467 -0.036416 -0.022649 0.020085 0.015089 -0.000949 -0.020007 0.018322 0.022930 0.011365 -0.007606 0.019838 -0.018033 0.013576 0.000298 0.003458 0.030227 -0.030293 0.018648 0.009594 0.030159 -0.000690 -0.026610 0.002004 0.010855 0.008872 -0.015823 -0.009433 0.026360 -0.039990 -0.030793 -0.021069 -0.003640 0.022425 -0.011044 0.000102 -0.015337 -0.013361 0.002725 -0.009590 -0.014971 -0.002705 -0.000425 0.013226 0.025083 0.031457 -0.026117 -0.009015 0.005198 0.010758 -0.021144 0.010734 0.003962 -0.014739 -0.003525 0.022683 0.005263 -0.007467 -0.018430 -0.037603 0.011329 0.008957 -0.005067 -0.024113 0.013850 -0.009036 0.030225 0.032078 0.029874 -0.007435 0.026480 -0.001499 -0.021233 -0.016513 -0.027584 -0.014481 -0.030093 0.016316 -0.015698 -0.021297 -0.024392 -0.030220 -0.015808 0.007008 -0.029206 -0.010744 -0.004380 -0.030135 -0.005352 0.029676 -0.033779 0.010139 -0.006014 -0.004742 0.016217 0.008126 -0.021488 -0.025358 0.031862 0.012707 0.028439 -0.009242 -0.023861 -0.008913 -0.034210 -0.011287 0.001682 -0.031526 -0.026865 -0.012609 -0.013974 0.012948 0.003416 0.010735 -0.005400 -0.034521 0.034049 -0.008657 -0.020735 -0.013036 -0.020480 -0.030402 -0.019442 -0.003324 0.014537 -0.010954 0.011227 -0.014494 0.023379 -0.000952 -0.002625 0.020781 -0.011540 0.022054 0.000721 -0.005071 0.033270 -0.024291 0.010887 -0.016253 0.020622 -0.035160 0.013152 -0.029504 -0.005778 0.007828 -0.005999 -0.027961 0.027646 0.021360 0.008238 0.023974 0.020753 0.026272 -0.012371 0.021026 0.010291 0.004706
0.007156 0.011989 0.033051 -0.016240 0.011015 -0.005919 0.029040 0.004971 -0.011777 0.029018 -0.018282 0.034991 -0.001319 0.002737 -0.062618 -0.012439 0.018728 -0.007218 -0.033899 -0.003943 0.025944 0.005313 0.008206 -0.021394 -0.012710 0.027959 0.017512 0.003192 -0.010101 -0.004371 0.007565 0.017247 0.055185 -0.001135 0.031804 -0.006381 0.068287 0.055083 0.116861 0.078255 0.083315 0.022532 -0.091579 -0.134760 -0.088447 0.023345 0.096463 0.027217 0.052215 0.020618 0.034917 0.032766 0.019510 0.018998 0.010803 0.019726 0.005637 -0.034710 -0.008673 -0.030366 0.016696 0.049403 0.080173 0.109219 0.140114 0.055120 0.015405 0.026178 0.038783 0.032547 -0.002203 -0.004946 -0.007131 -0.014440 -0.086637 0.062431 0.000554 0.086783 0.125456 0.061743 -0.017488 -0.027868 -0.031366 -0.011965 -0.015943 0.002172 -0.061977 -0.089391 0.039715 0.095830 0.043994 0.074727 0.175185 0.062253 0.058496 0.142708 0.005125 0.042159 0.084442 -0.033925 -0.002332 -0.006852 0.001363 0.106310 0.096746 0.091176 0.100348 0.151616 0.038355 -0.064471 0.055582 0.028418 0.009812 0.003911 -0.057478 -0.018929 0.058083 0.035237 0.003043 0.086111 0.145185 0.063775 0.109152 0.115331 0.044633 0.025768 -0.039969 -0.097943 -0.036216 -0.082416 -0.089649 -0.002048 -0.011686 -0.016746 0.017008 0.015092 0.007625 -0.080536 -0.058682 0.036012 0.029686 -0.002977 -0.066362 -0.014099 0.122217 0.084555 0.055394 0.100226 0.062086 0.040229 -0.048494 0.028632 0.103260 -0.018350 0.017867 -0.020141 -0.066927 -0.061277 -0.063266 -0.029983 -0.059593 -0.106775 -0.080545 -0.035115 -0.067003 0.050331 0.002681 0.075430 0.012647 0.011957 0.010835 0.147335 0.104899 0.076755 0.012373 0.030409 -0.001534 0.006166 -0.069236 -0.015671 -0.014670 0.010166 -0.003225 -0.024261 -0.055380 0.004053 -0.108820 -0.106721 -0.043366 -0.006886 -0.093864 -0.135435 -0.089117 -0.011178 -0.082044 -0.008875 0.007244 -0.110425 0.111920 0.160447 0.157906 0.043611 0.001321 -0.050438 -0.010434 -0.031473 -0.128172 -0.159299 -0.030285 0.011470 -0.058573 0.037733 -0.051603 -0.058249 -0.106531 -0.108683 -0.080248 -0.043421 -0.062312 -0.213564 -0.059163 0.022785 0.035688 -0.046115 -0.088391 -0.229432 0.113054 0.251842 0.208477 0.092960 -0.010656 -0.021337 -0.051512 -0.031155 -0.079449 -0.096070 -0.073777 -0.002734 -0.032099 0.002922 0.047339 -0.033172 -0.058949 -0.039887 -0.068706 -0.031751 -0.159326 -0.309952 -0.220100 -0.069838 -0.003999 -0.082350 -0.035272 -0.059781 0.084305 0.194492 0.100271 0.050546 0.019007 0.046082 -0.073424 -0.059924 -0.045327 -0.099321 -0.072004 -0.024395 -0.012921 0.020132 0.043173 0.093310 0.014905 0.020897 0.024659 -0.038336 -0.192327 -0.279222 -0.325894 -0.284854 -0.114985 -0.073116 -0.053473 -0.028688 0.014831 0.143218 0.001943 -0.000343 0.022771 -0.023567 -0.038851 -0.043668 -0.062415 -0.067390 -0.075888 -0.031649 0.001691 -0.027455 -0.018580 0.074465 0.121359 0.048613 0.048936 0.007856 -0.035441 -0.242532 -0.342388 -0.216690 -0.172914 0.004504 0.035605 -0.094783 -0.094038 0.074293 -0.097588 -0.115229 -0.034566 0.001984 -0.041762 -0.050846 0.008700 0.024608 0.073910 0.037405 0.051267 0.058278 -0.001731 0.061800 0.092045 0.087529 0.131331 0.054112 0.015493 -0.224358 -0.387878 -0.345309 -0.189183 -0.073596 0.015255 -0.014245 -0.052432 0.049936 -0.046796 -0.082355 -0.063719 -0.067077 -0.063016 -0.056046 -0.020844 0.109318 0.101429 0.083212 0.050172 0.066879 0.059398 0.143899 0.157212 0.128613 0.144924 0.192434 0.114756 -0.038705 -0.219106 -0.227833 -0.247531 -0.109309 -0.039163 0.031430 -0.114201 0.062780 0.015345 -0.031936 -0.012284 -0.046275 -0.003305 -0.046311 0.090342 0.051017 0.087886 0.079522 0.058511 0.174603 0.163679 0.151791 0.118649 0.139068 0.122248 0.112630 0.129138 -0.043015 -0.168024 -0.154981 -0.223200 -0.066540 -0.045809 -0.000613 -0.099790 0.106045 0.010357 -0.063771 -0.065514 -0.008195 0.018664 0.048432 0.009129 0.094397 0.063692 0.077886 0.054718 0.098596 0.091031 0.160726 0.115893 0.117335 0.108900 0.057597 0.020999 -0.068287 -0.148818 -0.083656 -0.174468 -0.133579 -0.064507 0.064590 -0.022275 0.120012 0.033220 -0.127639 -0.133922 -0.031504 0.031670 0.031780 0.011896 0.088962 0.124099 0.072041 0.065960 0.100588 0.107299 0.146879 0.081952 0.082408 0.079006 0.021813 0.012750 -0.057229 -0.153934 -0.114350 -0.156361 -0.137602 0.022194 -0.005165 -0.006503 0.101782 -0.046248 -0.208114 -0.157739 -0.054785 0.080614 0.018632 0.056547 0.172455 0.124971 0.063531 0.051812 0.045882 0.081094 0.105452 0.051991 0.024360 0.046368 -0.072667 -0.072142 -0.103221 -0.165735 -0.086262 -0.263101 -0.084878 -0.031405 -0.005019 0.059258 0.045259 -0.129345 -0.246726 -0.261465 -0.059874 0.064249 0.048631 0.117643 0.169429 0.150198 0.054731 -0.017360 0.033767 0.081646 0.044812 0.051281 0.073613 0.036905 -0.002219 -0.084926 -0.184870 -0.155544 -0.132703 -0.131306 -0.138516 -0.027679 0.020866 0.077202 -0.091426 -0.212234 -0.237772 -0.260801 -0.139255 -0.036151 -0.038725 0.099602 0.148477 0.094767 0.032930 -0.048769 0.027256 0.066113 0.035970 0.074143 0.044147 -0.052804 -0.082561 -0.154119 -0.332396 -0.229080 -0.196027 -0.155579 -0.104815 -0.020393 0.055456 0.106390 0.010754 -0.136418 -0.105535 -0.166178 -0.128548 -0.176431 -0.086927 0.033778 0.069572 0.003676 -0.094912 -0.012049 0.013780 0.028930 0.051565 0.051776 -0.029915 -0.071012 -0.156044 -0.207314 -0.284136 -0.219693 -0.152955 -0.144897 -0.115937 -0.028114 0.147353 0.139497 -0.057470 -0.117765 -0.104555 -0.101540 -0.093064 -0.162698 -0.093647 -0.011214 -0.061255 -0.018853 -0.079475 0.045539 -0.003168 0.020115 0.001160 0.012764 -0.079592 -0.041458 -0.105790 -0.218485 -0.313389 -0.231648 -0.109858 -0.129422 -0.084375 -0.057347 0.038434 0.011574 0.006352 -0.161571 -0.108875 -0.055743 -0.051343 -0.048242 -0.059030 -0.080780 -0.052454 -0.049115 0.008724 -0.036415 -0.066026 -0.032503 0.001015 -0.035627 -0.081409 -0.099066 -0.106919 -0.181312 -0.287167 -0.202549 -0.092752 -0.093548 -0.046593 -0.085083 0.035065 0.085090 0.018536 -0.062544 -0.152305 -0.029788 -0.019355 -0.026348 -0.058127 -0.042838 -0.051363 -0.026945 -0.012318 -0.038823 -0.067563 -0.016881 -0.097824 -0.126557 -0.110882 -0.110340 -0.104345 -0.138326 -0.223908 -0.167473 -0.033769 -0.038363 -0.017965 -0.031984 0.001810 -0.026381 0.028208 -0.013914 -0.046592 -0.003433 0.032351 0.028172 -0.069041 -0.020103 -0.043747 -0.072279 -0.050031 0.014501 -0.046929 -0.075055 -0.092627 -0.023279 -0.058760 -0.020821 -0.045993 -0.084380 -0.080624 -0.068255 0.032305 -0.116466 0.002580 0.026962 0.029772 -0.025572 0.120108 0.138922 0.131231 0.087672 0.028502 -0.007337 -0.041097 0.035861 0.027960 0.003073 -0.033088 -0.080030 -0.027294 -0.020476 -0.118812 -0.025241 -0.012671 0.001030 -0.075239 -0.010377 0.000878 -0.056399 -0.021359 -0.123800 0.012352 0.005307 -0.027362 0.030492 -0.010429 -0.012086 0.024330 0.028750 -0.036727 -0.018745 -0.005775 -0.047099 -0.149513 -0.148302 -0.079609 -0.108749 -0.118627 -0.079923 -0.080317 -0.082168 -0.059250 -0.001050 -0.014115 -0.079510 -0.019129 -0.096428 -0.011038 -0.039541 -0.017995 0.027482 -0.021176 0.012528 0.002459 0.127057 0.160321 0.226854 0.110856 0.018409 0.039277 0.066296 -0.031566 0.048458 0.028898 0.064881 -0.006627 0.001423 0.043270 -0.026937 -0.056413 0.043748 -0.022976 -0.079146 -0.036884 -0.040434 0.072908 0.025110 -0.010058 -0.029655 -0.018696 -0.002202 0.032338 0.011728 -0.010823 -0.108704 -0.042864 -0.069247 -0.057544 -0.066676 -0.035623 -0.004263 -0.052050 0.025131 -0.006497 -0.003644 -0.139219 -0.028041 -0.070055 -0.034186 -0.098202 -0.006559 0.045793 0.018205 -0.023960 -0.005367 0.010023
-0.035366 0.020723 0.000761 0.021330 0.014414 0.000896 -0.010742 0.026020 0.002094 -0.000081 -0.024401 0.017522 0.048148 0.036645 0.046299 0.048206 0.002523 -0.022668 -0.006200 -0.002421 -0.030834 0.005905 0.008442 0.005775 0.022285 0.017443 -0.007988 0.031613 0.032636 0.020058 0.029470 0.024314 -0.023866 -0.030589 -0.009507 -0.022344 -0.015188 -0.042434 -0.105984 -0.120200 -0.121868 -0.046869 0.053438 0.033166 0.061278 -0.027765 -0.108277 -0.118395 -0.174017 -0.136715 -0.068888 -0.075554 0.002665 0.009726 0.001530 0.005471 -0.033613 0.018934 0.028194 -0.010646 -0.038035 0.062876 0.034414 -0.038270 0.039424 0.031501 0.031703 0.087280 0.068831 -0.044573 -0.004262 -0.007988 -0.038766 0.004708 -0.142791 -0.212870 -0.173189 -0.184016 -0.202248 -0.192229 -0.001988 -0.036140 -0.033484 0.035680 0.005355 0.032951 0.001577 -0.017700 -0.042915 -0.021709 -0.072102 -0.070002 -0.071108 0.015331 -0.018307 0.048583 0.029224 0.031602 -0.050251 -0.096729 -0.006223 -0.050918 -0.104262 -0.201852 -0.233946 -0.211632 -0.116135 -0.019346 -0.015257 -0.000776 0.122968 -0.026281 -0.020627 -0.038064 0.026981 -0.057368 -0.088169 -0.036494 -0.007137 -0.095529 -0.068000 0.035462 0.095548 0.186970 0.185013 0.047961 0.109811 0.061339 0.047067 0.021917 -0.012753 -0.119100 -0.146467 -0.150434 -0.119713 -0.096459 0.094871 0.098033 0.088799 -0.002261 0.031714 -0.005268 -0.017989 -0.041753 -0.057519 -0.130977 -0.119459 -0.112226 -0.097119 -0.019392 0.081517 0.226520 0.233132 0.151891 0.106555 0.074512 0.131090 0.084617 0.005587 0.030045 0.053898 -0.031988 -0.096308 -0.137302 -0.040158 0.134470 0.119614 0.005502 -0.033113 -0.005588 -0.009236 -0.070678 -0.133347 -0.206604 -0.225571 -0.156669 -0.047434 0.074906 0.086142 0.129056 0.099757 0.099985 0.118252 0.169936 0.141945 0.168277 0.098168 0.024567 0.049455 -0.089512 -0.057109 -0.091233 -0.011510 0.121400 -0.010598 0.009055 -0.028712 -0.065079 -0.024778 -0.207918 -0.123975 -0.147607 -0.066778 -0.140690 -0.025510 0.000099 0.058965 0.051965 0.055022 0.094128 0.117772 0.127152 0.177051 0.073871 0.050505 -0.018719 0.009016 -0.002199 0.001382 -0.071900 0.028899 -0.007919 0.030679 0.060162 -0.059462 -0.114934 -0.085921 -0.100579 -0.032396 -0.033852 0.016774 -0.043385 -0.005040 0.003926 0.055947 -0.020959 0.050723 0.133902 0.081604 0.110092 0.114708 0.070412 0.010101 0.076513 -0.019856 0.007883 -0.007837 -0.048523 -0.005428 0.029474 0.084806 0.119090 -0.069582 -0.132051 -0.050607 0.022285 -0.118306 -0.023575 0.075186 -0.040057 -0.032989 0.011017 0.033870 0.013409 -0.015520 0.057842 0.003283 0.005327 0.019548 0.047761 -0.016221 -0.004057 -0.034634 -0.017712 -0.000685 0.009850 0.035443 0.086140 0.189257 0.083317 -0.044075 -0.182049 -0.166020 -0.069008 -0.012387 -0.010911 0.122673 0.010014 0.074624 0.060235 0.059217 -0.000936 0.017033 -0.072721 -0.023109 -0.144535 -0.056636 -0.040454 -0.016921 -0.044096 -0.068213 -0.015099 -0.024579 0.037677 0.033989 0.071753 0.161329 0.030721 -0.120100 -0.127430 -0.164727 -0.082357 0.023236 0.136512 0.087548 0.076100 0.104761 0.051124 -0.057509 -0.072612 -0.102278 -0.057849 0.014799 -0.011705 -0.039553 -0.068107 -0.064477 0.023606 0.018004 -0.020813 -0.052965 0.002675 0.168029 0.171493 0.208974 -0.013774 -0.069462 -0.072407 -0.182162 0.012966 0.143281 0.051353 0.071183 -0.015177 -0.039896 -0.035867 -0.095452 -0.127366 -0.135892 0.057805 0.097403 0.027737 -0.050603 -0.030444 -0.023427 0.098041 0.146513 0.053842 0.003266 0.084333 0.116635 0.067510 0.115283 -0.020993 -0.020351 -0.063890 -0.158886 0.032571 0.036188 0.049538 -0.014325 0.000477 0.003691 -0.028943 -0.148754 -0.079114 0.081801 0.271575 0.230791 0.099514 0.006827 -0.033311 0.042901 0.050637 0.086981 0.023023 0.005759 0.013818 -0.016412 0.119632 0.189599 0.075435 -0.092305 -0.063902 -0.157634 0.043138 0.071173 -0.024729 -0.032228 0.001517 -0.059329 -0.040735 -0.044159 0.046843 0.094342 0.270545 0.168815 0.112210 0.023140 -0.014262 0.016751 -0.046363 -0.105688 -0.056773 -0.116962 -0.108981 -0.128901 0.063135 0.240236 0.142768 -0.066486 -0.074509 -0.118204 0.056358 0.047927 -0.037865 -0.012088 -0.015738 -0.014402 0.024494 -0.018593 0.081040 0.096146 0.207220 0.151814 0.060960 0.011511 0.008199 -0.046365 -0.069360 -0.168855 -0.175098 -0.190169 -0.183703 0.006263 0.108706 0.174094 0.121564 -0.021947 -0.075350 0.054362 0.036979 0.049487 -0.051566 0.005746 -0.025702 -0.057693 0.028248 0.036161 0.089970 0.203465 0.235500 0.115391 0.014671 -0.028910 -0.049233 -0.130237 -0.147530 -0.240359 -0.220020 -0.215068 -0.057631 -0.010755 0.150211 0.232953 0.117133 -0.012361 -0.028497 0.040183 0.127104 -0.033901 -0.073582 0.016668 -0.023093 0.001818 0.065344 0.040107 0.059411 0.197536 0.154682 0.030116 -0.000586 -0.014804 -0.057381 -0.128370 -0.113211 -0.122985 -0.103712 -0.074357 -0.025957 0.062361 0.204188 0.150675 0.177919 0.059869 -0.000798 -0.027041 0.073590 -0.007756 0.032989 0.100949 -0.015973 0.000944 0.005169 0.043168 0.037960 0.103018 0.067082 -0.013299 0.001729 -0.014788 -0.081128 -0.063209 -0.021852 -0.011103 -0.004719 0.073988 0.164806 0.150907 0.212348 0.045869 0.086122 -0.033852 -0.120317 -0.099082 -0.025796 -0.002147 0.082902 0.099060 -0.003539 -0.009996 -0.018401 0.029728 -0.052019 0.007946 0.018246 -0.062533 0.013522 0.016943 -0.001148 -0.041638 0.032252 0.023872 0.086091 0.152118 0.242039 0.171874 0.147883 0.111993 0.044724 0.019426 -0.044066 0.083595 0.110211 0.044858 0.097542 0.076390 0.052200 -0.003669 -0.022352 -0.004465 -0.108760 -0.076837 -0.074832 -0.074527 -0.042942 0.013242 -0.024292 0.044913 0.086706 0.071838 0.073029 0.216885 0.243527 0.141744 0.079972 0.068344 -0.085063 -0.042695 0.112300 0.160567 0.135900 0.064582 0.047643 0.114264 0.097024 -0.027968 0.054524 -0.047641 -0.086692 -0.066031 -0.045376 -0.000966 -0.027455 -0.028934 0.049735 0.055745 0.052630 0.037467 0.054713 0.234517 0.302025 0.189351 0.000385 -0.033739 0.020239 -0.029151 -0.002639 0.145900 0.162960 0.071291 -0.042134 0.063986 0.077953 0.017415 0.038416 0.003804 0.052292 -0.030911 0.009622 -0.056275 -0.048655 -0.027805 0.047282 0.048722 -0.014317 0.123528 0.157026 0.319365 0.331784 0.235366 0.030455 -0.103163 -0.012769 -0.005991 -0.023300 0.004352 0.149707 0.024200 -0.076813 -0.130309 0.017695 0.142506 0.041023 0.058718 0.073763 0.056602 0.045059 -0.051457 -0.012732 0.087917 0.075604 0.157428 0.141641 0.176197 0.211540 0.328244 0.284410 0.142995 -0.027639 -0.080669 -0.014332 0.013975 -0.022449 -0.008622 0.027110 -0.033792 -0.122822 -0.108039 -0.023688 0.025549 -0.004873 0.049170 0.024590 0.106090 0.038346 0.005891 0.102121 0.118765 0.080380 0.137929 0.185091 0.164735 0.154353 0.082367 0.179121 0.177747 -0.052872 -0.026174 0.009556 0.003406 0.034564 0.043668 -0.027761 -0.060806 0.000281 0.035118 0.054769 -0.002287 -0.065998 0.072404 0.008806 0.005761 0.075707 0.036099 0.071290 0.105801 0.136456 0.124903 0.178169 0.150041 0.022836 -0.076927 -0.010992 -0.013462 0.027291 0.009414 0.002079 0.016857 0.001261 0.020105 0.012196 0.081502 0.119427 0.075466 0.135663 0.115740 0.112777 0.141122 0.082251 0.130818 0.139649 0.135308 0.027264 0.017705 0.075979 0.058409 -0.042684 0.088136 0.011974 -0.038101 0.054440 0.031064 -0.073397 0.016421 0.015295 0.004023 0.016753 -0.013170 0.034892 -0.052447 -0.090557 -0.087203 -0.013446 -0.038462 -0.059525 -0.031585 0.028898 0.052826 -0.049722 0.128473 0.057523 -0.080091 -0.173432 -0.056772 -0.031887 -0.030827 -0.085535 -0.068652 -0.069979 -0.018493 -0.033488 0.002705 0.017382
0.035156 -0.007798 0.003396 -0.028847 0.011018 -0.034400 0.000139 -0.014651 -0.019104 0.024289 0.011531 0.030364 -0.044828 -0.041922 -0.025252 -0.004443 0.004485 -0.007187 0.027260 0.003889 0.025556 0.012977 -0.010409 -0.015429 -0.012218 0.034088 0.003742 0.014690 -0.032166 0.033626 0.028335 -0.001826 0.010119 -0.027428 -0.043299 0.000977 -0.004428 0.009123 -0.046964 -0.051140 -0.051339 -0.081556 -0.045184 -0.045956 0.025494 0.006412 -0.005501 -0.001457 -0.062746 0.009723 0.007996 0.016108 -0.017712 -0.022493 -0.024961 0.007769 0.018632 -0.009289 0.023672 0.016419 -0.014487 0.003552 0.012948 -0.012298 0.033785 0.051579 0.025409 0.040616 0.044815 -0.009348 0.059242 0.075879 0.064939 0.034197 -0.027915 -0.033901 -0.017434 -0.023853 -0.042469 -0.047254 -0.030944 -0.029505 -0.018074 0.010763 -0.016114 0.025750 0.060021 0.039632 -0.057434 0.043407 0.128923 0.103761 0.107367 0.233901 0.213867 0.135394 0.202939 0.139051 0.114300 0.048040 0.030808 0.024034 -0.004144 0.000674 -0.041864 -0.098276 -0.107345 -0.149559 -0.059383 0.000102 0.031506 -0.016777 -0.027566 0.023335 -0.019528 0.051404 0.105428 0.105527 0.026654 -0.003255 0.095837 0.152926 0.206759 0.277263 0.203180 0.183243 0.135402 0.109079 0.047956 0.055541 0.120752 0.055578 0.003249 -0.071550 -0.024730 -0.080308 0.041787 0.011253 0.061786 0.012920 0.027253 0.002874 0.029674 0.144692 0.098859 0.090070 0.105299 0.028570 0.027959 0.114619 0.138061 0.160398 0.151655 0.123112 0.116434 0.115701 0.072431 0.043864 0.003835 0.001690 0.037671 -0.059961 0.036082 -0.030259 -0.047232 0.034404 0.036851 -0.034369 -0.013852 0.032626 0.019675 0.142883 0.115866 0.088626 0.111656 0.033180 0.044587 0.090806 0.085527 0.139725 0.119233 0.137404 0.065531 0.044626 0.024071 0.033710 -0.029415 -0.061575 -0.033094 -0.036975 -0.044918 -0.087914 -0.014209 0.031590 0.025709 0.021045 0.015134 0.007761 -0.032676 0.045008 0.171307 0.170106 0.102767 0.058517 0.067977 0.101070 0.063329 -0.012752 0.063222 0.064653 0.052027 -0.015914 -0.082999 -0.036268 -0.048629 -0.062154 -0.036555 -0.047917 -0.041884 -0.063010 -0.106507 0.060418 0.027208 0.029326 -0.030961 0.068662 -0.014358 0.024551 0.195423 0.092078 0.085119 0.012702 -0.015520 0.038845 -0.002728 -0.118366 -0.106600 -0.094067 -0.090666 -0.072978 -0.077971 -0.029102 -0.049533 -0.020026 -0.016562 0.000969 -0.006081 -0.065792 -0.114513 0.070568 0.015714 0.065323 0.024153 -0.030136 0.010823 0.148213 0.122464 0.029363 -0.019761 -0.002604 -0.073482 -0.067068 -0.177009 -0.302897 -0.304355 -0.234548 -0.195738 -0.120939 -0.052752 -0.047630 0.011557 0.024644 0.024323 0.009620 -0.024272 -0.043270 -0.097955 0.080434 -0.000366 0.084301 0.018843 0.006790 -0.074155 0.109259 0.072353 0.028395 -0.036995 -0.145585 -0.120204 -0.209116 -0.324392 -0.386361 -0.349661 -0.187955 -0.108310 -0.127962 -0.054195 -0.016736 0.047219 0.049093 0.005877 -0.035098 -0.056223 -0.112610 -0.074798 0.066226 0.033440 0.046930 0.033478 -0.018524 -0.183812 0.031574 0.050210 -0.141205 -0.163780 -0.244860 -0.299862 -0.294528 -0.222435 -0.160461 -0.049018 -0.037531 -0.033701 -0.085446 -0.050517 -0.005763 0.033140 0.032458 -0.034221 -0.189006 -0.194022 -0.212830 -0.169949 0.003373 0.008208 0.054517 0.001337 -0.033061 -0.139613 -0.083330 -0.041727 -0.134999 -0.180737 -0.195670 -0.168661 -0.087591 0.049973 0.157774 0.096765 0.081895 0.067853 0.005400 -0.047769 -0.094214 -0.058756 -0.004064 -0.133004 -0.167587 -0.256869 -0.246930 -0.259641 -0.144610 0.030596 0.064689 0.021799 -0.022247 -0.082481 -0.097092 -0.040187 -0.047463 -0.043854 -0.010659 0.020868 0.088716 0.098355 0.131653 0.066105 0.152062 0.107819 -0.005971 -0.030731 -0.073934 -0.041046 -0.074288 -0.113289 -0.058835 -0.217277 -0.230687 -0.136940 -0.075237 0.053761 -0.062055 -0.070458 -0.008078 -0.130716 -0.039781 -0.069963 0.026705 0.116202 0.152084 0.097711 0.057039 0.021580 -0.000817 -0.001203 0.126974 0.121590 0.016532 -0.106580 -0.064683 -0.082518 -0.090617 -0.050317 -0.026021 -0.075660 -0.111021 -0.154936 -0.012840 0.039298 -0.026977 -0.072959 0.008137 0.013096 0.039167 -0.009568 -0.017587 0.117433 0.057464 0.012267 0.017169 -0.074535 -0.081398 -0.041607 0.074923 0.092445 -0.024906 -0.072577 -0.131775 -0.140331 -0.039753 0.008472 0.048240 0.029476 -0.006075 0.005814 0.053733 0.112777 0.057647 -0.018710 0.041708 0.104646 0.053047 0.048414 0.004236 0.013367 -0.081660 -0.144636 -0.072675 -0.147095 -0.097277 -0.041856 0.069403 0.005539 -0.078498 -0.090950 -0.062866 -0.002192 0.025050 -0.015930 0.044997 0.021900 -0.002493 0.045706 0.035229 0.055488 0.095604 0.002355 0.072615 0.008785 0.140278 0.066603 -0.075612 -0.064765 -0.094966 -0.131279 -0.094332 -0.178108 -0.183658 -0.152157 -0.044161 -0.070534 -0.098259 -0.011498 0.030022 0.057192 0.108761 0.032579 0.013466 0.058628 0.018961 0.020341 0.050211 -0.011509 0.024533 -0.027495 -0.003596 0.040246 0.136314 -0.049124 -0.054563 -0.047997 -0.123606 -0.122608 -0.044427 -0.056836 -0.143188 -0.244019 -0.067815 -0.047097 0.004501 0.103733 0.019404 0.053789 0.118884 0.133808 0.058311 0.072602 0.066190 0.092865 0.114238 -0.101571 -0.001834 0.002654 0.042750 0.091961 0.027614 -0.012747 -0.004128 -0.040661 -0.068699 -0.084495 -0.059032 0.058446 -0.054038 -0.106439 -0.050262 -0.049431 -0.019633 0.068368 0.092462 0.142252 0.159082 0.117331 0.076188 0.058600 0.088636 0.103410 0.142753 0.086804 0.021670 0.011453 0.037012 -0.010233 0.065361 -0.036436 -0.024976 -0.028739 -0.038144 -0.068599 -0.014454 -0.011991 -0.081725 -0.071356 -0.020227 -0.042354 -0.020673 0.031715 0.019976 0.154017 0.134693 0.092033 0.049786 0.095861 0.125789 0.027856 0.087502 0.068067 0.017831 0.029108 0.098173 0.087824 0.079890 0.057363 -0.082339 -0.041744 0.005795 -0.052299 -0.061386 -0.040405 -0.041160 -0.052092 -0.007658 -0.052135 0.010440 0.044482 0.064027 0.070612 0.081165 0.111058 0.040450 0.058782 0.070634 -0.026815 -0.000632 0.101306 0.012313 0.015839 0.012545 0.095668 0.107799 0.094040 0.008339 -0.048192 -0.032527 -0.024782 0.039219 -0.009754 0.032692 -0.010371 -0.009316 0.011554 0.061217 0.014359 0.056777 0.037448 0.039706 0.076208 0.082653 0.029478 0.023939 -0.083179 -0.000076 0.056317 -0.002941 0.018571 -0.034822 0.130345 0.150223 0.207010 0.087140 0.016695 0.050769 0.065994 0.032590 0.084883 0.108980 0.048384 0.051240 0.067928 0.105195 0.046947 0.040022 0.029012 -0.004158 0.051344 0.025578 0.028527 0.075750 -0.033250 -0.049692 0.024000 -0.021072 0.018913 -0.008351 0.037751 0.137056 0.102091 0.064823 0.029705 0.053487 0.042619 0.049651 0.088413 0.137960 0.085754 0.082154 0.146931 0.043630 0.017974 0.064000 -0.028912 -0.061803 0.021389 0.114903 0.090152 0.043376 0.037754 -0.042409 -0.019345 -0.025041 -0.035489 -0.003320 0.017607 0.031190 0.063562 0.090056 0.131641 0.098438 0.080924 0.077660 0.155614 0.109259 0.067893 0.037871 0.053672 -0.020224 -0.004159 0.007000 0.058483 0.120024 0.046449 0.107284 0.128428 0.029508 0.043385 -0.034376 0.005626 -0.007743 -0.018720 -0.016006 -0.017687 0.016289 0.021968 0.016704 -0.053571 0.032571 0.005642 0.038535 -0.010635 -0.067634 0.065960 0.108734 0.025732 0.019620 -0.119918 -0.096862 -0.044069 0.034380 0.140912 0.178821 0.129720 0.064824 0.038668 -0.007643 -0.028832 0.008676 -0.026741 -0.030402 -0.033424 0.001108 0.022323 0.031410 -0.032346 -0.034156 -0.011441 -0.012689 0.005437 -0.029296 -0.051075 -0.079983 -0.046036 -0.025353 -0.112491 -0.112481 -0.036735 -0.055938 0.021989 0.051218 0.019871 -0.020206 -0.027814 -0.008848 0.033166 -0.010666
0.032265 -0.001826 -0.031808 0.026287 0.008660 0.025592 -0.009733 0.033381 -0.020207 0.031270 -0.020084 0.012025 -0.002231 -0.005130 0.031249 0.047856 -0.030160 -0.033627 -0.015162 0.018916 -0.004377 -0.007638 -0.031698 -0.028150 0.015653 0.016069 -0.001253 -0.033337 -0.002998 -0.031883 -0.018595 0.025129 0.019986 0.053323 0.044025 0.017847 0.045369 0.062429 0.154164 0.096434 0.058602 0.108872 0.104620 0.072028 0.149599 0.206159 0.162017 0.156593 0.150672 0.086192 0.057005 0.022670 0.002878 -0.013367 -0.006452 -0.032986 0.007927 -0.019398 0.060568 -0.005032 -0.018359 0.070486 0.050805 0.082929 0.205456 0.097347 0.143824 0.254299 0.154663 0.087677 0.206666 0.331059 0.368595 0.367856 0.339332 0.225321 0.149288 0.138756 0.139428 0.151661 0.072781 0.085886 -0.014747 0.013968 0.000732 0.000545 -0.082185 -0.033964 0.084131 0.086023 0.013836 0.102425 0.145190 0.127141 0.134937 0.184350 0.231789 0.187582 0.207275 0.268877 0.185193 0.161440 0.257221 0.266562 0.181782 0.055717 -0.065644 0.025064 0.122612 0.058049 0.020260 0.004746 -0.025253 0.021392 -0.080543 0.015716 0.087249 0.135749 0.005554 0.014314 0.029379 -0.008344 0.036637 0.091882 0.084968 0.093985 0.062855 0.051235 0.094588 0.085448 0.143696 0.109549 0.045644 0.044480 0.025961 -0.094436 -0.090191 0.077701 0.113191 0.003449 -0.033989 -0.018817 0.002314 0.039847 0.056489 0.066012 -0.099807 -0.092312 -0.143739 -0.072734 -0.025960 -0.042673 -0.035094 0.032219 0.008409 0.052430 0.129122 0.157871 0.112044 0.061946 0.089114 0.012227 0.040471 -0.074595 -0.129568 0.047619 0.004732 -0.008331 -0.030523 0.022539 0.002262 -0.001178 0.045832 -0.134482 -0.107975 -0.135001 -0.179935 -0.125993 -0.115398 -0.076282 -0.049888 0.021497 0.007116 0.022603 -0.026589 0.003475 -0.006217 -0.009830 0.009222 -0.010231 -0.003238 -0.015679 0.050772 0.022738 0.079254 0.025024 0.031951 0.059719 0.007698 -0.050282 0.012918 -0.058925 -0.120852 -0.127485 -0.142219 -0.061437 -0.124862 -0.021487 -0.050212 -0.002100 0.097253 0.047293 0.031647 -0.033212 -0.009623 -0.012498 -0.060628 -0.081740 -0.076444 -0.005744 0.105862 0.167314 0.127520 0.038886 -0.020501 0.025487 -0.050244 -0.036215 -0.043850 -0.034822 -0.018621 -0.068693 -0.056657 -0.035925 0.005652 0.027364 0.086576 0.092783 0.149563 0.075067 -0.030716 -0.025971 -0.061940 0.009391 -0.004086 -0.025019 -0.024958 -0.011678 0.150520 0.166249 0.104966 0.086588 -0.011896 0.023686 -0.065102 0.044907 0.061981 0.026880 0.030432 -0.019133 -0.043741 -0.001440 -0.064671 -0.042764 -0.003188 0.064975 0.029528 -0.062831 -0.013001 -0.093466 -0.093829 -0.025492 -0.018530 -0.134145 -0.057631 0.035992 0.185909 0.207846 0.053923 0.063425 -0.032932 0.010302 0.025191 0.137581 0.039428 0.060083 0.002302 -0.073208 -0.068908 -0.082685 -0.111490 -0.082490 -0.093160 0.001163 -0.041428 -0.056496 -0.037694 -0.052503 -0.077524 -0.081574 -0.099831 -0.184746 -0.127736 -0.068372 0.100864 0.128655 0.074007 0.058695 0.024735 -0.039483 -0.023751 0.139507 0.083273 0.011431 -0.024218 -0.150239 -0.161436 -0.131682 -0.096641 -0.128500 -0.103763 -0.048195 -0.015718 0.032050 -0.027386 -0.059158 -0.086789 -0.087975 -0.169792 -0.248783 -0.239176 -0.126850 -0.031701 0.023786 0.060343 -0.023389 -0.018677 -0.050897 -0.022320 0.060616 0.021755 -0.090518 -0.079372 -0.096135 -0.098338 -0.032020 0.024434 0.027656 -0.013564 0.049211 0.057775 0.026871 0.005140 -0.084862 -0.071835 -0.125911 -0.190960 -0.180122 -0.221051 -0.164859 -0.112814 -0.079704 0.065213 0.025679 0.058276 -0.034219 -0.068569 0.039619 -0.064109 -0.049100 -0.065388 -0.092401 -0.000389 0.085352 0.033481 0.020272 -0.010635 0.038174 0.096352 0.009938 -0.037448 -0.108881 -0.077592 -0.028600 -0.153741 -0.228778 -0.241211 -0.119886 -0.122311 0.062643 0.032206 -0.000247 -0.006568 -0.008415 -0.024978 0.039038 -0.073406 -0.064421 -0.009697 -0.027220 0.056736 0.076188 0.058362 -0.031799 -0.016297 -0.012226 0.034764 0.057166 -0.109938 -0.064572 -0.005199 0.039537 -0.060351 -0.103409 -0.134660 -0.092087 -0.091400 0.036501 -0.023656 -0.019628 -0.016834 -0.020557 -0.020991 0.012720 -0.110828 -0.006552 -0.002334 0.025685 -0.005301 0.020865 0.022817 -0.071433 -0.044105 0.030552 0.047311 0.001368 -0.071261 -0.041502 0.018973 0.100757 0.043765 -0.081881 -0.093834 -0.053380 -0.011182 0.017010 -0.009393 -0.011630 -0.010438 0.053180 0.076320 0.034079 0.040365 0.035159 0.031617 -0.105856 -0.071478 0.011580 -0.034834 -0.116619 -0.114284 -0.027856 0.000952 -0.048534 -0.033584 0.024123 0.066983 0.137037 0.067858 0.033417 0.039397 -0.017672 -0.002797 -0.008240 -0.020705 0.020941 -0.015919 0.159330 0.043978 0.116200 0.085380 -0.003643 -0.018093 -0.046798 -0.097283 -0.108066 -0.091476 -0.154020 -0.215428 -0.162281 -0.086778 -0.075106 -0.041394 -0.009048 0.013663 0.155007 0.109981 0.085773 0.015544 0.020919 -0.115285 -0.067943 -0.042769 0.046587 -0.075307 0.088595 0.036455 0.148760 0.070371 0.033798 -0.051719 -0.055656 -0.064910 -0.065479 -0.117093 -0.199672 -0.169109 -0.099275 0.012094 -0.054716 -0.007573 -0.033769 0.014213 0.039481 0.048629 0.072828 0.044919 0.035017 -0.008593 0.108884 -0.024899 0.034303 0.023921 0.032826 0.078635 0.097154 0.016510 -0.093034 -0.013055 -0.024873 -0.002010 -0.031544 0.046166 -0.041045 0.015530 0.066557 0.021300 0.023352 0.064677 0.077520 0.041314 0.083793 0.093320 0.117385 0.067048 0.031944 0.043107 0.136360 0.001507 0.036855 0.030153 0.045823 -0.009229 0.059662 0.006228 -0.034982 -0.119063 -0.006410 0.045418 0.136436 0.123665 0.139500 0.164001 0.114664 0.063933 0.083400 0.072313 0.054232 0.142264 0.067681 0.132652 0.179999 0.113200 0.013525 0.063719 0.013525 0.002098 0.027809 0.084525 0.043224 -0.027963 0.102499 0.108420 -0.011180 -0.068166 0.009252 0.039579 0.049810 0.120465 0.188767 0.167957 0.126453 0.104574 0.077796 0.113018 0.117215 0.114991 0.089815 0.087686 0.090338 0.108094 0.035683 -0.013368 0.014069 -0.070982 0.003450 0.034630 0.027441 0.021960 0.122914 0.211182 0.132039 -0.064485 -0.028167 0.005601 0.097350 0.053434 0.120523 0.139835 0.045860 0.013922 0.118579 0.088101 0.037789 0.060955 -0.001673 0.017131 0.085287 0.073565 0.038681 0.050604 0.079861 0.012125 0.010432 -0.021335 -0.000712 0.142782 0.157678 0.220027 0.167805 0.087910 0.078230 0.004853 0.026337 0.004887 0.000262 0.022059 -0.025748 0.018970 0.056200 -0.050141 -0.047003 -0.063341 -0.024371 0.017966 0.054784 0.117084 0.048452 0.052441 0.080506 -0.021521 -0.025145 -0.017011 -0.030099 0.020414 0.118155 0.109620 0.028215 0.077786 0.058896 0.111944 0.086441 0.023080 -0.039453 -0.030397 0.012325 0.059762 -0.019143 -0.056280 -0.061476 -0.099097 -0.180308 -0.111978 -0.010714 0.080491 0.021653 0.031404 0.115193 0.023706 0.004255 -0.016434 -0.016398 0.062346 0.055136 0.081180 0.053671 0.073000 0.066163 -0.025500 -0.012139 -0.012247 -0.070114 -0.038260 -0.071652 -0.185751 -0.172898 -0.192921 -0.163995 -0.137574 -0.032925 -0.115555 -0.026746 0.067434 -0.013893 -0.016451 0.008925 0.002359 0.003226 0.009655 0.033161 0.020854 -0.022963 -0.009306 -0.004350 -0.018313 -0.070667 -0.098853 -0.098664 -0.058020 -0.056638 -0.061669 -0.101448 -0.121975 -0.104043 -0.041388 -0.106030 0.008705 0.078396 -0.014400 0.058290 0.073933 0.070009 -0.003688 0.002720 0.016942 0.001065 -0.013226 -0.024864 0.010710 0.006237 -0.023884 0.026671 0.025524 -0.022373 -0.083730 0.001477 -0.050740 -0.085221 -0.176940 -0.096310 -0.083081 -0.052064 -0.041244 -0.020409 -0.066849 -0.007799 -0.045111 0.012461 0.021990 0.015288 -0.024000 0.014780 -0.002110 -0.008024
-0.025286 0.027426 0.015886 -0.009420 0.012076 0.015402 0.034453 0.031866 -0.007965 0.001891 0.006270 0.031230 -0.027232 0.022945 0.001303 -0.016610 0.033185 -0.017979 -0.008212 0.027355 0.030519 0.023623 -0.010112 -0.003172 0.019164 0.009019 0.019542 0.005052 0.012651 0.020405 -0.019727 -0.009968 -0.035211 0.014687 -0.031363 -0.035336 0.027053 -0.012566 -0.086929 0.024594 -0.007155 0.023819 -0.023839 -0.035056 -0.113264 -0.082655 -0.013781 0.125138 0.127399 0.083592 0.084016 -0.013149 0.016866 0.011922 -0.004352 0.007346 0.020437 0.032126 0.019274 0.033745 0.098087 -0.020650 -0.013691 0.010004 -0.003592 -0.033215 -0.102190 -0.122866 -0.116907 -0.180931 -0.153829 -0.118653 -0.122619 -0.151588 -0.042624 0.044552 -0.074650 -0.082255 -0.010955 -0.048899 -0.098868 -0.020162 0.006035 -0.019810 -0.012815 0.022983 0.012543 0.047237 0.080889 -0.041044 -0.002857 -0.059138 -0.146212 -0.136107 -0.161336 -0.170466 -0.148637 -0.220312 -0.175108 -0.162417 -0.171876 -0.131990 -0.001919 -0.037705 0.003448 -0.055177 -0.046546 -0.136731 -0.107287 -0.007493 0.004185 -0.034305 0.016236 -0.035487 -0.018991 0.045641 0.057950 0.040220 0.054188 -0.055538 -0.109461 -0.150072 -0.103264 -0.119346 -0.204987 -0.139965 -0.084500 -0.102905 -0.027456 -0.096430 -0.102098 -0.018183 -0.061624 -0.074932 -0.012639 0.053103 0.006668 0.037453 -0.041730 -0.054619 -0.001418 -0.018317 0.040870 0.110341 0.149144 0.024419 0.045191 0.007799 -0.037511 -0.049846 -0.095052 -0.118199 -0.268963 -0.261802 -0.137581 -0.125172 -0.116012 -0.046575 -0.140587 -0.165253 -0.029811 -0.050741 0.016065 0.055348 0.041344 -0.025252 -0.005135 -0.043948 0.014128 -0.041420 -0.037504 0.054945 0.245952 0.033574 -0.025837 0.059879 0.005205 -0.072512 -0.204889 -0.273157 -0.338676 -0.351474 -0.136277 -0.159079 -0.060219 -0.004583 -0.047271 -0.123991 -0.108371 -0.117856 0.005992 0.055302 0.118445 -0.022803 0.042132 -0.039476 -0.027719 -0.127047 -0.025173 0.161198 0.143146 0.119975 0.003751 0.011141 -0.032416 -0.207427 -0.319659 -0.325542 -0.290103 -0.282530 -0.127704 -0.142324 -0.043007 -0.007795 -0.091931 -0.110376 -0.129159 -0.041001 -0.003305 0.017981 -0.032719 -0.021712 -0.005847 -0.054426 0.084044 -0.001877 0.006669 0.143360 0.108384 0.100691 -0.090519 -0.109827 -0.089880 -0.167752 -0.306782 -0.305023 -0.295643 -0.281033 -0.175394 -0.107038 -0.014214 0.076932 0.033363 0.047149 0.085681 0.061687 0.009178 0.143178 0.167214 0.168648 -0.004323 0.028495 0.037034 0.114715 0.084713 0.065817 0.100963 0.029888 -0.108816 -0.099434 -0.112219 -0.114739 -0.067871 -0.214904 -0.192818 -0.086802 -0.037065 0.119204 0.199490 0.244817 0.195091 0.202712 0.169590 0.194977 0.164332 0.148601 0.272593 0.261331 0.079743 -0.027427 0.035002 0.058483 0.081315 0.058939 0.070902 -0.008871 -0.090820 -0.034340 -0.104850 -0.101364 -0.078252 -0.038730 0.024668 0.030661 0.119079 0.347655 0.338825 0.222104 0.211369 0.220939 0.192548 0.179422 0.180773 0.275939 0.275102 0.337549 0.237914 -0.077156 0.055794 0.119121 0.124556 0.081284 0.001949 -0.180774 -0.190304 -0.060519 -0.116746 -0.207589 -0.145237 -0.000558 0.014137 0.151482 0.207677 0.282205 0.209304 0.143768 0.160795 0.065130 0.081185 0.152228 0.171466 0.218965 0.241274 0.418125 0.160762 -0.065118 0.015024 0.058810 0.086002 0.050265 -0.050845 -0.250136 -0.348968 -0.027716 -0.147650 -0.089570 0.003643 0.073018 0.082531 0.160456 0.258631 0.180801 0.002064 -0.002032 -0.026634 -0.105033 -0.126171 -0.090246 -0.202246 -0.132915 -0.039371 0.141539 0.130057 -0.034460 0.044526 0.070500 0.005776 0.186924 -0.039404 -0.120941 -0.226406 -0.065922 0.012853 0.032167 0.086956 0.103649 0.146400 0.184469 0.139977 0.025923 -0.058284 -0.034061 -0.209768 -0.231757 -0.330839 -0.269553 -0.293543 -0.350450 -0.277989 -0.060417 0.083466 0.020467 -0.029949 -0.029960 0.043169 0.143185 0.014464 0.024491 -0.117550 -0.094065 -0.032606 0.082688 0.099552 0.064348 0.064662 0.086925 0.010276 -0.028099 -0.025572 -0.089632 -0.212270 -0.285212 -0.283347 -0.259548 -0.266205 -0.298946 -0.143722 -0.079725 -0.108544 0.022393 -0.029979 -0.027389 -0.047469 -0.008656 0.022344 0.005862 0.089841 -0.052336 -0.074985 -0.048333 -0.024719 -0.004534 0.001270 0.003193 -0.076328 -0.095131 0.006374 -0.048932 -0.049679 -0.168738 -0.192049 -0.308388 -0.322146 -0.257478 -0.153123 -0.221311 -0.047949 -0.051867 -0.002963 -0.039847 -0.031198 -0.107737 0.079030 0.089088 0.076905 -0.091662 -0.104470 -0.176264 -0.116214 -0.088038 -0.132908 -0.008549 -0.081448 -0.027338 0.047989 0.015760 0.025462 -0.083465 -0.115127 -0.305267 -0.244551 -0.239579 -0.198362 -0.184556 -0.026953 0.062715 0.028906 0.058136 -0.083354 -0.157099 0.036486 0.195683 0.215380 0.019927 -0.102791 -0.077662 -0.036287 -0.068599 -0.061180 0.022121 -0.017906 0.053733 0.119716 0.079382 0.011927 -0.161827 -0.201398 -0.216544 -0.143234 -0.216314 -0.210377 -0.107557 -0.004957 0.039395 0.018572 0.083548 -0.111945 -0.192109 -0.031194 0.132632 0.133499 0.083601 0.071895 0.141208 0.122620 0.138659 0.151923 0.121147 0.038568 0.061121 0.031208 0.027800 -0.014912 -0.141345 -0.277359 -0.227615 -0.111759 -0.268860 -0.268600 -0.116893 0.030654 0.078118 0.074698 0.093232 0.044225 -0.186414 -0.154805 -0.018937 0.073009 0.114704 0.094791 0.132514 0.167138 0.184910 0.224701 0.152870 0.039294 0.009940 0.022561 -0.011074 -0.050693 -0.239907 -0.329782 -0.197605 -0.128250 -0.210848 -0.099266 -0.036823 0.042540 0.093614 0.003354 -0.066056 -0.003351 -0.200816 -0.132108 0.011863 0.045379 -0.018667 0.031748 0.089189 0.107874 0.160304 0.097817 0.083114 0.002711 -0.065253 -0.097127 -0.112187 -0.206095 -0.373802 -0.391818 -0.114678 -0.031790 -0.108386 -0.085067 -0.032846 0.043609 0.089823 0.093334 -0.077581 -0.016002 -0.077097 -0.152367 -0.031768 -0.006348 -0.070613 -0.032657 -0.023421 0.017385 0.006695 0.023026 0.027497 -0.042533 -0.154013 -0.230746 -0.130792 -0.267149 -0.368406 -0.261450 -0.102739 -0.024613 -0.042318 -0.035176 -0.037572 0.039345 0.028542 0.045713 -0.018721 -0.008825 -0.061865 -0.107637 0.028932 0.025040 -0.031304 -0.027688 -0.010411 -0.060788 -0.076311 -0.064677 -0.119234 -0.102938 -0.194427 -0.217988 -0.177581 -0.159985 -0.135784 -0.185473 -0.027736 0.100853 -0.058988 -0.054020 -0.074186 0.046019 0.019147 0.024076 0.000809 -0.044345 -0.175350 -0.050517 0.052421 0.028754 -0.044583 0.019822 -0.011729 -0.036732 -0.117812 -0.111835 -0.134672 -0.230762 -0.239629 -0.136074 -0.142455 -0.198732 -0.150497 -0.107057 -0.019668 0.122438 0.043489 0.076736 0.022071 0.108389 0.016338 -0.024586 0.017633 0.007017 -0.109680 -0.025800 0.060072 -0.054874 -0.050128 -0.028093 -0.095902 -0.113848 -0.235479 -0.151795 -0.189113 -0.123650 -0.090431 -0.142019 -0.094868 -0.151275 -0.123740 -0.106336 0.027794 0.098895 0.062514 0.034024 -0.028102 0.003002 0.021302 -0.026320 0.027243 -0.035316 -0.081840 0.050331 0.121778 -0.116098 -0.058227 -0.064137 -0.040106 -0.125981 -0.115433 -0.090652 -0.019030 -0.082726 -0.163099 -0.104624 0.044907 0.089549 0.103167 0.067588 0.112071 0.105582 0.018613 -0.031995 -0.007778 0.034661 0.034503 -0.035489 0.007127 0.013713 0.056393 0.090608 0.090974 0.046538 0.036912 -0.044151 0.035520 0.046065 0.103284 0.141664 0.170213 0.010172 0.026422 0.004149 0.045955 0.088072 0.037901 0.046968 0.066333 0.001638 -0.045989 0.010569 0.001563 -0.011596 -0.035681 0.003000 -0.025611 0.007431 0.003272 -0.058116 -0.081937 -0.112283 -0.057745 -0.003037 -0.008293 0.046529 0.128294 0.120555 0.174904 0.138071 0.036443 0.066674 0.005503 0.037027 0.053040 0.006717 0.022168 0.017441 0.002606 0.019078 -0.021418 0.003983 -0.015274
-0.021914 -0.030037 -0.002219 0.019961 0.025215 0.034531 -0.000568 0.025325 0.034227 0.019706 0.024561 -0.021525 -0.013048 -0.017795 0.077034 0.034882 0.027514 -0.009475 0.011323 -0.029849 -0.021902 -0.031488 -0.020238 -0.035290 0.017310 0.027461 -0.003979 0.016593 0.011487 -0.032870 -0.004085 0.010007 -0.044241 -0.119315 -0.075778 -0.054280 -0.071504 -0.009506 -0.088102 -0.092968 -0.152126 -0.089397 0.038655 0.004454 0.102631 -0.002352 -0.154226 -0.129454 -0.189726 -0.090203 -0.072352 -0.029373 0.011787 0.031649 0.001642 0.023398 -0.026128 -0.026254 -0.038654 -0.014805 -0.151524 -0.022024 -0.082830 -0.101844 0.004293 0.106152 0.103851 0.044261 0.098227 0.112813 0.125646 0.100208 0.117062 0.066139 -0.030812 -0.045397 -0.049359 -0.054921 -0.076202 -0.099721 0.094499 0.067126 -0.018708 -0.010367 -0.033828 0.021383 -0.030028 -0.058541 -0.048780 -0.031794 -0.003287 0.029111 0.040565 0.160020 0.149690 0.114079 0.083705 0.092945 0.086756 0.018105 0.065283 0.025456 -0.144725 -0.125544 -0.212667 -0.008930 0.041920 0.040802 0.040565 0.090781 0.031164 0.024850 -0.002133 0.001737 -0.049289 -0.105362 -0.108587 0.048034 0.089424 0.021531 0.071283 0.060695 0.094953 0.110323 0.079354 0.100901 0.087747 0.095232 0.157173 0.109940 0.086822 -0.034359 -0.038234 -0.014838 0.037351 0.031309 0.015995 0.016665 -0.022080 0.068060 -0.010079 -0.031707 0.033002 -0.063145 -0.052718 0.057274 0.130674 0.070949 0.047966 0.041733 -0.051247 -0.020143 -0.011939 -0.057721 -0.003034 -0.037518 0.097597 0.105814 0.118208 0.017099 0.016309 0.098176 0.120686 0.081288 0.001172 0.032970 0.041684 0.068371 0.007385 -0.009329 -0.060268 0.047754 0.086148 0.068606 0.046797 0.014155 0.019021 -0.004042 -0.151665 -0.140076 -0.111275 -0.099614 -0.121861 -0.233045 -0.184874 -0.102427 0.025908 0.065609 0.044555 -0.005411 0.034757 0.114736 0.078160 0.075287 0.051781 0.070709 -0.028699 -0.016914 -0.081750 -0.039681 0.034235 -0.008941 0.054445 0.003433 -0.043935 -0.095114 -0.070398 -0.016908 -0.011127 -0.052371 -0.138745 -0.240156 -0.176278 -0.070367 -0.035812 0.039615 -0.045719 0.036718 0.080507 0.022814 0.095546 0.098040 0.029085 0.026594 0.003970 0.008471 -0.053421 -0.057769 -0.039624 -0.048234 0.017001 -0.060614 -0.150144 -0.105940 -0.006815 -0.037763 -0.028763 -0.064146 -0.134750 -0.224213 -0.139759 0.023485 0.038992 0.052978 -0.010811 0.002586 0.056543 0.031380 0.003984 0.109541 0.057417 -0.019694 -0.025154 -0.072117 -0.090092 -0.039394 -0.077701 -0.071663 -0.142279 -0.094264 -0.090574 -0.079683 -0.069678 -0.068628 -0.065134 -0.049131 -0.251192 -0.207928 -0.027998 0.063292 0.085102 0.047699 0.029750 0.010183 -0.074151 -0.068970 -0.061890 0.086678 -0.050419 -0.004568 -0.032969 -0.046338 -0.071902 -0.065988 -0.045601 -0.078355 -0.142732 -0.152970 -0.057617 -0.093898 -0.105307 -0.049412 -0.057976 -0.170643 -0.315857 -0.199564 -0.014934 0.082072 0.063981 0.057845 -0.057297 -0.007108 -0.071628 -0.095694 0.064785 0.038953 -0.045870 -0.022986 0.030957 0.021111 -0.049870 -0.141637 -0.159500 -0.102028 -0.107449 -0.113318 -0.024509 -0.103895 -0.058303 -0.020335 -0.058500 -0.187440 -0.307148 -0.188562 -0.034747 0.084112 0.029017 -0.036611 -0.166578 -0.146151 -0.093570 -0.036770 -0.001278 0.006987 -0.085926 0.011263 -0.017761 -0.007456 -0.036948 -0.123099 -0.169368 -0.089330 -0.051818 -0.026971 -0.042422 -0.050201 0.006304 0.083210 0.118791 -0.022502 -0.242026 -0.159139 -0.042692 -0.058544 -0.090297 -0.166179 -0.139075 -0.200155 -0.098779 -0.124484 0.041996 0.103932 -0.020142 0.060754 0.001657 0.001320 -0.010875 -0.071276 -0.147982 -0.023432 0.012756 -0.015646 0.087650 0.025955 0.110031 0.146774 0.180668 -0.052547 -0.158797 -0.106996 -0.042713 -0.008802 -0.041620 -0.220306 -0.168900 -0.129684 -0.035594 -0.040023 0.056200 0.119966 0.104320 0.093386 0.027736 0.058578 0.034725 0.007750 0.033110 0.053444 0.054010 0.063081 0.151855 0.099448 0.099769 0.188286 0.184698 0.032036 -0.063515 0.016962 0.068485 0.061124 -0.048935 -0.099212 -0.157574 -0.055913 0.084068 -0.031154 0.052795 0.159824 0.304220 0.114873 0.035401 -0.013191 0.092574 0.164172 0.058558 0.174309 0.115833 0.167334 0.164965 0.161233 0.108756 0.158397 0.167600 0.055042 0.037247 0.037735 0.124612 0.179014 -0.021232 -0.023077 -0.092304 0.007035 0.109736 0.050211 0.068125 0.215210 0.291643 0.113564 -0.030270 -0.059013 0.107423 0.148675 0.079296 0.115847 0.160210 0.195149 0.148665 0.119412 0.045026 0.108385 0.098596 0.040337 0.057526 0.125877 0.257462 0.205552 0.136385 0.087208 0.115478 0.170240 0.154754 0.071369 0.112375 0.312229 0.342179 0.082441 -0.035003 -0.071401 0.177650 0.130532 0.138309 0.099706 0.173513 0.124826 0.101543 0.071375 0.038448 0.004190 -0.053932 0.006881 0.082164 0.207521 0.192528 0.139108 0.157406 0.095891 0.121822 0.202505 0.155884 0.083270 0.058847 0.229230 0.242327 0.044061 0.000507 -0.026430 0.090670 0.185928 0.167029 0.182000 0.185293 0.215059 0.124793 0.067001 -0.069455 -0.070398 -0.038197 0.072036 0.127561 0.123883 0.166456 0.049211 0.014862 0.039691 0.144671 0.148348 0.120872 0.104684 0.151758 0.161392 0.122099 0.096409 0.024498 -0.031773 0.004871 0.089715 0.150059 0.143033 0.171343 0.194900 0.115884 0.025105 -0.063277 -0.113097 -0.093777 -0.019756 0.076479 0.073226 0.056944 0.023511 0.043185 0.047219 0.059622 0.142518 0.092215 0.075056 0.083813 0.126257 0.201935 0.059561 -0.004528 -0.010478 0.031477 0.122031 0.100895 0.090337 0.041087 0.165988 0.049522 0.002416 -0.092338 -0.087935 -0.099665 -0.051947 0.001717 -0.021606 -0.000602 0.016326 0.078154 0.068710 0.017142 0.074824 -0.007269 0.044341 0.006083 -0.047486 0.102828 0.014500 -0.034351 0.050687 -0.007778 0.046605 0.122711 -0.044662 -0.059295 -0.051927 0.017188 -0.037586 -0.106659 -0.085937 -0.049899 -0.067964 -0.046629 -0.026537 -0.037157 0.005559 -0.018471 0.025454 0.060277 0.145425 0.164611 0.079959 -0.083096 -0.054705 -0.000096 0.014942 0.000615 0.027439 -0.005354 0.081250 0.083185 -0.009486 -0.102992 -0.048196 -0.063301 -0.006633 -0.006447 0.015074 0.016656 -0.033779 -0.109349 -0.048704 -0.041059 -0.111870 -0.063232 0.060178 0.078469 0.170905 0.112787 0.031020 -0.020253 -0.083292 0.008890 0.010927 0.000604 0.032469 -0.077968 0.042687 0.075210 -0.028865 -0.071493 -0.076094 -0.092875 -0.097366 -0.021208 -0.008065 -0.075434 -0.030766 -0.015161 -0.077238 -0.075787 -0.105991 -0.076756 -0.022040 0.082144 0.114153 0.081655 -0.054476 -0.127422 -0.060612 -0.084537 -0.001494 0.016241 -0.027485 -0.014622 -0.054702 -0.134780 -0.087250 -0.131234 -0.103650 -0.189124 -0.220734 -0.128451 -0.065480 -0.116825 -0.039070 -0.045072 0.000356 -0.000348 -0.023998 -0.072428 -0.064170 -0.107052 -0.066289 -0.054800 -0.054891 -0.136277 0.091122 0.082643 0.016496 0.013960 0.034854 -0.020156 -0.051262 -0.070838 -0.162034 -0.124792 -0.101155 -0.208023 -0.259579 -0.193886 -0.080788 -0.094748 0.007198 0.047103 -0.008747 -0.018594 -0.087949 -0.170277 -0.270924 -0.306125 -0.217972 -0.137012 -0.042525 -0.086638 0.058093 0.076459 0.016691 0.024247 -0.002760 -0.035502 -0.018550 -0.046062 -0.080018 -0.140672 -0.140235 -0.108026 -0.115476 -0.176312 -0.098386 -0.045775 -0.029823 -0.221957 -0.170913 -0.138530 -0.193478 -0.213766 -0.191291 -0.224538 -0.129079 -0.159909 -0.109937 -0.033856 -0.022110 -0.002432 0.015484 0.005781 0.018245 -0.009086 -0.029562 0.029753 0.029375 -0.087556 -0.095818 -0.052928 -0.039377 -0.019502 0.024624 0.015292 -0.015663 -0.143590 -0.027689 -0.133065 -0.155663 -0.081136 -0.110731 -0.033045 -0.080648 0.026983 0.013281 0.030861 -0.026258 0.018957 0.032341
