0.121530 0.138335 0.010754 0.184681 0.156531 0.238913 -0.112778 0.232106 -0.033549 -0.235817 0.105460 -0.059029 0.029942 -0.192460 0.081653 -0.027028 -0.135275 0.183088 0.070253 0.085216 0.105946 0.104009 0.017242 -0.183063 -0.196209 0.162931 -0.497442 0.139103 0.069741 0.044445 -0.045228 -0.182494 0.111624 -0.267253 0.066745 0.098409 0.006696 -0.087325 -0.065583 -0.069650 0.019150 -0.077836 -0.336169 -0.003778 -0.368760 0.089939 0.030944 0.098122 0.087053 -0.320253 0.097788 -0.337315 -0.063714 0.052712 0.065436 0.031250 -0.002906 -0.208037 0.219270 0.212536 0.110416 0.049000 -0.100437 -0.011436
0.120026 0.218785 0.022862 0.224823 -0.097752 0.028678 -0.057102 0.105015 -0.056521 -0.213015 0.131182 -0.177678 -0.219102 -0.355181 -0.008483 0.056769 0.076444 0.009453 -0.165982 0.162525 0.148633 -0.078953 -0.060793 -0.143435 -0.113395 0.113820 -0.257836 0.143856 0.183305 -0.141016 -0.008787 -0.163414 -0.045915 -0.058811 0.196717 -0.021579 -0.019067 0.077900 -0.176284 -0.290985 0.100249 0.158495 -0.111919 0.011223 -0.087362 0.063404 -0.013111 0.137670 0.033908 -0.239151 0.035417 -0.314181 -0.028551 -0.032025 -0.023654 0.008306 0.014844 -0.058683 0.215702 0.081312 0.090044 0.005666 -0.036119 0.047928
-0.221690 -0.227947 -0.218468 -0.150279 0.060152 -0.324511 -0.053135 0.079382 0.159214 0.091896 -0.000814 -0.182551 -0.117886 -0.117793 -0.301222 -0.015464 0.267361 0.075085 -0.183503 -0.160249 -0.242392 0.141120 0.092350 -0.024932 -0.117775 -0.051836 0.224042 0.085592 -0.411796 0.018778 -0.049958 0.124159 -0.092729 -0.051376 0.223661 -0.016459 0.115314 -0.156684 0.061442 0.079848 0.090583 -0.139278 -0.111713 -0.071489 -0.096627 0.035776 0.120448 -0.059250 0.065399 0.031115 0.062078 0.147795 0.095878 0.176535 -0.025217 0.064313 -0.209316 0.215989 -0.426538 0.176187 -0.049884 0.075220 -0.039894 0.120604
-0.199250 -0.255319 0.098442 -0.199200 -0.013048 -0.187302 -0.115376 0.054969 -0.108445 0.128983 -0.230186 -0.148160 -0.240690 0.151025 0.077666 0.036388 0.106795 -0.206146 0.114364 0.098893 -0.059027 0.106102 -0.006220 0.108857 0.070100 0.086553 -0.245368 0.063556 0.101556 0.050455 0.268361 0.030987 0.015145 0.142033 -0.285772 -0.090427 -0.073307 -0.253908 0.003083 -0.043469 -0.207950 -0.036243 0.357246 -0.036716 0.116207 0.080740 -0.098201 0.046831 0.062031 -0.227150 0.211097 -0.224959 0.171116 0.109181 0.246919 0.068358 -0.038757 0.113117 0.069663 0.197773 -0.240452 0.111031 -0.187372 -0.045951
0.034551 -0.112316 -0.281193 -0.207651 -0.031046 -0.174142 -0.037687 0.121404 -0.050172 0.196147 -0.091664 0.026846 -0.031860 0.072375 0.016430 0.049522 -0.003197 -0.018079 -0.019628 0.185677 -0.045923 -0.022880 -0.001035 0.126867 -0.153271 -0.136487 0.125902 0.161074 -0.156153 0.107403 -0.000561 0.109206 0.104578 0.162054 0.131861 -0.102191 0.028165 -0.116466 0.337699 0.241355 -0.163203 -0.160443 0.259935 0.017076 0.182499 -0.190817 -0.112465 -0.127525 0.100604 0.111604 0.023663 -0.081667 0.133469 -0.053899 0.146501 -0.029591 -0.179285 0.241419 -0.181238 0.117175 -0.062712 -0.003621 -0.118082 0.080476
0.236299 -0.092209 -0.242053 0.139980 -0.169634 -0.237482 -0.096671 -0.055266 -0.207904 -0.090322 -0.069439 0.076219 -0.087860 -0.007816 -0.114409 0.087502 -0.032634 -0.227767 -0.054752 0.216201 0.209163 -0.026304 -0.074995 0.093730 -0.016969 0.015933 0.082044 0.143248 0.170879 0.095565 0.013735 0.107853 -0.019460 0.068719 0.062503 -0.057217 0.117588 0.053366 0.349178 0.135751 -0.177952 -0.031607 0.273656 -0.189242 0.193742 -0.261197 0.100977 -0.132926 0.053539 -0.102826 -0.024015 -0.073671 0.107658 0.097880 0.111037 0.009670 -0.057273 0.105969 0.079710 0.240205 -0.231796 0.042377 -0.230938 -0.178202
0.139714 0.134895 -0.236782 0.015985 -0.074520 0.196915 -0.112784 0.121779 0.037375 0.037891 0.072097 -0.242298 0.271741 -0.200436 -0.062750 -0.155591 -0.145671 -0.063620 -0.104277 0.085945 0.135636 -0.115527 -0.072091 0.022535 -0.178084 0.153598 0.209168 -0.118549 -0.096157 0.072960 -0.212954 0.146720 0.013660 0.153559 -0.035624 -0.042283 -0.066524 0.044940 -0.001630 -0.176752 0.060965 -0.006624 -0.320095 0.106228 0.075641 -0.077518 -0.086357 -0.078912 -0.286506 0.152048 0.025948 0.122615 -0.094283 0.083881 -0.083548 -0.019337 0.155910 -0.017356 -0.055338 0.121226 0.023274 -0.015145 -0.095030 -0.143672
0.216930 0.229164 0.184977 -0.011261 -0.049404 -0.093159 -0.047835 0.036993 -0.047725 -0.134513 -0.154095 -0.135784 -0.082327 -0.381949 -0.240074 0.158211 -0.098119 -0.268233 -0.088258 -0.163699 0.213431 0.018011 -0.064580 -0.143911 0.134882 0.128624 -0.072232 0.146701 0.027701 0.035140 0.021821 0.165395 0.093615 0.154004 -0.121575 0.114735 0.027961 0.300215 0.076046 -0.014417 -0.143825 0.204357 -0.215634 -0.117504 0.231651 -0.000771 -0.016519 -0.212132 0.009666 0.158669 0.074937 0.062093 -0.077095 0.041648 -0.005474 0.075011 0.094930 0.036356 0.021757 -0.188641 -0.134059 -0.096334 0.017035 0.032226
-0.011128 0.056466 0.088047 -0.075145 -0.000214 -0.085175 0.048767 -0.087167 0.204374 0.046096 -0.066946 -0.148859 -0.016900 -0.242064 -0.376535 -0.047331 -0.006406 0.020698 -0.210840 -0.227619 0.192263 -0.015061 0.022134 -0.081377 0.116901 0.041275 -0.126235 0.083938 -0.268597 0.226012 -0.038968 -0.215679 0.041056 0.146157 -0.063171 -0.035333 0.004900 0.156864 -0.118345 -0.225095 -0.031294 0.255060 0.204508 -0.017020 0.048152 -0.073413 -0.041780 0.029583 -0.099030 0.021332 0.064352 0.061426 -0.252345 -0.017562 0.165804 0.114034 0.196712 0.008939 -0.273777 -0.305717 0.105971 0.095794 0.038359 0.101752
-0.000885 -0.004976 0.022671 -0.108510 -0.053020 -0.270228 0.054672 0.026436 0.077274 0.040467 -0.173913 -0.186782 -0.087815 -0.111346 -0.338019 0.014607 -0.018016 -0.017232 -0.063649 -0.033538 -0.005875 0.064040 0.028397 0.129840 -0.048329 0.093364 0.034787 0.178777 -0.142642 0.134046 0.063582 0.166164 0.042660 -0.003105 0.007339 0.045816 0.080190 -0.004668 0.062655 0.089922 -0.113005 0.008947 -0.036621 0.027990 0.027507 0.033102 0.060011 -0.180118 0.009767 0.038237 0.039060 0.073827 0.121037 0.120926 0.162755 0.151181 0.035413 0.134990 -0.044823 0.154376 -0.193511 0.056593 0.122594 -0.177320
-0.215064 -0.052591 0.055188 0.192235 0.239438 -0.198899 -0.012605 0.066797 0.077109 0.169115 -0.075956 0.355588 -0.074005 0.023390 -0.024958 -0.101461 0.021398 -0.048996 -0.017310 0.055747 -0.299499 0.008818 0.027953 0.056051 -0.122814 0.153714 0.104606 -0.091480 -0.151945 0.052726 -0.079050 -0.115431 0.045409 -0.073199 0.112463 -0.075751 0.042886 0.060286 -0.087189 0.093964 0.107783 -0.234790 -0.153765 0.046291 -0.102345 0.081085 0.083378 0.130060 0.001090 0.108062 0.023163 0.212542 -0.035991 -0.059122 -0.195394 0.101897 -0.041403 -0.025057 0.071856 0.094653 -0.051262 0.187855 0.153475 -0.189829
-0.033157 0.047061 -0.068671 -0.062809 0.044012 -0.220922 -0.035598 0.018503 0.080513 -0.161430 -0.029467 0.042772 -0.147819 -0.175261 0.056969 0.037516 0.086622 -0.075943 0.061666 0.189046 -0.189254 0.161902 -0.098781 0.088250 -0.343762 0.006512 0.097509 0.145702 -0.267656 0.157862 -0.136407 0.190221 -0.072187 -0.047400 0.233197 -0.069664 -0.096440 0.001811 -0.045645 -0.042413 0.118989 0.063073 -0.287845 0.073172 -0.013301 0.198202 0.018881 -0.039294 0.065110 -0.025897 -0.099074 -0.016150 -0.013179 0.069137 0.218140 0.126388 -0.008839 -0.068791 -0.129746 0.300858 -0.101995 0.104218 0.064632 0.080676
0.189112 0.200483 -0.112653 -0.012530 -0.316428 0.203771 0.029886 0.091883 -0.073706 0.043522 0.205933 -0.293093 0.289162 -0.300182 0.117511 0.086194 -0.148255 0.134033 -0.277593 0.139113 0.037957 -0.065686 0.044838 0.135959 0.127519 -0.141684 -0.008491 -0.016815 0.148163 -0.019725 0.088010 0.157207 0.033309 0.042641 -0.193411 0.076469 -0.081210 0.251310 0.015571 -0.197614 0.084594 0.229959 0.135719 -0.004631 -0.053723 0.011681 -0.050720 -0.103199 -0.194980 0.195613 0.040292 0.182903 0.116106 -0.073623 -0.129350 0.071769 0.283176 -0.130291 -0.019657 -0.090083 0.132886 0.035898 -0.187314 0.089985
-0.172731 0.033064 0.042445 0.021353 0.042214 0.098522 0.116871 0.138054 0.036216 0.077665 0.089514 0.318696 -0.149800 0.090939 0.122009 0.076235 -0.197348 0.029978 0.193723 -0.081109 0.037854 -0.083082 -0.045830 -0.027706 0.011277 -0.033604 0.217752 -0.052566 0.054334 -0.045419 -0.122839 -0.300250 0.070409 -0.025076 0.139693 -0.103939 -0.086559 0.012914 -0.347463 -0.007870 -0.000897 -0.214636 0.029489 -0.108781 -0.010383 0.051125 0.095827 0.131781 -0.009615 -0.081354 0.058701 -0.071496 -0.112920 0.026224 -0.183749 0.082682 -0.015289 0.012028 0.107692 -0.155006 0.197776 -0.049012 0.096751 -0.053770
-0.104118 0.073722 0.170902 -0.248732 0.221115 0.085610 0.082339 -0.116100 0.055795 0.052392 0.127519 -0.402415 0.202094 0.123397 0.215132 -0.098043 0.041758 0.177563 -0.029841 -0.052050 -0.194225 -0.006917 0.066409 0.049019 0.216513 -0.091765 -0.337333 0.143815 -0.086096 0.110897 0.253646 0.105816 -0.099654 0.033280 -0.335318 -0.073272 -0.030014 -0.259495 -0.074344 -0.023802 -0.186796 0.104667 0.294209 0.108210 0.173740 0.089147 0.039740 0.082200 0.117653 -0.129872 0.161385 -0.464121 0.105261 0.018055 0.294024 -0.020481 0.008371 -0.019391 0.135347 -0.090073 -0.037092 -0.150205 -0.272198 -0.024809
0.050578 0.279151 -0.130666 0.478733 0.140407 0.033494 0.036319 -0.103821 0.145555 -0.023658 0.121541 0.341218 -0.242542 -0.022295 -0.078711 -0.127728 0.025150 -0.096670 0.087018 0.224523 0.017340 0.061437 0.039491 -0.024293 -0.008909 0.175243 0.006233 -0.067648 0.073754 -0.096279 -0.333581 -0.085200 0.063303 -0.128569 0.167043 0.052008 0.104570 0.324818 -0.007331 0.153494 -0.024094 -0.092434 -0.200649 0.174313 0.093928 0.115420 -0.099950 0.028533 -0.184445 -0.087780 0.191945 0.235689 -0.185774 0.017970 -0.244476 -0.097344 0.155537 -0.214764 0.113515 0.244035 -0.034088 0.073687 0.172360 -0.085084
0.202303 -0.024557 0.183479 0.037402 0.018412 0.054266 -0.036846 0.108535 0.037653 0.047789 0.147192 0.066672 0.076883 -0.188582 0.098152 -0.037673 -0.028515 0.025241 0.192601 0.094629 -0.102439 0.131155 -0.073140 0.036019 -0.255060 0.000717 -0.468305 0.104602 0.098468 0.175970 -0.080037 -0.168328 0.086539 -0.062287 -0.022133 0.065860 0.119087 -0.115166 -0.108145 -0.119435 0.157438 0.172235 -0.100933 0.156926 -0.358253 0.142145 -0.016277 0.196014 0.258833 -0.167019 -0.096061 -0.416322 -0.090576 0.006244 0.003488 -0.001354 0.122908 -0.147050 0.267457 0.136505 0.157261 0.160729 -0.010579 -0.084765
0.190783 -0.026867 -0.239702 -0.194180 -0.124282 0.184567 0.038858 -0.007481 0.147045 0.221027 -0.012916 -0.220942 0.176557 0.050317 -0.090429 0.312634 0.228310 -0.107129 -0.089202 -0.125420 -0.036266 0.007364 0.025009 -0.081889 0.001695 -0.061638 0.107011 -0.207068 0.215073 -0.230895 0.151252 -0.020408 -0.092176 -0.054233 -0.126301 0.028310 0.032200 -0.216703 0.155255 0.156701 -0.079635 0.035297 0.154330 0.065035 0.036844 -0.229525 -0.058360 0.091136 -0.044688 0.194780 0.014110 -0.030735 0.173372 -0.123327 0.225821 -0.192906 -0.157354 -0.142632 -0.053223 -0.377385 0.089834 -0.046642 0.033837 0.013224
-0.116331 -0.121786 -0.151694 -0.162436 -0.008543 -0.200046 0.088710 0.070756 0.162395 0.175689 0.052704 0.001906 0.135324 0.002242 -0.019001 -0.062052 0.228026 0.083796 -0.204952 0.012629 -0.171770 0.078621 0.066977 0.077486 -0.247379 -0.122398 0.410666 -0.009058 -0.294294 0.007401 -0.193012 0.064352 0.076722 0.145890 0.306626 0.088169 0.041478 -0.087040 -0.095248 -0.003857 0.211200 -0.171690 -0.342163 -0.050073 -0.039023 0.178042 0.026932 0.014359 -0.146286 0.206692 -0.075424 0.281824 0.156914 0.178619 -0.090355 -0.004110 -0.099994 0.096641 -0.373893 0.061240 -0.262429 0.027891 0.176097 0.085942
0.223049 0.003174 0.054068 0.113024 -0.238746 0.026895 0.021439 0.053256 -0.094213 -0.192686 0.103210 0.110783 0.095330 -0.422088 -0.021153 0.044838 -0.166429 -0.033580 0.046332 0.197481 0.092638 -0.087025 -0.078045 0.051660 -0.045475 0.017144 -0.171124 -0.058383 0.317672 -0.065424 0.012488 0.110575 0.038569 0.039269 0.115108 -0.119056 0.035268 0.141372 0.221921 -0.098783 0.021066 0.098743 0.036129 0.118535 -0.019729 0.041566 -0.032190 -0.113790 -0.043708 -0.105878 0.118480 -0.049510 -0.173441 0.068897 -0.036091 -0.074150 0.247222 0.087576 0.248955 0.180166 0.104075 -0.065818 -0.048917 0.079231
0.195763 0.188778 0.137597 0.165301 0.121964 0.016602 -0.019846 -0.095004 0.109243 0.037048 -0.017787 -0.213156 -0.100448 -0.360229 0.065276 -0.086703 -0.108105 0.003840 -0.185069 -0.043953 0.068273 0.039199 0.076469 -0.253280 0.075994 0.155643 -0.164458 0.165560 -0.128288 0.193903 -0.093062 -0.183735 -0.068055 -0.157123 0.027316 -0.077208 0.117908 0.249269 -0.018797 -0.096680 0.069500 0.214315 -0.243882 0.077600 -0.091309 0.163096 0.035650 -0.084356 -0.042943 0.132517 0.169558 0.066103 -0.285658 -0.023855 0.082992 0.032157 0.275300 0.014533 0.216050 0.049095 0.092631 -0.088124 0.040635 0.003414
-0.012020 0.147036 -0.054286 -0.031397 0.115591 0.016322 0.080139 -0.170483 -0.018133 0.124851 0.044725 0.141181 -0.204128 -0.130582 0.026905 -0.089195 0.013366 0.083237 -0.177834 -0.028116 -0.052134 -0.163146 0.035483 -0.098792 -0.094059 0.050876 0.213906 -0.285228 -0.036402 -0.195401 -0.152447 -0.157637 0.017909 -0.163199 0.039826 0.030762 -0.021420 -0.001587 0.079961 0.166178 -0.007644 0.118466 0.024075 0.117953 0.028763 0.096903 -0.107601 -0.024389 -0.157768 0.007754 0.027936 -0.147215 0.132692 -0.191685 -0.104798 -0.106138 0.048652 -0.064594 -0.318542 0.031744 -0.019810 0.077457 -0.067387 -0.011295
0.288611 0.104671 -0.135638 0.095176 0.009786 0.078186 0.050617 -0.100665 0.101817 0.052369 0.035218 -0.165360 0.268347 0.037393 -0.022831 -0.009905 -0.023280 0.253787 -0.203250 0.150167 -0.089346 -0.146801 -0.052901 -0.036574 -0.014854 0.178895 -0.195654 0.122869 0.124928 0.089195 0.095890 0.311836 0.016419 -0.019740 -0.194644 0.045167 0.007155 0.155854 0.393951 0.018988 0.158969 0.197875 0.088195 0.024114 -0.040284 0.113049 0.076236 -0.217029 0.021804 -0.116116 0.025048 -0.130801 -0.119110 0.167634 0.102523 -0.071482 -0.133237 0.067831 0.016509 -0.019883 -0.184991 -0.123531 -0.163796 0.129638
0.042267 0.139455 -0.137001 -0.134858 0.106078 0.238418 -0.042566 0.024001 0.003500 0.085298 0.042675 -0.119494 0.096801 0.080316 0.160039 0.155907 0.006320 0.295857 0.062924 -0.127018 0.112347 -0.069064 -0.003212 -0.018594 0.068741 0.040666 0.028458 -0.079522 0.373517 -0.133488 0.015168 -0.062957 0.062855 -0.043818 0.010421 0.091254 0.063763 -0.111612 -0.067640 -0.077953 0.047621 -0.087131 0.296957 -0.015703 -0.059590 0.008165 -0.033173 -0.073470 0.032792 0.014720 -0.014822 -0.109900 -0.020031 -0.059259 -0.088536 -0.025750 -0.078713 0.001965 -0.065209 -0.374118 -0.131738 -0.169953 -0.027006 0.073266
0.142356 0.033787 -0.138329 0.327771 -0.017868 0.158394 0.070647 0.062486 -0.088674 0.136074 0.070855 0.181635 0.140106 -0.316246 0.034359 0.091050 -0.274323 0.151891 -0.299590 0.201958 0.031670 0.086795 0.017504 -0.102367 -0.024507 0.214235 0.076272 -0.062535 0.040448 0.000487 -0.211930 -0.000932 -0.014805 -0.108942 0.035786 0.016049 -0.123620 0.110933 -0.076774 -0.331007 0.041680 -0.091914 -0.248850 0.109599 0.074215 0.065535 0.004925 0.027378 -0.318710 -0.064598 0.163181 0.136917 -0.207978 0.021168 -0.309294 -0.031780 0.302072 -0.130311 0.049475 0.018857 -0.010457 -0.130769 -0.064694 -0.137186
-0.038325 -0.046868 -0.097108 -0.126084 -0.115466 -0.157290 -0.031312 0.057788 0.164696 0.208250 0.079261 -0.011057 0.101094 0.161629 -0.040545 0.095756 0.153287 -0.088458 -0.066891 -0.192193 0.169408 0.032972 -0.072415 -0.028124 0.092592 -0.084240 0.294520 -0.050828 -0.264976 -0.028043 0.150871 -0.128844 -0.096765 0.107774 0.035842 0.066443 0.114628 -0.074127 -0.289184 0.018561 0.204835 -0.135411 0.207725 -0.010262 0.081602 0.055730 -0.071326 0.030268 -0.079610 0.180124 0.010423 0.182740 0.141570 0.055664 -0.182910 -0.027656 -0.008916 0.193484 -0.373163 -0.264564 -0.014592 -0.022659 0.152683 0.054786
0.222688 -0.066123 -0.175774 0.115087 0.039882 -0.367845 -0.064517 0.010029 0.020727 -0.219759 -0.205024 0.008948 -0.164188 0.052639 -0.055942 -0.019634 0.096468 -0.139564 -0.057734 0.197711 -0.141405 -0.055650 0.013819 -0.010816 -0.113753 0.020758 -0.154201 0.202710 0.218644 0.100321 0.038069 -0.001758 0.129927 0.141774 -0.011728 0.043402 -0.069968 0.134724 0.384750 0.163396 -0.066353 0.226343 0.037036 -0.083869 0.127425 0.007718 0.004158 -0.354757 0.007480 -0.246790 -0.060635 0.014838 0.154579 0.135936 0.157986 0.011543 -0.237389 0.114588 0.066861 0.161868 -0.173496 -0.084675 0.108215 0.057257
-0.087679 0.009050 -0.118163 -0.090236 0.021679 -0.145440 0.016933 -0.117294 -0.029335 -0.085301 -0.044899 -0.145956 0.047465 0.029434 0.053660 -0.148401 -0.114737 -0.081856 -0.034873 -0.030603 -0.018334 -0.026404 0.096871 -0.038137 -0.017617 -0.126538 0.045292 0.076255 -0.048522 -0.018490 -0.028275 0.099762 -0.072926 -0.097552 -0.096028 -0.095157 0.108938 0.045090 -0.139847 -0.122662 -0.044308 -0.139877 -0.070467 0.059147 -0.010021 -0.099775 -0.034954 0.017551 -0.034369 0.009887 0.072385 -0.134561 0.006717 0.056249 -0.177847 -0.077097 -0.005908 0.005331 -0.054457 -0.058342 -0.106981 -0.027488 -0.075157 -0.211236
-0.078629 0.010130 0.056429 -0.039977 -0.355578 -0.193546 -0.112549 -0.047979 -0.121964 -0.123756 -0.201273 0.241712 0.290203 -0.006521 -0.083553 0.090769 -0.298078 0.122629 0.159969 0.014498 0.194038 0.078305 0.127046 0.156260 0.060656 -0.354119 -0.198152 -0.057372 0.286682 -0.060926 0.089880 0.265469 -0.032630 -0.074332 -0.198941 -0.041111 -0.112593 0.113295 -0.085431 -0.093241 0.083133 0.141211 0.101035 -0.189089 0.238415 -0.194815 0.065163 0.014067 -0.337710 0.045613 -0.384431 0.231455 0.027401 0.090732 -0.143688 0.123713 0.225261 -0.093860 0.380597 0.030364 -0.317426 0.106990 0.025954 -0.099907
-0.168863 -0.120503 -0.186884 -0.105238 0.073618 0.017023 -0.035003 -0.002880 -0.167870 0.160312 0.005297 0.172659 0.016484 0.253602 0.104367 0.161008 -0.080874 -0.025510 0.157193 -0.106194 0.055248 -0.207524 -0.011009 -0.098284 -0.073708 0.012593 0.035163 -0.258480 0.109351 -0.142818 0.127970 0.118916 -0.018962 0.095578 0.235346 -0.038319 0.014479 -0.282690 -0.086438 0.053201 -0.116920 -0.447025 0.180643 0.026918 0.075987 -0.095180 0.075514 0.154637 0.103207 0.011171 0.050236 -0.023912 0.056103 -0.134956 -0.093454 -0.058435 -0.277893 0.053954 -0.210127 -0.386102 0.030785 -0.031565 0.075388 0.124302
-0.077357 -0.125773 -0.019280 -0.134116 0.158015 0.063030 0.110496 0.027185 -0.091624 0.207800 -0.006445 0.121083 0.057414 0.039122 0.316881 0.134559 -0.100144 0.326472 0.109470 -0.163819 -0.170236 -0.009473 -0.068274 0.018833 -0.096113 0.022639 -0.212672 0.011592 0.031367 0.181426 0.096723 0.067126 -0.067425 0.087386 0.077344 0.116586 0.065781 -0.273496 0.069699 -0.106731 0.046540 -0.191763 0.218137 -0.092034 -0.217504 0.150188 -0.106552 0.104820 0.017762 0.053002 0.129789 -0.082705 0.184270 -0.087488 0.010534 -0.084193 -0.091603 0.007193 0.126201 -0.058011 0.116495 -0.053098 -0.031520 -0.194963
-0.022901 -0.061302 -0.037362 -0.099377 -0.093482 -0.186787 -0.038991 0.045912 0.036420 0.040313 0.052673 -0.172862 -0.053808 -0.022735 0.099629 0.009181 0.122094 0.057644 0.011765 -0.112769 0.085709 0.111370 0.057105 0.045921 -0.135779 -0.087392 0.055799 0.019198 -0.391485 0.095533 -0.021662 0.104451 -0.069743 0.126482 0.007016 -0.052782 0.025005 0.137192 0.018731 -0.147237 -0.030160 0.084835 0.043351 -0.193472 -0.078366 0.077497 -0.077381 0.043202 0.237929 -0.049790 0.080581 -0.127210 0.227238 0.028162 0.160981 0.169714 0.081262 0.098696 -0.000373 0.212538 0.039809 0.031525 -0.015708 -0.057292
-0.162022 -0.073166 0.034202 0.074745 -0.138448 -0.106987 0.059398 0.051531 -0.027807 0.072039 -0.087560 -0.013724 -0.142818 -0.058032 0.066762 -0.108755 -0.102113 -0.088010 -0.142601 -0.125840 -0.090070 -0.052746 -0.102826 -0.137736 0.035305 -0.082426 0.089968 -0.172303 -0.021578 -0.079759 0.081806 0.039657 -0.075042 -0.128643 -0.048660 0.092200 0.012939 -0.183542 -0.005954 -0.057405 -0.088400 -0.126951 -0.106145 -0.136365 -0.087232 0.059462 -0.047640 0.008438 -0.074602 -0.023388 0.024024 -0.026740 0.086428 0.045346 0.063343 -0.042654 -0.041270 -0.110192 0.026361 -0.052792 0.028590 -0.117565 -0.012626 -0.101763
-0.123084 0.082203 0.046481 -0.100510 0.224983 0.115899 -0.091150 0.156079 0.104200 -0.015673 -0.023536 -0.105532 -0.028380 0.337785 0.140651 -0.067658 0.063148 0.120114 0.091716 -0.203721 0.056754 0.089539 -0.010949 -0.181384 -0.096111 0.169435 -0.357471 0.154803 0.146096 -0.017591 0.114152 -0.085723 -0.046998 0.021930 -0.128991 -0.004642 0.086184 -0.088923 -0.318188 -0.206758 -0.043817 0.067766 0.159572 0.012612 -0.145155 0.066426 0.047604 0.135585 0.089419 -0.162987 0.145768 -0.234530 -0.065471 0.063452 0.044708 0.041926 0.060461 0.007157 0.094527 -0.110966 0.052103 0.146461 0.144128 -0.102799
-0.199330 0.013969 0.065736 -0.230512 0.146735 -0.095964 0.028857 -0.046816 0.088617 0.199143 -0.003797 0.099857 -0.117424 0.566594 0.196003 -0.064808 0.130038 0.101781 0.241084 -0.033907 -0.176411 0.049603 -0.026144 0.070162 -0.046693 0.135303 0.074730 0.137815 -0.096742 0.068586 0.071806 -0.024028 -0.040822 0.090483 0.021649 -0.068335 0.000619 -0.177960 0.024949 0.225907 -0.022393 -0.231849 0.099814 0.120300 0.028932 0.020369 -0.090494 0.096990 0.189143 -0.081916 0.155821 -0.104888 0.047262 0.139977 0.153062 0.076146 -0.253776 0.025731 -0.006226 -0.023274 0.119664 -0.000541 -0.050316 0.098261
0.033858 0.105680 0.252893 -0.039318 0.163718 0.038532 -0.083018 0.072746 -0.005341 0.116393 0.009579 -0.343994 0.166818 -0.281806 -0.072098 0.045138 -0.128017 0.162356 -0.198860 0.032728 0.058689 -0.054935 -0.000245 0.019347 -0.023169 -0.014706 -0.343463 0.088868 -0.068325 0.035235 0.106537 -0.165199 -0.095733 0.034186 -0.228198 0.103681 0.094583 0.123580 -0.176229 -0.380603 0.092265 0.229155 -0.154380 0.107582 -0.192891 0.178995 -0.085965 0.051164 0.092894 -0.069358 0.158978 -0.192359 -0.112828 0.074004 0.111204 0.011302 0.078149 -0.160170 0.061144 -0.017306 0.114848 0.101733 0.065429 -0.055114
-0.084251 -0.106378 0.096412 -0.247261 0.162213 0.054510 -0.018907 0.027752 0.149199 0.281105 0.151013 -0.255309 -0.046245 0.354698 0.002291 -0.104210 0.179467 -0.020119 -0.073020 -0.120154 -0.194576 -0.048111 0.019485 -0.077571 0.251037 0.068585 -0.002399 -0.037316 -0.121363 0.063271 0.287166 -0.096090 -0.036024 0.098671 -0.015123 -0.078731 0.082008 -0.227712 -0.249669 -0.052692 0.074143 0.121666 0.445959 0.056642 0.053257 0.052550 0.072970 0.017829 0.064789 0.192730 0.215125 -0.080623 -0.010980 0.257077 0.188209 -0.049355 -0.204984 0.194157 -0.322598 -0.315218 0.050581 -0.052893 -0.073970 0.274615
0.072670 0.066467 0.026457 0.326238 0.058059 -0.068504 -0.113466 -0.217216 -0.107284 0.176723 0.153226 -0.027689 -0.040656 0.238507 0.169775 -0.187169 -0.016046 -0.103334 0.155139 0.142706 -0.001893 -0.137605 -0.081486 0.123887 0.075180 0.132352 0.326258 -0.187411 0.112403 -0.061045 -0.104170 -0.035345 0.024307 0.046957 0.256979 0.051551 -0.041908 0.070313 0.030577 0.248082 -0.093087 -0.308335 -0.086206 0.096485 0.215760 -0.143043 0.071892 0.121680 -0.076833 0.091464 -0.170170 0.057540 -0.003897 -0.195669 -0.168384 -0.202738 0.150430 -0.090338 0.171106 -0.075690 0.056757 -0.101832 -0.056292 0.013823
-0.075153 -0.137283 0.108051 0.022641 -0.113012 -0.046849 0.110097 0.039287 -0.100897 0.026626 -0.187272 0.157488 0.044536 0.052719 0.064699 0.250576 -0.090258 -0.022174 0.181780 0.212663 -0.073857 0.177129 0.077046 0.243646 -0.260697 -0.010906 -0.162067 0.026236 0.056615 -0.075008 0.040525 0.299527 -0.094563 -0.027826 0.158753 0.078729 -0.079101 -0.150617 0.287676 0.044775 0.068838 -0.121315 -0.085416 -0.036754 0.134120 -0.105844 -0.054811 0.062703 0.020635 -0.130676 -0.177814 0.082172 0.149204 -0.039254 0.143210 0.090752 -0.153895 0.005730 0.266272 0.337047 -0.147142 0.196238 -0.020295 -0.222721
-0.267696 -0.034614 -0.213995 0.060815 -0.108162 -0.074123 0.062297 0.071614 -0.095369 0.027972 0.023868 0.142917 -0.228674 -0.217910 -0.151132 0.236257 0.163278 -0.275555 -0.004255 -0.149370 0.199983 0.191812 -0.115411 0.002342 -0.237755 0.048144 0.360266 0.031599 -0.033013 -0.009535 -0.038325 0.033487 -0.115363 0.126916 0.423739 -0.020883 0.109129 0.130759 -0.184418 -0.059534 0.094168 -0.243036 0.094192 0.036261 -0.134344 0.038180 0.078941 0.218948 -0.140375 0.110093 -0.139725 -0.084824 0.134302 -0.023765 -0.212439 0.132769 0.230031 0.133065 -0.257133 -0.029112 0.191485 0.196542 0.190113 0.024263
0.123137 0.070601 0.013827 0.089528 -0.212715 -0.102111 -0.014706 0.116790 0.127907 -0.026624 0.076532 -0.096664 0.042752 -0.480893 -0.441422 0.184070 0.124252 -0.179756 -0.219150 -0.051454 0.142256 -0.027417 0.010367 0.020114 0.043043 0.000090 -0.004165 0.127435 -0.168925 0.038321 -0.009774 -0.005726 -0.075183 0.081323 -0.042390 -0.032765 -0.108029 0.115468 0.164846 -0.135450 0.080174 0.216427 -0.249749 0.035193 0.102513 -0.050937 -0.112145 -0.211427 -0.209357 0.218192 -0.147165 0.228602 0.048065 -0.043820 0.096677 0.052611 0.188320 0.100280 -0.282845 0.018010 0.034204 0.111073 -0.070468 0.064664
0.239036 0.100469 0.012295 0.067229 0.014342 0.189564 0.097580 -0.062726 0.117949 -0.005697 0.019123 -0.231059 0.052389 -0.160458 -0.033823 0.084329 0.087757 0.144596 -0.224085 0.034676 -0.091616 -0.065498 -0.040728 -0.182060 0.099157 0.173349 -0.297039 -0.009936 0.164104 -0.012893 0.097537 -0.143501 -0.033421 0.073108 -0.278416 -0.089378 -0.060755 -0.071300 0.260498 -0.129078 -0.071360 0.255398 0.044949 0.078636 -0.080867 0.123394 0.050056 -0.208551 -0.055434 0.091370 0.197478 -0.086029 -0.035929 -0.129598 0.202988 -0.162117 0.151798 0.020198 0.053523 -0.102973 0.113800 -0.192126 0.052459 0.140452
-0.133283 0.257017 0.257298 -0.216572 0.111809 0.146714 -0.077580 0.003541 0.090342 0.127890 -0.073492 -0.064726 0.037698 0.177941 0.192595 -0.008869 0.042967 0.303317 -0.055572 -0.210525 0.226570 -0.120584 -0.002236 -0.112644 -0.033484 0.048062 -0.190360 -0.064001 0.084442 0.240739 0.062544 -0.110375 0.003793 -0.101595 -0.350860 0.014504 0.073295 -0.055745 -0.322040 -0.218505 0.077123 -0.087355 0.087043 0.175186 -0.132583 0.151976 -0.006306 0.032797 -0.092459 0.007244 0.110240 0.108300 -0.039552 0.039555 0.045238 0.075262 0.062197 -0.044425 -0.089980 -0.260805 0.085246 0.065110 0.051199 -0.040237
-0.172919 0.032683 0.017375 -0.196670 -0.051957 0.061400 0.117176 -0.134687 -0.232686 -0.119537 0.076540 0.197953 0.116810 -0.041877 0.226842 -0.193511 -0.034198 -0.067847 0.180166 0.124352 -0.075096 0.126384 -0.019152 0.051063 -0.343872 -0.100386 -0.594546 -0.129861 -0.187506 0.224966 -0.256499 0.085166 0.021031 -0.160178 -0.069680 0.013167 -0.031515 -0.063695 0.016140 -0.094642 -0.056180 -0.254569 -0.142612 -0.063674 -0.029247 -0.019921 0.078108 0.104765 0.066994 -0.234372 -0.360039 -0.012934 0.063479 0.141056 0.265442 -0.099398 0.098808 0.083490 0.376467 0.285058 0.077084 0.089172 0.114074 -0.285769
-0.037341 0.123511 0.243380 0.187694 0.124993 -0.044452 0.024397 -0.110316 0.092616 0.159366 -0.081539 0.234026 0.027376 0.116804 0.016708 0.099278 0.025409 -0.214778 0.046695 -0.218621 0.082385 -0.100110 0.094853 -0.067677 0.130170 0.055098 -0.272156 -0.045204 0.156630 -0.128263 0.174675 -0.262106 -0.070490 -0.071720 -0.108739 -0.119679 -0.032636 0.027915 -0.097428 0.007741 -0.126078 0.054588 0.229777 0.134383 -0.035467 -0.034835 -0.050053 0.097049 -0.033229 0.033932 -0.068126 0.080951 -0.040579 0.108874 -0.053818 0.023807 0.160074 -0.016169 0.153419 -0.094682 0.137936 0.146092 0.012480 0.178383
0.061753 -0.106893 -0.202532 -0.105046 -0.530636 0.139212 -0.087397 -0.072723 0.121325 0.030719 -0.103182 -0.302993 0.382014 -0.317531 0.105527 0.093342 -0.187899 0.107477 -0.231280 0.064219 0.043716 0.130718 0.108363 0.136453 -0.221438 -0.122718 0.019135 0.039828 -0.292237 0.171033 -0.094173 0.130779 -0.063991 0.233019 0.020883 -0.087535 -0.076283 0.159141 0.124109 -0.083321 0.058218 -0.138564 -0.076160 -0.196001 -0.038641 0.072253 -0.054699 -0.108659 -0.013448 0.128787 -0.261429 0.087914 0.012084 0.200030 -0.061054 0.080418 0.207315 0.010488 -0.154445 0.096542 0.019569 -0.038868 -0.229921 -0.082590
-0.081712 -0.017697 0.057544 -0.048031 -0.004473 -0.327243 0.117275 0.155326 0.027908 0.018425 -0.030857 0.110543 -0.132896 0.121542 -0.081727 0.200712 0.109751 -0.352505 0.015296 -0.078379 0.051508 0.081544 0.078137 0.031732 0.028001 0.039525 0.007964 0.080790 0.055078 -0.147731 0.084613 -0.020952 -0.080186 0.118861 0.014022 0.060196 0.088686 0.147084 -0.005206 0.024146 -0.156781 0.022859 0.165589 -0.062430 0.117832 -0.190719 -0.027160 0.055565 -0.063330 0.099628 0.011321 -0.043609 0.149212 0.025916 -0.008643 0.011649 -0.057757 0.200198 -0.068044 -0.073418 -0.094494 0.021678 0.052600 -0.066068
-0.200020 0.049006 -0.001971 0.080889 0.209484 0.197466 -0.122632 -0.214245 -0.036459 0.059897 0.141258 0.198891 -0.036752 0.285892 0.226654 -0.220323 0.022493 -0.016492 0.174749 -0.050772 0.060903 0.065510 0.057137 0.064246 0.188021 0.155903 0.310747 -0.233679 -0.054266 -0.025589 0.055444 -0.067007 0.038501 0.063310 0.303229 -0.098719 -0.046776 0.070623 -0.068612 0.070416 -0.169793 -0.380124 0.126584 0.077841 0.191880 0.039071 0.083662 0.083673 -0.037909 0.186509 -0.071568 0.003262 -0.041664 -0.015847 -0.345640 -0.209782 -0.021640 -0.126059 0.106493 0.031518 0.061301 -0.079694 -0.121449 -0.133045
0.141282 -0.019935 -0.357519 0.224203 -0.084942 0.156744 -0.003522 -0.064406 -0.058951 0.010679 0.039424 0.388934 0.038906 -0.173283 0.068303 0.047303 0.028824 0.029411 -0.268797 0.087675 -0.172528 -0.308509 0.037097 -0.187377 -0.018053 0.117952 -0.028462 -0.131646 0.168523 -0.304811 0.085549 -0.029030 -0.109120 -0.082700 0.003071 0.105562 0.117491 0.056232 0.327985 0.120162 -0.180772 0.039119 0.144347 0.117772 -0.129278 -0.034688 -0.019674 -0.247223 -0.235669 -0.085476 0.084759 -0.084365 0.018019 0.043328 0.111684 -0.069534 -0.096270 -0.047911 -0.062659 0.053158 0.012367 -0.254354 0.020409 0.145405
-0.071633 -0.149107 -0.002235 -0.060296 -0.021922 -0.086034 -0.009329 -0.025591 0.003622 0.068618 -0.068214 -0.123229 -0.129810 -0.027435 -0.053091 0.057032 0.069703 -0.088144 -0.057343 0.060083 -0.069910 -0.055722 -0.040324 -0.046646 -0.053563 -0.132803 -0.112811 0.041937 -0.138937 0.034672 0.044852 0.036992 -0.061810 -0.158467 -0.002299 0.070183 -0.098671 -0.033769 -0.015240 0.079573 0.083327 0.009153 -0.086367 -0.058702 -0.009657 -0.013005 -0.009749 -0.112475 0.066280 -0.137271 -0.145407 0.050319 0.080206 -0.101138 -0.037536 -0.042605 0.062289 -0.107879 -0.120915 -0.111195 0.036277 -0.055331 -0.010293 -0.040549
0.353443 0.039657 -0.020329 0.005793 -0.096061 0.075462 -0.058498 0.084864 0.028575 0.006994 -0.054513 -0.081238 -0.119957 0.181817 0.037548 0.258230 -0.118757 -0.076545 0.105626 0.046706 0.075778 -0.157654 0.002239 -0.048762 -0.187042 0.134064 0.051985 0.021472 0.257347 -0.398030 -0.196933 -0.154211 0.047383 -0.074654 0.090988 0.089665 0.095317 -0.098978 0.321306 0.141856 -0.002200 0.191621 0.022931 -0.024162 0.087403 0.024162 -0.078163 -0.029571 0.032049 0.037149 -0.042274 0.170957 0.345747 -0.277758 0.145441 -0.265288 -0.470709 -0.323981 -0.021410 -0.229274 -0.035564 -0.185209 0.174043 -0.227873
0.054532 -0.029024 0.002446 0.282640 0.114739 -0.128309 -0.108709 -0.048078 0.126578 -0.002330 -0.093677 0.211114 -0.117203 0.087172 -0.220162 -0.080921 0.055032 -0.269727 -0.122729 -0.187001 -0.088834 -0.088478 0.069678 0.086435 0.186402 0.147885 0.071203 -0.077779 -0.268329 -0.112730 -0.068790 -0.276232 0.034934 0.147909 0.212584 0.112640 0.029656 0.174232 -0.158329 -0.000324 0.063619 0.039924 -0.070724 0.126062 0.032012 -0.099731 -0.061881 0.150374 -0.218781 0.100859 0.023979 0.220299 -0.081425 -0.110031 -0.203988 0.062531 -0.007027 -0.105906 -0.157063 -0.010417 0.065722 0.171876 0.132047 -0.040214
0.118653 0.062149 -0.309161 0.218113 -0.398209 0.118145 -0.075454 0.111583 -0.009794 -0.377397 -0.260411 0.136777 0.041725 -0.020582 -0.121906 0.068222 -0.126305 -0.031526 -0.246353 0.183488 0.057330 0.068205 0.024252 -0.000018 -0.091942 -0.049069 0.056782 0.203890 -0.055768 -0.044348 -0.158248 0.325689 -0.037894 0.139594 0.136679 -0.047466 -0.031626 0.067105 0.112098 0.072892 0.051248 0.021644 -0.312885 -0.118667 -0.036838 0.082113 -0.043308 -0.480886 -0.190386 -0.142080 0.079281 0.074263 0.156448 0.098477 0.128549 -0.027919 0.119267 0.096058 -0.363376 0.196630 -0.095889 -0.018318 -0.027175 -0.024206
0.089964 -0.017444 0.062577 0.238058 -0.113313 -0.095806 -0.087293 -0.057568 -0.088573 -0.107917 0.169164 0.234291 -0.071268 0.027575 0.012225 -0.068760 0.047326 -0.221053 0.111395 -0.090865 -0.198068 -0.021024 0.055487 -0.007155 0.010960 -0.100936 -0.053273 -0.013168 0.185320 -0.035856 0.138708 -0.119702 0.109017 0.052061 0.249651 -0.019798 -0.030926 0.124689 0.158214 0.167517 -0.205240 0.048223 0.280826 -0.088503 0.111110 0.013383 -0.038629 -0.069107 0.090479 -0.056673 0.085728 0.117605 -0.055407 -0.077723 -0.069455 -0.084446 -0.117435 0.213474 0.047708 -0.316107 0.124242 -0.054418 -0.001972 0.171647
0.035886 -0.046569 0.008610 -0.083042 -0.057573 -0.056177 -0.007489 -0.120418 -0.068114 -0.124859 0.044821 -0.026911 0.039988 0.085167 -0.120994 -0.049874 0.001162 0.014475 -0.074862 0.044406 -0.094733 -0.057152 -0.104932 -0.151992 0.028611 0.021895 0.006767 -0.127248 -0.052259 -0.006693 -0.089108 -0.056364 -0.072312 -0.121651 -0.094294 -0.042386 -0.112542 -0.051972 0.043288 -0.059874 -0.055249 -0.123548 0.035029 -0.061877 -0.096429 -0.095462 0.000302 -0.101206 -0.095666 -0.134449 -0.078130 -0.078946 0.077875 -0.171873 -0.034792 0.035192 -0.141235 -0.104148 0.056996 0.040957 0.026434 -0.007094 -0.146570 0.047536
-0.061618 0.202211 -0.015182 -0.063928 -0.037107 -0.085328 -0.073006 0.196366 -0.042316 -0.159965 -0.079822 0.014075 -0.009004 -0.274815 -0.187708 0.247152 -0.026696 -0.061298 -0.142125 -0.213938 0.206557 -0.006008 0.077184 0.083351 0.150834 -0.126148 -0.045885 -0.128739 0.107260 -0.229889 -0.046943 0.023581 -0.023319 0.101426 -0.101531 -0.071594 0.017169 -0.080284 0.133331 0.080073 -0.127389 -0.057154 0.066806 -0.111433 -0.100274 -0.109144 0.034365 -0.067771 -0.041461 -0.062394 -0.064117 -0.115053 0.116685 -0.277165 -0.014311 -0.056969 0.058213 0.063008 -0.169039 -0.062478 -0.011268 0.088639 0.118229 -0.181307
0.070484 0.077446 0.000290 -0.030648 -0.157649 -0.093330 0.028604 -0.024890 -0.091725 -0.224199 -0.080445 -0.019348 -0.057000 -0.031088 0.140496 -0.154050 -0.151305 0.019844 0.164444 -0.031936 -0.039494 -0.077928 0.058401 -0.031367 0.009260 -0.120913 -0.059980 -0.069765 0.027801 0.104812 -0.035526 0.094298 0.114382 -0.176287 -0.115091 0.036293 -0.019180 0.018549 0.080719 0.002149 0.074633 -0.062740 0.073541 -0.000725 -0.050391 0.072143 0.095255 -0.074352 -0.050298 -0.214310 -0.187269 0.122425 -0.140141 -0.037305 0.052274 -0.037668 0.161832 -0.086595 0.276895 -0.019839 0.020260 -0.022009 0.039634 0.075382
-0.010468 -0.145819 -0.051068 0.067971 -0.206087 0.042554 0.116196 0.105640 -0.169072 -0.210283 -0.159604 0.142731 0.076078 0.050595 0.064743 0.040157 0.132070 0.068731 0.038971 0.235367 0.077008 0.129994 0.058351 0.077311 -0.257712 0.062927 -0.124378 -0.075548 -0.042426 0.145519 -0.161634 0.135832 0.008977 0.021059 0.133209 0.058783 -0.034050 0.169409 0.112948 0.026675 0.051997 0.055262 -0.269386 -0.159995 -0.042840 0.055330 -0.101223 -0.096487 0.030505 -0.046605 -0.111947 0.028439 0.210889 0.084900 0.074249 0.099725 0.069707 0.042754 0.177723 0.214552 -0.144150 0.035421 0.081407 -0.216989
-0.126170 -0.104571 -0.041105 -0.036963 -0.014603 -0.107665 0.102720 -0.123892 0.156806 0.054366 0.065411 -0.195984 0.137242 -0.177961 -0.018334 0.061441 0.217072 0.007668 -0.078779 -0.160038 -0.121225 -0.063038 -0.060319 0.101430 -0.013041 -0.114203 -0.133109 0.067596 -0.323024 0.162096 0.060419 -0.183381 -0.068165 0.059148 -0.150188 -0.122914 0.023855 0.095044 -0.273104 0.026426 0.183927 -0.077079 -0.028446 0.048509 -0.128711 0.018125 -0.056406 0.171570 -0.198399 0.163016 -0.008074 0.077410 0.082389 0.199612 -0.106887 0.123935 -0.043490 0.077421 -0.137640 -0.287766 0.208173 0.022754 0.042902 0.128128
-0.222909 -0.159861 -0.125210 0.166444 0.054626 -0.208170 -0.126290 -0.100940 0.084252 -0.005697 -0.155488 0.327434 -0.094474 0.141159 -0.128179 -0.132962 0.006423 0.003740 -0.034571 0.140033 -0.425719 -0.025868 -0.118258 0.047324 -0.094846 0.116676 0.070848 0.014762 -0.318369 0.044057 -0.284624 0.097387 0.094802 0.039835 0.148455 0.059432 -0.051252 0.072375 0.334995 0.281898 -0.048798 0.159433 -0.236125 -0.047527 0.120417 -0.056788 -0.029353 -0.054274 0.081734 -0.109108 0.099528 0.101681 0.085838 0.149273 0.118979 -0.105808 -0.301162 -0.011468 0.093059 0.244054 -0.221053 0.110191 0.138191 -0.111564
-0.179512 -0.123343 -0.037887 0.216096 0.182588 -0.117031 0.016831 -0.027959 -0.036082 0.213493 0.144961 0.019629 0.050698 0.144362 0.059950 -0.067736 0.035417 0.011726 0.052383 -0.122832 -0.115162 0.072625 0.005544 0.093666 -0.005049 0.160504 0.254028 -0.198744 0.059989 -0.184041 0.062309 -0.041902 -0.039150 0.110128 0.138479 0.062554 0.124926 0.111010 -0.271207 0.249050 -0.105757 -0.459161 0.097606 -0.038605 0.103364 -0.057541 -0.105844 0.028232 -0.164351 0.057926 0.130486 0.232023 -0.092103 -0.015984 -0.207940 -0.054920 -0.100525 -0.009211 0.038382 -0.198180 0.054957 -0.025331 -0.134020 0.128292
0.047695 -0.113562 0.061333 -0.135931 -0.120656 -0.132133 -0.015751 0.070805 -0.112632 -0.154844 -0.187536 0.153687 0.125424 0.123213 -0.093681 -0.095765 0.000129 -0.106350 -0.133790 0.087021 -0.002841 0.124149 -0.074332 -0.059573 0.072751 -0.166520 -0.117843 0.152971 -0.021336 -0.017741 0.037147 0.273240 -0.004683 0.069427 -0.067395 -0.061146 0.040370 -0.026076 0.101540 0.118308 -0.164786 -0.062662 0.228601 -0.310717 -0.072389 -0.192476 -0.017312 -0.086195 0.162663 -0.240794 0.107903 -0.037547 0.042696 0.077631 0.001162 -0.067118 0.071129 0.102291 0.073932 -0.064364 0.005100 -0.148806 -0.272165 0.006145
-0.063636 -0.129635 -0.425487 0.038226 -0.014178 0.072024 0.122045 0.140112 0.036649 0.091569 -0.121090 0.045559 0.075502 -0.001279 0.186452 -0.009854 -0.017951 0.397483 -0.172194 0.193784 -0.301653 0.102869 -0.007975 -0.050546 -0.171890 0.056131 0.366403 0.002278 -0.036852 0.157291 -0.056694 0.285043 -0.063358 -0.046406 0.383713 -0.064433 -0.103916 -0.071590 0.370159 0.120208 0.186373 -0.083693 -0.163809 -0.148897 0.005834 0.028118 -0.099597 -0.018704 -0.177359 -0.013411 -0.018616 0.126139 0.125469 0.120775 0.049310 -0.095932 -0.248026 -0.029261 -0.251139 0.120026 -0.022287 -0.063800 -0.145711 0.048910
0.181749 -0.024145 0.265703 -0.066693 0.085147 0.193435 -0.008446 -0.359199 0.012193 0.170569 0.039255 -0.061030 0.025499 -0.050302 0.198806 -0.182360 0.063878 0.172017 0.195904 -0.069113 -0.272941 -0.130559 -0.118051 -0.158559 0.237647 -0.032959 -0.132973 -0.036557 0.009950 -0.037943 0.248017 0.038813 -0.113647 -0.285430 -0.453791 -0.088271 -0.083456 -0.032797 0.146520 0.039878 -0.014445 0.195568 0.103594 0.065775 -0.022350 0.059768 -0.007795 -0.005208 0.083418 0.121396 0.152712 -0.357825 -0.060457 0.266258 0.180294 -0.106756 -0.152160 -0.082905 0.048920 -0.041056 -0.102802 -0.155562 -0.161100 0.159450
