0.244764 0.224218 -0.030860 -0.193812 -0.082650 0.057287 0.195147 0.181376 -0.028133 -0.103126 0.064229 0.140269 0.139337 -0.027750 -0.100145 0.119677 0.171723 0.102956 0.128336 0.079271 0.244490 -0.171013 0.069897 -0.051156 0.139805 -0.000961 -0.195108 0.010311 -0.305033 -0.082915 -0.007303 0.021477 -0.054113 0.084055 -0.084579 0.247121 -0.000545 -0.076083 -0.032505 0.100165 0.100770 0.005525 0.063050 -0.012837 -0.028697 0.020614 -0.007424 -0.194548 -0.052217 0.091661 -0.169382 0.127120 0.101592 -0.090043 0.038733 0.009277 -0.121236 0.060978 0.133423 -0.004325 -0.070497 0.052861 -0.044563 -0.088995
0.194774 0.094441 -0.027242 -0.049298 -0.128571 -0.136199 0.113971 0.052918 0.170274 -0.045006 0.211523 0.000694 0.112912 -0.020540 0.086987 0.033115 0.288182 -0.085193 -0.140576 0.057929 0.242393 -0.022403 0.048760 0.064011 0.194169 0.025181 -0.225701 -0.044072 0.047448 -0.147325 0.092834 0.014949 0.069507 0.201017 -0.021602 0.333708 -0.023212 0.001441 -0.103784 0.044154 0.180855 0.059116 0.188631 0.223544 0.071431 0.161193 -0.065364 -0.203317 -0.059708 0.053355 -0.199942 0.002195 0.138957 0.038961 -0.066536 0.059783 0.000206 0.097092 0.042267 0.082662 -0.143254 -0.020162 -0.082702 0.069668
-0.272231 0.025050 -0.125038 0.050307 0.149838 0.252321 -0.037548 0.224451 0.226859 0.175623 -0.111602 0.017646 -0.010401 0.026181 -0.190264 0.076213 -0.086498 0.192100 0.086436 0.136950 0.146039 -0.022859 0.025025 0.028038 0.003427 -0.139090 0.174224 -0.016554 0.186117 -0.161785 -0.314422 -0.047434 -0.061784 -0.108567 -0.080644 -0.010433 -0.108769 -0.102788 0.060239 0.008922 0.246652 0.065708 0.070894 0.290879 0.030065 -0.035959 0.205282 -0.333427 -0.055297 -0.052262 0.063961 0.027795 -0.089802 0.178402 0.052779 0.149067 -0.029387 -0.018901 0.001602 0.078453 -0.107505 0.078267 -0.270677 -0.074665
0.103948 0.150632 -0.039878 -0.062552 0.042013 0.057286 0.048457 0.043582 -0.074782 -0.162141 0.108159 -0.128648 0.222358 -0.041028 -0.190542 0.075560 -0.111981 0.061116 0.143147 0.259956 -0.065596 0.128816 -0.041268 0.168973 0.208105 0.052313 -0.077811 -0.042877 -0.103278 0.159619 -0.074199 -0.112737 -0.005294 -0.068317 0.161710 -0.163982 -0.001855 0.218192 -0.121257 0.099457 0.094811 0.077603 0.089794 -0.341111 0.021153 0.050900 0.052671 0.100719 0.387523 -0.055018 -0.040570 0.238163 -0.148017 0.053312 0.106971 -0.083544 -0.046791 -0.181739 -0.105679 0.155049 0.206525 0.034704 0.146880 0.112442
0.082141 0.125337 0.022167 -0.064364 -0.062833 0.086629 0.170590 0.050905 -0.131505 -0.048612 -0.018910 -0.082637 0.252105 0.211995 -0.067832 -0.062835 0.131723 -0.083433 -0.057746 0.175880 -0.138180 0.124742 0.067104 0.087892 0.287915 -0.065596 -0.146719 -0.122675 0.280438 0.023167 -0.022460 -0.011827 -0.079045 -0.037928 -0.242142 0.029267 -0.383034 -0.169425 0.023813 0.228781 0.139927 -0.053579 -0.052879 -0.024667 0.011440 0.280167 -0.011176 0.054293 0.164592 0.113229 0.029829 -0.044223 0.108996 -0.066236 -0.054830 0.023588 0.048718 0.072329 0.095974 -0.211116 -0.005340 0.014730 -0.049481 -0.105116
-0.073610 -0.222488 0.089807 0.165984 0.226334 0.201847 0.147632 0.241178 0.101986 0.091596 0.031089 0.030728 0.168470 -0.339758 -0.090367 -0.043353 -0.070836 0.180164 0.066304 0.109280 -0.069558 -0.097803 0.197513 -0.130570 -0.112649 -0.049172 0.160150 0.073318 0.174725 0.003294 -0.191988 0.107357 0.089156 -0.280023 -0.190729 0.007908 -0.006073 -0.022763 0.208767 -0.077501 0.229331 0.122076 -0.206572 0.183835 -0.209119 0.186259 0.139168 -0.188970 0.011114 0.121170 0.264058 -0.020090 0.183255 0.054127 -0.115000 -0.110765 -0.110682 0.219675 0.054117 0.065264 -0.184542 -0.014514 0.061950 -0.118333
-0.242069 -0.186991 0.011662 0.061369 -0.201503 -0.070406 0.216620 0.055604 -0.024329 -0.050461 0.135395 0.056094 -0.010029 0.112306 -0.001348 0.071683 -0.197816 -0.256217 0.158488 -0.041900 0.048661 0.139795 0.071512 -0.097755 0.146754 -0.040228 0.008836 0.093699 0.064452 -0.077060 -0.095801 -0.056370 0.011724 -0.007188 -0.016313 -0.170280 -0.097567 0.163267 -0.013361 0.024820 0.063458 -0.159120 -0.060851 -0.253322 -0.054667 0.106201 -0.014855 0.155540 0.352818 -0.026485 -0.335932 0.070967 0.072804 0.115917 0.000031 -0.060984 -0.059638 -0.037271 -0.000783 0.131051 0.086603 -0.028282 0.210244 0.071267
0.130864 -0.111820 0.241093 0.162968 -0.092642 0.076727 -0.027764 0.005992 -0.082731 0.032718 0.014581 0.027700 -0.176947 -0.012220 -0.101298 0.111054 -0.139377 -0.076420 0.047543 0.037854 -0.059304 0.190155 0.122107 -0.038229 0.075355 0.044232 0.042108 -0.061287 -0.214682 -0.006632 -0.100738 -0.051841 -0.052964 0.194272 0.181155 0.066820 0.021498 -0.114315 -0.099834 0.073571 -0.056016 -0.132244 0.045884 0.100547 -0.069713 -0.128908 0.144660 -0.007916 -0.071269 -0.010422 -0.267879 0.144475 0.007999 0.166512 0.014183 -0.169689 0.070392 0.021293 0.105430 0.274295 0.084938 0.118565 -0.008709 -0.048657
-0.032413 -0.215393 0.169524 0.083404 -0.078468 -0.115399 -0.061779 -0.133209 0.093385 -0.072681 0.002782 -0.092098 0.157789 0.117592 0.083839 -0.206184 -0.069810 0.158415 0.239430 -0.162935 -0.142725 -0.059561 0.148531 0.029908 -0.064245 0.088477 -0.175699 -0.060443 0.111430 0.137589 0.108635 -0.000293 0.004515 -0.138847 0.087596 0.121444 0.011258 -0.110472 0.132366 0.048891 0.008879 -0.143181 0.149328 -0.009930 0.051656 0.324677 -0.106317 0.082442 -0.109458 -0.076828 0.303029 -0.115102 0.130710 -0.272839 -0.095710 -0.116605 0.011812 -0.049637 0.101733 -0.077203 -0.087382 -0.245115 0.210319 0.228818
0.160962 0.014676 -0.046362 -0.113047 0.012307 0.012645 -0.002397 -0.050048 0.075702 0.018537 -0.044554 -0.143556 0.209112 0.216086 -0.122200 0.004292 0.088100 -0.041784 0.079036 0.075299 -0.208191 -0.058171 0.009120 0.076943 0.162355 0.088930 -0.143334 -0.003662 0.031889 0.247626 0.104583 -0.003912 0.100578 0.072708 0.016617 -0.139420 -0.272190 0.022545 -0.065974 0.009030 0.074845 -0.167414 0.048434 0.107692 -0.052354 0.222553 -0.093174 -0.007852 -0.023402 0.056145 0.372651 -0.190979 0.107764 0.121034 -0.017303 -0.018629 -0.023462 -0.009791 -0.008029 -0.164387 0.006183 0.024839 0.155345 -0.009833
-0.319475 -0.045586 -0.113369 -0.035348 -0.079892 0.020524 0.006615 0.030887 -0.183938 -0.004373 0.115998 -0.140203 0.065206 0.015032 -0.147644 0.174938 -0.188047 0.002669 -0.017133 0.036924 -0.017012 0.073866 0.013863 -0.028619 -0.005980 -0.099971 0.020847 -0.022798 0.375662 -0.036384 -0.091645 -0.056333 0.023777 -0.084261 0.010777 -0.276430 0.013210 0.277362 0.143740 -0.044964 0.059780 0.095129 -0.157570 -0.031201 0.019064 0.014295 -0.000542 0.202501 0.347992 -0.088147 -0.184741 -0.013176 -0.191458 0.179013 -0.032176 0.193956 0.002236 -0.049804 -0.154787 0.178759 0.238224 0.126680 -0.053143 0.161379
0.073946 0.177618 0.001046 0.075474 -0.006837 0.034402 0.004883 -0.090359 0.094533 -0.087914 0.161940 -0.041006 -0.067905 0.169595 -0.045078 0.016346 0.207430 0.039179 -0.165277 0.084057 -0.115603 -0.094607 -0.289301 0.110872 -0.026102 -0.000459 -0.196329 0.076849 -0.023888 0.151772 0.058229 0.095800 0.024207 0.116431 0.171032 0.045768 -0.065706 -0.011592 -0.010633 0.237091 0.119770 -0.052687 0.030715 0.258326 0.205379 -0.171958 0.040438 0.045981 -0.190851 0.050878 -0.010045 0.006975 -0.028026 0.145943 -0.137410 0.096056 0.074142 0.063387 -0.059859 -0.033533 0.129017 0.097922 -0.076798 -0.338561
0.031737 0.181960 0.032910 -0.076314 0.185147 0.028383 -0.013950 0.136106 0.016621 -0.046176 0.017447 -0.069506 0.097867 -0.094443 -0.234850 0.064034 -0.008185 0.029785 -0.094592 0.044172 -0.092106 0.038401 0.018434 0.078665 0.079234 0.156866 0.062745 -0.016081 -0.280352 0.160848 -0.016859 -0.004626 0.139906 0.067945 -0.094563 0.008873 0.100396 -0.139892 -0.192945 0.155856 0.051220 0.012704 0.064927 -0.116375 0.090206 -0.177759 0.142049 -0.220231 0.028073 0.040799 0.287945 -0.030892 0.093202 0.120217 0.015334 -0.055301 -0.089708 -0.070728 0.033510 -0.053203 0.031720 0.140356 -0.171977 -0.234796
-0.055698 0.016970 -0.122662 -0.014413 -0.175817 -0.010702 0.044736 0.090110 0.132180 -0.053483 0.167649 0.122929 0.124247 0.075603 0.076915 0.000933 0.126312 -0.220617 -0.110771 -0.095105 0.061040 -0.008702 -0.130698 0.043018 -0.004784 -0.167449 -0.007912 0.047827 0.337370 -0.169342 -0.058037 -0.117486 0.035459 0.118625 0.044511 -0.000010 0.040601 -0.032885 0.191775 0.130361 -0.094907 0.000470 0.208042 0.326568 0.178355 0.104192 0.020039 -0.013766 -0.105251 0.021989 -0.435613 0.106049 -0.120429 0.111666 -0.055368 0.230084 0.183015 0.194496 0.035334 0.083514 -0.024741 -0.077097 -0.210419 0.037105
-0.055326 -0.235811 0.129881 -0.158462 -0.022480 -0.055765 0.201315 -0.049896 -0.097309 0.077072 0.192139 -0.006124 0.043350 0.129522 -0.298701 0.112252 -0.337821 -0.132859 0.356172 -0.034856 -0.037220 0.100941 0.017317 -0.038719 0.076733 0.181154 -0.060853 -0.029292 -0.066499 0.077781 -0.015962 -0.090494 0.101925 -0.096260 0.105078 -0.145290 0.014115 0.106142 0.093433 0.160034 -0.115773 -0.330797 -0.075300 -0.538939 -0.162140 0.036010 -0.018373 0.169938 0.109288 0.056213 0.151203 0.023095 0.190493 0.097284 0.077181 -0.207744 0.090345 0.020817 -0.047684 -0.048082 0.107078 -0.121000 0.244628 -0.086849
-0.182808 -0.017522 -0.149649 0.032316 -0.174939 0.129866 0.102078 0.015243 -0.133627 -0.119381 0.181802 -0.027338 0.205619 0.131367 -0.160262 0.190964 -0.218062 -0.328106 -0.057507 0.111507 -0.099908 0.283524 -0.117595 0.035816 0.176476 -0.031519 -0.151880 -0.101037 0.385147 0.163013 -0.144444 -0.031716 0.034744 0.012034 -0.058718 -0.127733 -0.132039 0.093761 0.216070 0.053695 -0.072777 -0.025630 -0.015511 0.097283 0.047004 -0.141836 -0.051314 0.185964 0.269172 0.082400 -0.197899 0.132970 0.117578 0.079673 0.055478 0.429677 0.101943 0.132168 -0.059362 0.182746 0.061561 0.100287 0.004916 -0.218095
-0.102223 -0.140434 0.117068 0.046589 0.031979 -0.020868 0.245274 0.071379 -0.113853 0.106234 0.117326 0.033843 0.169403 -0.092507 0.019419 0.183059 -0.059690 -0.238468 -0.044667 0.099569 0.086708 0.042454 0.182856 0.009844 0.287410 -0.072016 0.051728 -0.108962 0.168347 -0.109635 -0.101384 -0.027573 0.020405 -0.056500 -0.165058 0.071398 -0.029594 -0.055675 0.115889 0.115879 0.067332 -0.079027 -0.014270 -0.109331 -0.183812 0.065058 0.030324 0.054215 -0.125357 -0.053740 -0.153998 -0.012585 0.201332 -0.185296 0.071587 0.216154 -0.070317 0.110851 -0.073567 0.007327 0.051176 0.057805 0.148554 -0.076488
-0.061153 0.063451 -0.103830 -0.119837 -0.112218 -0.089914 0.062042 0.056859 0.012421 -0.090805 0.055671 0.111228 -0.122629 -0.116318 0.079347 -0.065549 0.009665 0.079048 0.026363 0.037353 -0.150155 0.044496 0.060466 0.088996 -0.136725 0.017017 -0.115189 0.068744 -0.054125 -0.057332 -0.089066 0.055382 0.072589 -0.080380 -0.063982 -0.004835 0.024162 0.092305 -0.107149 -0.067991 -0.035624 -0.130202 0.027132 0.070632 0.078822 -0.023511 -0.100578 -0.106115 -0.042471 -0.000144 -0.115199 0.028506 0.043757 -0.061395 -0.091196 -0.008977 0.010106 -0.068190 0.034487 -0.036754 0.048295 0.055974 -0.088297 -0.134018
0.118813 0.157577 -0.208731 -0.184246 0.143741 0.137808 -0.005898 -0.193600 -0.182714 -0.173915 -0.067782 0.061300 0.040443 0.095490 -0.252603 0.382948 0.030181 -0.018668 -0.084439 0.133170 0.097524 0.099608 -0.132395 0.082770 0.264049 -0.193512 0.003030 0.090939 -0.044551 0.010976 -0.139547 -0.350329 -0.011121 0.051888 -0.021013 -0.022788 -0.029099 0.333879 0.086755 0.086854 -0.196172 -0.026561 0.033930 -0.023329 0.073385 -0.068804 -0.079851 0.250774 0.305588 -0.108369 0.022820 0.095006 -0.032594 0.024066 0.155377 0.020792 -0.003138 -0.075802 -0.163743 -0.078495 0.080152 0.272254 0.120404 0.027659
0.052531 -0.069289 0.076666 0.144410 0.006131 0.007056 0.049966 -0.153167 -0.170349 0.116086 0.047241 0.156387 -0.320061 -0.021887 0.028526 0.129299 -0.172252 -0.162004 -0.000656 -0.205927 -0.161713 0.035972 0.216140 -0.025260 -0.125702 -0.047627 0.139481 -0.060758 -0.074355 -0.084825 0.013287 0.044345 0.157121 -0.114633 0.150360 -0.058971 0.009975 0.031117 0.144486 -0.077883 0.023348 0.025677 -0.034887 -0.067908 -0.158040 -0.192199 -0.041045 -0.056156 -0.005492 0.059464 -0.168222 0.115133 0.080673 -0.089316 0.014776 -0.235101 -0.024859 0.122372 -0.034846 0.210327 0.082635 0.157138 0.224714 0.124137
0.172511 0.142097 -0.175629 0.170138 -0.159334 -0.005599 -0.179127 -0.170638 -0.089255 -0.144316 0.155368 0.038386 -0.086167 0.077298 0.142811 0.047331 0.223240 -0.176308 -0.110648 0.153252 -0.001346 -0.038105 0.023667 0.065662 0.168430 -0.240356 -0.231845 -0.158041 0.172150 -0.193045 0.230989 0.032548 0.035419 0.149445 0.121346 0.082855 -0.130765 0.045071 0.202329 0.019618 -0.200436 0.055071 0.128300 0.280658 -0.008254 -0.229619 0.019525 0.000041 0.101386 -0.050565 -0.185659 -0.117678 0.149436 -0.141807 0.122391 -0.066878 0.133771 0.199034 -0.202466 -0.063408 -0.068368 -0.050600 -0.063772 0.129236
-0.185233 -0.084715 0.266201 0.034394 0.098265 -0.007008 -0.070721 -0.100526 0.108552 0.122598 0.193898 0.185114 -0.088728 0.055635 0.051643 -0.103932 0.021327 0.091709 0.226539 -0.154146 0.041228 -0.123459 -0.055211 -0.083507 -0.147371 0.065116 0.003848 -0.095676 -0.266206 0.211412 -0.053713 -0.014600 0.038283 0.030209 0.129497 -0.025288 0.239062 -0.149610 -0.180768 0.090599 -0.034536 -0.049278 0.153559 -0.054918 0.120294 0.016354 0.043569 -0.199060 -0.213379 -0.034006 0.051224 -0.012217 -0.333573 0.044538 0.002857 -0.279271 0.044936 -0.058057 0.192922 0.118859 -0.041704 -0.115454 -0.084178 -0.197497
0.028609 0.154904 -0.046057 -0.104691 0.216423 0.066087 0.008918 0.126648 -0.164354 -0.116170 -0.138919 -0.062889 0.159178 -0.224152 -0.231230 0.126891 0.009600 0.074916 -0.077087 0.181183 0.084183 -0.013650 0.222201 -0.023768 0.145524 -0.126357 0.052108 -0.088879 0.100499 -0.144014 0.121128 0.072939 0.071940 -0.026048 -0.204634 0.150280 -0.229803 0.095051 -0.023769 0.010938 0.117617 0.031990 -0.113161 -0.210927 -0.050995 0.054992 -0.151044 -0.176076 0.387908 -0.132913 0.175785 -0.143198 0.101788 0.024889 -0.037714 -0.178429 -0.189112 -0.006578 -0.070697 -0.095057 -0.073441 0.281338 0.159872 -0.122539
-0.163458 0.020058 0.120328 0.043221 -0.012815 -0.097030 0.032291 0.131310 -0.072080 -0.040083 0.147178 -0.054880 0.114494 -0.001947 -0.174435 0.159598 -0.068416 0.018101 0.051259 0.062890 -0.105423 0.012901 -0.002262 -0.055082 0.004710 0.195858 -0.008223 -0.060301 0.203298 0.125376 -0.122371 -0.021847 0.126662 -0.089380 0.122189 -0.114783 -0.038181 0.092663 0.144189 0.172154 -0.017124 -0.091496 -0.057000 -0.021470 0.162516 -0.183538 0.167057 0.143465 0.073729 -0.028739 -0.226936 0.274144 -0.282296 0.076374 0.006306 0.294423 -0.041866 -0.094813 -0.063670 0.134888 0.168496 0.079193 -0.276687 -0.326048
-0.222026 -0.063779 0.046535 0.034592 0.029396 0.006047 0.139214 0.089843 0.109696 -0.015956 0.045757 -0.094227 0.069759 -0.093866 -0.031300 0.124400 -0.299091 0.250552 0.190922 -0.145049 -0.018398 0.187634 -0.089930 0.049760 -0.064307 0.180135 0.019368 0.010760 -0.056482 0.191354 -0.181273 0.008761 0.049677 0.030367 0.160790 -0.146377 0.216767 0.109824 -0.144206 0.137763 0.117231 -0.119531 0.041652 -0.358158 0.106362 0.046945 0.075883 0.020312 -0.071176 0.104483 0.092089 0.220123 -0.290846 0.246492 -0.041660 0.050559 0.009437 -0.157245 0.074670 0.000226 0.124500 -0.047432 -0.153909 -0.270787
-0.175439 0.109904 -0.205006 -0.084919 -0.134911 -0.212361 0.077262 0.148000 0.111253 -0.030988 0.033305 -0.074391 0.214292 0.054875 -0.003372 0.208542 -0.071207 -0.149164 -0.040521 -0.117724 0.283187 -0.042464 0.091795 0.074039 0.111757 0.064783 -0.204176 -0.061263 -0.017185 -0.208028 -0.167885 -0.146032 -0.088051 0.183486 0.121022 0.246295 0.008319 -0.013464 -0.153691 -0.091431 0.098278 0.211844 0.198149 -0.103458 0.217608 -0.047682 -0.051421 0.069004 -0.013131 -0.092734 -0.226752 0.185603 -0.181558 -0.071020 0.064997 0.063734 -0.034879 -0.136893 0.153767 0.145775 -0.065035 -0.211382 -0.142867 0.012125
-0.176204 -0.109741 -0.019685 0.211655 -0.002424 0.093033 0.169457 0.086118 0.154644 0.133051 -0.125336 0.081160 0.251123 -0.120981 0.432282 -0.287654 -0.024719 0.004548 -0.143022 -0.134603 0.127191 -0.061559 0.050353 0.109863 -0.078419 0.014398 -0.047944 0.028322 0.344103 -0.205334 0.040782 0.071394 -0.083869 0.026667 0.068067 0.172168 0.088312 -0.080354 0.117142 -0.197267 0.005932 -0.001341 0.032529 0.294241 -0.097358 0.287381 -0.009753 -0.186237 -0.256880 0.088374 0.258865 -0.260301 -0.019069 -0.217827 -0.090666 0.075761 0.066171 0.067587 0.066837 -0.044262 -0.312369 0.044031 0.054679 0.230230
-0.106404 -0.042137 -0.101564 -0.046003 -0.000404 0.171311 0.140787 0.259369 0.041116 0.002877 0.002049 0.005453 0.104617 -0.194215 0.041451 -0.062250 -0.029925 0.205961 -0.136038 -0.048003 -0.049963 0.056169 0.105522 -0.043646 -0.133033 -0.037968 0.256712 0.137089 0.085274 0.022248 -0.254567 -0.034432 -0.061155 -0.168340 -0.080946 -0.038649 0.035906 -0.023172 0.057441 -0.043127 0.187671 0.244506 -0.018865 0.243844 -0.061625 0.225495 0.002886 -0.225038 0.072686 -0.033595 0.246246 -0.207034 0.036861 0.103592 0.143709 0.051449 -0.036540 0.139383 -0.229591 -0.004379 0.054637 0.082786 -0.068327 0.145212
-0.225104 -0.092240 -0.043136 0.172756 -0.034124 0.223950 0.049219 0.200901 0.292992 0.156675 -0.029870 0.032651 0.096359 -0.036545 0.087629 -0.049443 -0.152431 0.195742 -0.123287 0.028956 -0.014287 0.157429 -0.018994 -0.013658 0.076479 0.119189 0.179806 -0.016888 0.089194 0.117523 -0.070522 0.159849 0.093937 -0.061030 0.122913 0.021561 0.183660 -0.056350 0.006473 0.112769 0.143601 -0.062755 0.074844 0.184054 -0.027172 -0.192175 0.139876 -0.114398 -0.255590 0.028338 0.013349 -0.070615 -0.066849 0.002080 0.111495 0.131979 -0.155442 -0.055558 0.099813 -0.044647 -0.066490 0.017101 -0.187207 -0.165579
0.128776 0.134461 -0.154634 -0.036092 0.038038 0.025513 0.255949 0.024733 -0.172426 -0.081266 -0.028720 -0.150423 0.088862 0.116051 -0.180373 0.028923 0.055559 -0.013815 0.015093 0.187312 0.034125 0.175578 0.102564 0.022612 0.303469 0.000491 -0.191344 -0.031980 0.182118 0.235323 0.170176 -0.073160 0.112863 -0.124320 -0.229345 -0.042694 -0.188478 0.101314 -0.051202 0.104445 -0.049688 0.133740 0.129225 -0.064796 0.170756 0.130634 -0.094262 0.038243 0.379872 0.112753 0.140743 -0.061503 -0.025752 0.035691 -0.053899 -0.074605 -0.075495 0.034289 0.070841 -0.204335 -0.020536 0.244203 0.239285 -0.047732
-0.045270 -0.178448 0.182949 -0.145763 0.061615 -0.153193 -0.052861 0.086200 -0.012913 0.099701 0.224112 0.219104 0.019182 0.041334 -0.161744 0.176305 0.013422 -0.133320 0.338619 0.021532 -0.000668 0.059077 -0.050724 -0.150998 0.011081 0.006107 0.012696 -0.046981 -0.095836 -0.197405 0.134598 0.169627 0.141975 0.058256 0.118488 -0.101098 -0.183689 -0.008059 0.141101 0.181249 -0.083290 -0.270118 0.068582 -0.051345 0.032902 0.242984 0.083016 0.142183 0.093805 -0.087289 -0.028626 -0.004026 0.057972 0.110514 -0.069991 -0.185357 0.274405 0.222008 0.178460 0.187977 0.066109 -0.078285 0.255085 0.159004
0.165471 -0.020608 0.164134 -0.093515 0.071756 0.024004 0.027733 -0.039189 -0.163191 -0.043245 0.033414 -0.017905 -0.060139 -0.016438 0.130309 0.031099 -0.012466 0.189914 0.205750 0.015497 0.011534 -0.094905 0.252578 -0.081285 -0.086458 0.044144 0.105107 0.165864 -0.111339 0.139610 -0.101965 -0.123744 -0.110537 -0.086890 -0.094627 0.042508 0.011145 0.167195 -0.136169 0.019190 0.101977 0.164001 -0.095763 -0.186456 -0.082674 0.193075 -0.046607 -0.008843 0.292480 -0.061066 0.276702 -0.211131 0.097036 -0.121323 0.076062 -0.127810 -0.095155 -0.108762 -0.078163 0.126822 0.087102 0.078604 0.249999 0.286305
-0.134297 0.037969 -0.152040 0.061104 0.214666 0.021720 -0.025357 0.069300 0.092140 -0.035199 -0.072366 -0.176709 0.165905 -0.177863 0.327525 -0.152654 -0.063493 0.082044 -0.223654 -0.076020 0.169199 0.179473 0.332183 0.075135 0.162530 -0.062746 0.144604 0.029684 0.025085 -0.164760 0.196310 -0.112511 -0.007216 0.097206 0.149675 0.084437 0.230411 0.124736 -0.051966 -0.308437 -0.168433 0.328523 0.088879 -0.250081 0.021998 -0.112437 -0.159200 0.147787 0.040839 0.020954 -0.130167 -0.236943 -0.082470 -0.038529 -0.011260 -0.179295 -0.030909 -0.075488 -0.042720 -0.091193 0.144931 0.062689 0.161760 0.510482
0.034703 -0.124196 -0.083606 -0.114321 0.132813 -0.060012 -0.001906 -0.182677 0.058509 0.066217 -0.018733 0.093306 -0.095868 -0.108727 0.052653 -0.011037 0.015372 -0.054456 -0.066865 0.115308 0.106043 0.117439 -0.101594 -0.231412 0.020067 -0.128391 -0.026480 -0.093278 0.013873 -0.033777 -0.358407 -0.078854 -0.021572 -0.178963 -0.057931 0.010691 0.060266 -0.073736 0.129615 -0.180794 -0.043025 -0.109934 -0.004650 -0.116690 -0.128137 0.139430 0.025130 -0.103591 -0.225912 0.105495 -0.235842 -0.118455 0.089604 -0.092742 0.111368 -0.291230 0.014980 0.016724 -0.070250 -0.034161 0.034145 0.151851 0.115620 -0.131477
0.263078 -0.094072 -0.035608 0.165612 -0.114678 0.033894 -0.253069 -0.064347 -0.087529 -0.055510 0.130250 -0.077634 0.009552 0.176793 0.122805 -0.084740 0.121181 0.028586 -0.044621 0.009518 -0.168457 -0.213409 0.009293 0.094501 0.050744 0.028708 -0.077571 -0.062137 0.012929 0.014037 0.236750 -0.023548 -0.001149 0.026470 0.143484 0.019293 0.129197 -0.015973 -0.166561 -0.036413 -0.146726 -0.117382 0.066286 0.132336 0.040760 -0.147405 0.007972 -0.028147 -0.023094 0.054346 0.278394 -0.183112 0.086127 -0.060585 -0.094456 -0.043880 0.109429 -0.042546 0.029636 -0.208869 0.018265 0.082849 0.119876 0.092939
-0.084067 0.124391 0.004894 0.203000 0.201744 0.275897 -0.058781 0.077481 0.168976 0.023470 -0.055087 0.091131 -0.023946 0.050435 0.166020 -0.044795 -0.062279 0.132633 -0.087485 -0.101507 -0.000639 0.136526 0.202516 0.179623 -0.119715 0.114324 0.206287 -0.095373 0.008825 0.110344 0.022761 0.078233 -0.034148 0.065104 0.205060 0.065795 0.185802 -0.004935 0.072728 0.113222 0.145905 0.102774 -0.096734 0.169927 -0.054546 -0.192120 0.073715 -0.161184 0.003999 -0.055260 0.364857 -0.163374 -0.084600 -0.026354 0.005741 -0.076052 -0.046405 -0.084648 -0.018355 0.175011 -0.003086 -0.013996 -0.061412 0.051454
0.242609 0.175949 -0.115656 -0.040075 0.054633 0.183234 -0.005507 0.048042 0.087007 0.024634 -0.095129 0.122199 0.143976 -0.190371 -0.357522 0.143869 0.136912 -0.056125 -0.107215 0.245013 0.048214 -0.158203 0.149318 0.059181 0.134566 -0.134408 -0.017922 -0.027281 0.056015 -0.072719 -0.107497 -0.081446 -0.048179 0.031789 -0.235934 0.000602 -0.183957 -0.105813 -0.107110 0.109954 0.182133 0.225746 0.085859 0.084334 -0.073517 -0.031432 -0.041118 -0.243026 0.320795 0.006602 0.156492 -0.065905 0.166166 -0.027145 0.000316 0.167339 0.040187 0.055197 -0.066941 -0.184406 0.021994 0.291591 0.132309 -0.066177
0.300135 0.131732 0.069610 0.008548 0.180025 0.199802 -0.045504 -0.106025 -0.176999 0.151360 0.139951 0.191941 -0.326785 -0.135118 -0.008796 0.096106 0.153419 -0.038994 -0.008159 0.057643 0.073106 0.119295 0.122360 -0.195517 -0.084650 -0.148278 0.156081 -0.089847 -0.097812 -0.178954 0.115517 0.120406 -0.042504 0.092963 0.101467 -0.003773 -0.045655 0.076359 0.222869 0.075179 -0.079999 -0.025184 0.021669 0.164298 -0.014233 -0.046443 -0.039012 -0.124427 0.235613 0.126124 0.022716 -0.155129 0.117838 -0.118532 -0.067962 -0.019319 0.117988 0.204128 -0.147901 0.168111 -0.156460 -0.026057 0.139633 0.025927
0.075743 -0.175223 0.009945 0.044991 0.120724 0.180711 0.066171 0.076593 0.035410 -0.000351 -0.162838 0.059039 0.064984 -0.217034 0.274506 -0.228549 -0.111176 0.011342 -0.005582 0.098298 -0.208436 0.014690 -0.000940 0.032388 0.102202 -0.081229 0.133529 -0.049869 0.279054 -0.093058 0.052761 0.161230 0.056640 0.030509 -0.124864 -0.070386 -0.192714 -0.085882 0.151788 0.000323 0.058291 0.040931 -0.132739 0.187292 -0.076081 0.232778 0.106964 -0.167185 -0.307733 0.107780 0.089463 -0.221977 0.217847 0.044649 -0.030451 -0.059881 -0.140436 -0.019582 -0.177333 0.135108 -0.286731 0.030156 0.079035 -0.002028
-0.204692 -0.099345 -0.078987 0.124900 -0.083882 0.150191 0.185500 0.158311 -0.230750 0.091059 -0.058174 -0.053076 0.128896 -0.123490 -0.042846 0.102872 -0.108587 0.070335 0.037642 0.095276 0.035844 0.024158 -0.029093 -0.033482 0.044559 0.035663 0.078619 0.079794 0.239621 -0.066328 -0.187983 -0.102035 0.093658 -0.131923 -0.138966 -0.226195 0.010257 0.025254 0.120810 -0.098767 0.132236 0.062745 -0.250672 -0.098337 0.045332 0.191695 0.045239 0.183233 0.179105 -0.050962 0.000370 0.147644 -0.017070 0.221841 -0.064614 0.094364 0.079858 0.050936 -0.015297 0.096999 0.180750 0.083793 -0.110822 -0.004071
-0.321503 0.093015 -0.120254 -0.196670 -0.030104 0.127877 -0.219295 0.109276 0.144161 -0.137286 -0.000668 -0.030030 0.157109 -0.083214 -0.251010 0.072061 0.066953 0.005527 -0.176911 0.208836 0.055521 -0.060815 -0.013254 -0.030295 -0.230088 -0.044540 0.164721 -0.018558 0.244949 -0.127745 -0.042408 -0.000341 0.032860 -0.040370 -0.178130 0.031266 0.052123 0.044484 0.093726 -0.078494 0.157128 0.091946 -0.168552 0.312886 0.133029 -0.162621 0.145588 -0.228284 0.197550 -0.045756 0.156724 0.122971 -0.133087 0.177396 0.093438 0.131026 -0.062564 -0.085391 -0.118437 -0.056530 0.091313 0.215697 -0.184652 -0.138945
-0.154102 0.101136 -0.006043 0.042531 -0.174589 -0.104701 0.093969 0.021152 -0.031744 0.038179 0.116690 0.048077 -0.020103 -0.015098 -0.115045 0.043646 0.176220 -0.097261 0.044185 0.023064 0.246203 -0.134161 0.034342 0.003661 -0.067137 -0.048300 -0.028001 -0.039281 -0.264213 -0.133435 -0.039894 -0.031029 0.020402 0.150834 0.081521 0.166430 0.146323 -0.124859 -0.019905 0.047761 0.134188 0.104814 0.098650 -0.164149 -0.053168 -0.118875 -0.080273 -0.068858 0.040704 0.109870 -0.148892 0.048655 0.016458 -0.076238 -0.071110 -0.143458 -0.059027 -0.103588 0.110068 0.150164 -0.009374 -0.120763 0.102315 0.166488
0.246444 0.130988 -0.216452 0.019129 -0.342073 -0.202647 0.026840 -0.113665 -0.067831 -0.161833 0.052687 0.155976 0.027978 -0.041352 0.011950 -0.017733 0.140018 -0.092723 -0.207641 0.220493 0.109687 0.015188 -0.095699 0.058999 0.045885 -0.232456 -0.470772 -0.065047 -0.019693 -0.179125 0.142432 0.005916 0.017894 0.109749 0.057954 0.134606 -0.172350 -0.042664 -0.068623 -0.016714 -0.178342 -0.083875 0.107236 0.448973 0.016347 -0.068166 -0.352241 -0.037664 0.036079 -0.079571 0.129087 -0.164549 -0.014305 -0.087097 0.097026 -0.264762 0.128483 0.078057 -0.003023 -0.033385 -0.161364 0.051410 -0.094525 0.008394
-0.005397 0.001014 0.001229 0.068492 0.000793 -0.091481 -0.202890 -0.117172 0.088322 0.026724 -0.013961 -0.163447 0.136887 0.069591 0.175378 -0.286970 -0.050544 0.146415 0.059942 -0.171269 -0.107748 0.086498 0.054368 0.214611 -0.088858 0.133019 0.020500 -0.025599 0.055975 0.109878 0.171306 -0.028622 -0.162032 0.103629 0.096980 0.089152 0.229855 -0.016961 -0.140179 -0.075582 -0.155852 0.092534 0.189103 -0.121269 0.164665 0.026306 0.004935 0.130904 -0.003223 -0.002206 0.291158 -0.091539 -0.177936 0.021833 -0.061104 0.133056 -0.087051 -0.209080 0.078439 -0.238760 0.136266 0.008663 0.144117 0.355710
0.240899 -0.087629 0.064643 0.201231 0.189255 0.190139 -0.180070 0.109999 0.248781 0.192830 -0.059463 0.216952 -0.062800 0.045510 0.061711 -0.105454 0.027929 0.021036 -0.016462 -0.152487 0.025970 -0.179396 0.045641 -0.009806 -0.080767 0.203758 0.240617 0.009727 0.017676 0.018756 0.177987 0.288594 -0.040110 0.133284 0.116764 -0.040504 0.067743 -0.002839 0.104546 0.187324 0.048842 -0.092496 0.040609 0.275972 -0.137351 -0.045832 0.123931 -0.182235 -0.379193 0.000705 0.178510 -0.068933 0.112345 -0.027281 0.050690 -0.022902 0.102580 0.239327 0.176367 -0.060622 -0.165037 -0.097502 0.038111 -0.231619
-0.044748 0.064077 0.108141 0.228843 0.175549 0.145195 -0.332738 -0.082662 -0.086279 -0.046212 -0.024958 0.027983 -0.240919 -0.059682 0.223187 -0.053782 0.069392 -0.035388 -0.158250 -0.016760 -0.034370 0.100759 0.174370 0.138464 -0.203611 0.006092 0.079890 -0.039673 0.291045 0.211321 0.174843 0.047927 0.017717 0.129932 0.281049 -0.100728 0.178194 0.288278 0.162376 0.022848 -0.167154 0.052129 -0.094372 0.155477 0.038790 -0.297436 0.154798 0.221955 0.105578 -0.099880 0.105138 -0.131340 -0.011001 0.151941 -0.118382 0.048970 0.079937 0.084056 -0.117449 0.124494 0.024953 0.251775 0.136239 0.353616
0.080287 -0.158173 -0.015197 -0.069793 0.229093 0.105287 0.017048 -0.171749 -0.060537 -0.070204 0.032067 0.041453 0.082540 -0.086489 0.135903 -0.170026 -0.055297 0.171103 0.060510 0.113087 -0.144051 0.031755 -0.036889 0.156328 -0.149902 -0.039416 0.187317 0.162801 -0.155486 0.151006 0.063233 0.016209 -0.059064 -0.159088 0.079277 -0.088464 -0.030788 0.325784 0.097901 -0.005303 0.060903 -0.010791 0.014949 -0.276354 -0.002393 -0.036268 0.016943 0.328354 0.278221 0.039758 0.304513 -0.067968 -0.045796 -0.036555 0.043536 -0.004318 -0.038699 -0.207443 0.164907 0.048925 0.206330 0.052255 0.220273 0.144841
0.001504 0.017808 0.144972 0.025069 -0.038878 0.082275 -0.031495 -0.127791 -0.125046 -0.116990 0.035222 0.055543 0.036364 -0.134325 0.003717 -0.303162 -0.036811 0.097958 0.357667 -0.013535 -0.132328 -0.141778 0.146699 -0.005615 0.058414 0.208890 0.007262 0.031407 -0.069433 0.217546 0.036055 0.031109 0.009837 0.017371 -0.074146 0.009196 0.044637 -0.116473 0.063717 -0.094877 0.141414 -0.150220 0.132327 -0.250987 -0.164711 0.308035 -0.086952 0.015884 0.156263 -0.048931 0.174242 -0.196716 0.214440 -0.115948 -0.004215 -0.109859 -0.143485 0.037627 0.147204 0.027736 0.083181 -0.050428 0.372524 0.150017
0.059657 0.112614 0.177914 -0.034096 -0.088748 -0.162856 -0.188307 0.105857 0.162523 0.125672 0.149999 0.096832 -0.149060 -0.036709 -0.301045 0.032645 0.246901 -0.024258 0.194525 0.092512 0.173392 -0.026775 -0.072503 -0.043040 -0.058441 0.017012 0.021507 0.053156 -0.313224 -0.216566 0.038557 0.162088 -0.008353 -0.121804 -0.021901 0.023510 0.003391 -0.196225 0.082210 0.054085 0.203825 -0.099418 -0.128877 0.214070 0.029852 -0.077474 0.036630 -0.113906 -0.008321 0.010657 -0.229840 0.137215 -0.058395 -0.088037 -0.045326 -0.178834 0.158492 0.026811 0.014943 0.056644 -0.176678 0.002630 -0.130565 -0.250822
-0.119799 -0.140803 0.182494 0.065300 0.077919 -0.099712 -0.127023 -0.121217 -0.072611 0.025984 0.056921 -0.081075 -0.282456 0.148818 -0.201293 -0.017803 -0.134674 -0.041973 0.155574 -0.086391 -0.158825 0.030574 -0.102129 0.012396 -0.105711 0.204338 -0.015397 0.119996 -0.097232 0.106809 -0.089976 0.039961 0.136461 0.015230 0.143603 -0.226028 0.201382 0.176493 -0.062106 0.140894 0.067172 -0.229145 -0.068783 -0.313651 -0.069367 -0.139082 0.156876 0.117131 0.060609 0.057654 -0.031281 0.198008 -0.183040 0.171577 0.048175 -0.135720 0.073666 -0.100362 0.036201 0.131163 0.272552 0.131673 0.144647 -0.302081
-0.111757 -0.084496 0.173314 -0.123707 0.108273 -0.058552 0.098261 0.172787 0.167690 0.000783 -0.052607 0.072730 -0.037243 0.052181 -0.065244 -0.072347 0.032279 0.246295 0.090883 0.096102 0.001448 -0.051436 -0.113595 0.138738 -0.123327 0.204756 0.059892 -0.031828 -0.104159 -0.082940 -0.050125 0.104644 -0.100730 -0.028550 0.018330 0.101227 0.068761 -0.177723 -0.155279 0.105315 0.241284 0.142621 0.100227 -0.121489 -0.031635 0.267404 -0.112193 -0.254282 -0.110864 -0.077334 0.021611 0.045752 0.083695 -0.003854 -0.039936 -0.164993 -0.118140 0.046441 0.066317 -0.134894 -0.055127 -0.289348 0.157849 -0.012410
-0.010881 0.030921 0.176205 0.030932 0.023602 -0.058754 0.141207 0.104704 -0.101514 0.059991 0.056381 0.141488 0.094460 -0.097246 -0.311651 0.001237 -0.013724 0.052895 0.204933 0.046887 0.083430 0.132412 0.268951 0.020880 0.147113 -0.087575 0.090818 0.024066 -0.291289 -0.308413 -0.169118 -0.087444 0.150884 -0.099466 -0.079122 0.128525 -0.051800 -0.091583 -0.046987 -0.034485 0.183481 -0.108776 0.028857 -0.352112 -0.190587 0.074696 -0.115889 0.062178 0.426475 -0.015925 0.048896 0.176874 0.161706 0.013476 0.150393 -0.200381 -0.028430 0.067297 0.114983 0.135386 0.038697 0.054033 0.268239 -0.112251
0.007941 -0.199352 0.226417 0.127741 0.249477 0.154918 -0.037241 0.092928 -0.169344 0.135596 -0.133357 0.126739 -0.141028 -0.190075 -0.014186 0.090692 -0.045144 0.139697 0.202796 -0.098958 -0.108313 0.016411 0.142361 -0.132480 -0.161082 0.043679 0.236312 0.062584 -0.064935 0.151514 -0.152537 0.111952 0.089753 -0.126948 -0.035650 -0.182919 0.020564 0.202039 0.210145 0.179243 0.031928 -0.221185 -0.222235 -0.002308 -0.215491 -0.045545 0.116243 0.132233 0.168675 -0.008697 0.180116 -0.033492 0.100351 0.131383 0.108264 -0.026401 0.010897 0.100898 -0.035914 0.183997 0.126963 0.193836 0.182655 -0.108273
-0.118480 -0.024810 0.014216 0.127990 0.074658 0.026819 -0.051827 -0.095096 -0.150795 -0.058523 0.033126 -0.037608 -0.128194 -0.282069 0.072091 0.160715 -0.104247 -0.214632 0.006722 0.187012 -0.182959 -0.124024 -0.095047 -0.068880 0.022116 -0.275470 0.118002 -0.115548 0.208527 0.003663 0.049297 -0.015525 -0.064059 -0.060723 -0.031699 -0.161722 -0.008619 0.029399 0.196507 -0.077029 -0.162358 -0.044615 -0.318686 0.200927 -0.160706 -0.177179 -0.043992 0.024916 -0.165093 0.072845 0.015910 -0.212733 0.050294 -0.098596 0.117104 0.184417 -0.135458 0.097277 -0.051359 -0.039365 -0.092046 0.101760 -0.110052 -0.006982
0.042601 0.056391 0.100191 0.036323 0.091841 -0.068968 0.064729 0.076433 0.064438 0.065068 0.031623 0.127483 0.068197 0.139051 -0.238162 0.154989 -0.113571 0.100554 0.063914 0.066320 0.073508 -0.172621 0.013439 0.010706 0.111831 0.102459 0.018385 0.143912 -0.285370 0.186832 -0.206834 0.101961 -0.119680 0.089816 0.026742 0.003036 0.097584 -0.075763 -0.196842 0.220073 0.209723 -0.109712 0.016203 -0.286606 0.088647 -0.216825 0.189339 -0.160846 -0.024977 0.051024 -0.198093 0.035401 0.056458 0.083736 -0.005097 -0.051919 -0.025422 0.043775 0.011190 -0.000427 0.185816 0.185383 -0.024780 -0.290822
-0.169495 0.036235 -0.064920 -0.090393 0.024426 -0.158541 -0.098288 -0.042135 -0.089706 -0.107843 -0.018466 0.071201 -0.105267 -0.024843 -0.139331 0.012057 -0.033296 -0.001067 -0.067485 0.088418 -0.091237 -0.140648 -0.041318 -0.099582 -0.186000 -0.128432 -0.068656 0.058788 -0.014918 -0.041877 0.014587 -0.117201 0.091560 -0.102340 0.047734 -0.029071 0.083671 -0.091619 0.036344 -0.026599 0.005405 -0.149559 0.022355 -0.057169 -0.154071 0.029643 -0.142931 -0.056919 0.009831 -0.111285 -0.031200 -0.128458 -0.106655 -0.127006 0.009912 0.055308 0.077795 -0.101533 -0.128909 -0.076943 0.052570 0.068543 0.041507 -0.098274
0.023508 0.068540 -0.035846 -0.154233 0.061934 0.137029 -0.021036 0.089680 0.135839 -0.089257 0.096272 0.123064 0.196219 0.048735 -0.340579 0.051324 0.033845 0.067816 0.029351 0.064831 0.121395 0.050124 -0.021795 -0.002643 0.242802 0.037425 0.070268 -0.080072 -0.312038 0.027575 -0.009663 -0.112998 -0.125160 -0.024346 -0.193447 0.007963 -0.110776 -0.109874 -0.073386 0.137601 0.200291 0.110895 -0.136540 -0.241777 0.099502 -0.047312 0.089664 -0.183247 0.340941 0.101810 -0.063211 0.209890 0.133534 0.210866 0.123603 -0.065124 0.029281 -0.130738 0.071278 0.000761 0.107935 0.021755 -0.087217 -0.344762
0.308856 0.162025 0.128985 -0.066052 0.046171 -0.012258 0.068258 0.105838 -0.158853 -0.034772 -0.023512 0.111099 0.035415 0.046054 -0.161982 -0.008699 0.162872 -0.145682 0.203081 0.185073 0.149863 -0.003397 0.036648 -0.109440 0.200211 0.137164 -0.047100 0.061682 -0.176391 -0.257313 -0.059811 0.043653 -0.014165 -0.036455 0.004425 -0.016351 -0.194964 -0.030419 -0.077531 0.070042 -0.035329 0.056302 -0.094441 0.093962 -0.098906 0.233638 0.009633 0.017187 0.146476 -0.004026 -0.155944 -0.083000 0.218187 -0.088932 0.115382 0.040155 -0.018119 0.158193 0.139990 -0.027299 0.058654 -0.126225 0.185974 -0.063669
-0.143037 0.040062 0.097170 0.114800 -0.121062 -0.148334 -0.038607 0.142093 0.181482 0.123435 -0.013030 0.070709 0.001244 0.049478 -0.009698 -0.017598 0.090977 0.204453 -0.025153 -0.168727 0.081047 -0.049881 -0.190026 0.044754 -0.062728 0.064436 -0.109217 0.161707 -0.142984 0.076035 -0.089080 -0.094991 0.068630 0.176033 -0.066445 -0.056382 0.212541 -0.217326 -0.217283 0.036252 0.036015 -0.027259 0.094051 0.087133 0.186077 0.024289 0.001498 -0.056923 -0.285435 -0.129294 -0.160952 0.044458 -0.230155 0.012655 0.059034 -0.068450 -0.025092 -0.099569 0.203040 0.026324 -0.120648 -0.150568 -0.310316 -0.294127
0.072723 0.144401 -0.015483 0.096696 0.031129 -0.105096 -0.044346 -0.185150 -0.024187 -0.114834 0.138738 0.058202 0.000125 0.048040 0.102729 0.133213 -0.073948 -0.228994 0.164346 0.092997 -0.023172 -0.094140 0.122778 0.179417 0.048228 -0.007800 -0.127787 0.011900 0.014584 -0.111456 0.060439 -0.129348 0.000478 0.029365 0.028919 0.022779 0.128829 0.056260 -0.049564 -0.065195 -0.060870 -0.071413 0.111806 -0.353356 0.148048 -0.089583 -0.147828 0.260778 0.261140 0.075846 -0.133972 0.088353 0.036001 -0.147674 0.107919 -0.044735 -0.054441 0.043626 0.158933 0.051628 0.160960 -0.146615 0.047248 0.184341
0.086779 0.087065 0.017177 0.087026 0.138585 0.023723 -0.190786 -0.307529 0.023462 -0.020578 0.135186 0.107912 -0.269152 0.156466 -0.158817 0.233515 -0.019514 0.009275 0.018130 0.077831 -0.068520 -0.036791 -0.136581 0.049406 -0.077084 0.180039 0.017640 -0.038378 0.035875 0.220363 0.077209 0.006131 0.160672 0.086893 0.138072 -0.035123 0.065053 -0.045895 -0.073240 0.053976 0.042475 -0.200962 -0.081261 0.110588 -0.031357 -0.291308 0.163577 0.120183 -0.031816 -0.056427 0.117496 0.156978 -0.079049 0.031384 -0.060591 -0.117969 0.248106 0.020749 0.098910 0.066363 0.156180 0.190631 -0.006255 -0.341049
-0.074062 0.029156 0.226455 -0.008701 0.027733 -0.169420 -0.081402 -0.030130 0.099117 -0.046355 -0.052066 -0.208588 0.034064 0.109920 0.084154 -0.220383 -0.186433 0.105603 -0.043196 -0.132868 0.017999 0.013043 0.106146 0.138290 -0.088418 0.043655 0.011745 0.149128 0.108797 0.086465 0.175436 0.108204 0.117628 0.079371 0.107036 -0.014762 0.218924 -0.204171 -0.104382 0.074189 0.026387 0.038752 0.097904 -0.185468 0.007924 0.041664 -0.049841 -0.047503 -0.388338 0.123385 0.183898 0.093172 -0.244961 0.090686 -0.077901 -0.046371 0.086721 -0.052620 0.137651 -0.140969 0.041161 0.026354 -0.155890 -0.169609
-0.036959 -0.044450 0.121988 -0.004936 0.040499 0.158541 0.014831 0.066653 0.077258 0.061520 -0.067469 0.057751 0.003224 -0.224631 -0.140582 -0.044323 -0.048448 0.227290 0.145043 0.138634 -0.078518 0.101199 0.119654 -0.137242 0.058158 -0.083520 0.251885 -0.046746 -0.060093 -0.112443 -0.110712 -0.055162 -0.032006 0.001663 -0.171513 0.001488 -0.153060 -0.061023 0.031001 -0.129733 0.012201 -0.037832 -0.184540 -0.202404 -0.255387 0.335513 0.047129 -0.226162 0.176785 0.131984 0.221188 0.077124 0.335505 0.098622 -0.003480 0.075457 -0.210675 0.148233 0.063367 0.050355 -0.057619 0.196219 0.134341 0.101515
-0.201962 0.120511 -0.066574 -0.002807 -0.061872 -0.009243 0.115528 0.064657 0.001955 -0.091178 0.011455 -0.006405 0.036311 0.033930 0.143533 0.074390 -0.199983 -0.043411 -0.199020 0.138017 0.006290 0.155039 0.030059 0.166867 -0.017073 0.044424 -0.045397 -0.034911 0.075278 0.018291 -0.151505 -0.082675 0.030915 0.000540 -0.101154 0.053138 0.117476 0.134842 -0.113215 -0.152241 0.161789 0.036427 0.097438 -0.303700 0.187615 -0.024682 -0.093455 -0.033697 0.230702 -0.053564 -0.074744 0.062486 -0.287764 0.049824 0.050230 0.242521 0.211011 -0.186351 0.091857 0.028107 0.190864 0.183054 -0.021471 0.111078
