0.034085 0.150256 -0.230313 -0.326537 0.025189 -0.255074 -0.167681 0.065380 -0.076627 0.045514 -0.346345 0.213818 -0.023023 0.162060 -0.061631 -0.084983 -0.094833 0.024612 0.041691 -0.135716 0.229358 -0.081641 -0.162149 -0.069448 -0.208198 -0.011591 -0.134822 -0.161689 -0.163041 -0.139761 0.148872 -0.230083 -0.390133 -0.038991 0.105983 -0.017815 0.070526 0.174811 -0.051240 -0.305099 -0.022899 0.069571 0.083911 -0.107846 0.192088 0.007371 -0.368100 -0.079506 0.180006 -0.074251 -0.087511 -0.158559 -0.091138 -0.199464 -0.088070 0.022453 -0.041205 0.051430 -0.007542 0.050019 0.139736 -0.074176 -0.099236 -0.113344
-0.222847 -0.286086 0.123177 0.181273 -0.279715 0.120407 -0.297377 -0.332787 -0.134104 -0.390227 0.177492 -0.098585 0.022029 -0.211059 -0.191844 -0.508639 -0.267197 -0.082748 0.151309 -0.182142 -0.269978 -0.203901 0.147650 -0.098155 0.034103 0.026171 -0.334063 0.192206 -0.100262 0.035963 -0.316138 0.176056 0.235987 -0.154982 -0.175188 0.093046 0.142930 0.004464 0.019350 0.190609 0.221764 0.004758 -0.295119 0.057386 -0.195210 0.185047 0.181199 -0.025415 -0.032174 -0.107891 -0.020248 0.011769 -0.021786 -0.124652 -0.171162 -0.037635 0.175748 -0.301566 -0.159247 0.033131 -0.169185 -0.100635 0.056613 0.136404
-0.110860 0.053383 -0.112803 -0.073806 -0.077502 -0.103172 0.081559 -0.049345 0.130053 0.014691 -0.228561 -0.063029 -0.156960 0.085849 0.029487 -0.224247 -0.085485 0.025239 -0.227565 -0.108564 0.032157 0.068252 -0.086577 -0.233747 -0.041384 0.138254 0.256583 0.041505 -0.028503 -0.037571 0.044585 0.034113 0.214128 -0.166274 0.058694 0.037936 -0.222504 -0.182376 0.083857 -0.087427 -0.067909 0.121232 -0.235118 0.199855 -0.081800 0.046276 -0.042608 0.150968 -0.079043 -0.177934 0.071999 -0.044175 -0.284728 -0.287158 -0.302230 -0.047056 -0.388027 -0.144078 0.032257 0.145170 -0.263929 0.097640 -0.092455 0.089345
-0.243849 -0.253235 -0.323900 0.065880 0.032000 -0.085713 -0.057053 0.083388 -0.000903 0.160702 -0.179409 0.127419 0.031414 -0.111471 0.148114 -0.046812 -0.223051 0.061344 0.147012 -0.040394 -0.130793 0.214145 -0.163046 0.056155 0.163163 -0.139050 -0.158690 -0.160823 0.052072 0.128334 -0.043722 0.058755 -0.089422 -0.135924 0.089076 0.018084 -0.147422 -0.186233 -0.054149 -0.045600 -0.359090 -0.049283 -0.041059 0.111376 0.083231 0.123299 0.074704 0.080888 -0.201799 0.145830 0.010850 -0.184328 0.008827 -0.243939 0.063844 -0.004076 -0.012002 -0.239925 0.057217 0.045996 0.146633 0.152967 -0.398561 0.055639
0.005047 -0.019037 0.022978 -0.049168 0.223875 0.182685 0.002592 -0.050577 0.063299 0.121070 -0.158083 -0.287773 0.038765 -0.042788 0.031996 -0.207942 0.058046 0.026385 -0.257567 -0.167236 -0.045582 -0.339964 0.040904 -0.191129 -0.115512 -0.215823 0.215663 0.164303 0.024224 0.013425 0.085863 0.099959 -0.144333 0.071490 -0.041750 -0.088319 0.012830 -0.119855 0.182361 0.112602 -0.077354 -0.158892 0.052827 -0.148699 0.087845 -0.345172 -0.034898 0.151998 -0.017189 -0.217119 0.155992 0.119063 -0.014218 -0.124150 -0.093384 -0.046149 0.129399 0.139370 -0.155154 -0.111086 -0.335205 -0.127936 0.091798 -0.199832
-0.090636 -0.064276 -0.219571 0.118311 0.161094 -0.191057 0.224741 0.091748 -0.115993 -0.006711 0.194031 0.023663 -0.203139 0.094878 0.176272 0.133987 0.113146 0.030526 0.198750 0.140212 -0.004870 -0.178114 -0.122941 0.176846 0.089724 0.074848 -0.210538 -0.256275 -0.239124 0.101480 0.082841 -0.043016 0.048124 -0.230471 -0.065278 -0.312814 -0.145126 -0.050177 -0.191820 0.144262 -0.015196 0.016608 -0.364828 -0.133750 -0.150830 0.068972 -0.090682 -0.049954 -0.134631 0.074280 -0.272388 0.060659 -0.040432 -0.310300 0.017165 -0.031552 0.077614 -0.077621 -0.129155 0.134733 0.044818 -0.043397 -0.194678 0.092113
0.182268 0.143846 -0.212146 0.140930 0.181993 -0.432365 -0.120937 0.011558 -0.339991 0.006032 -0.231994 0.033657 0.093983 -0.022387 -0.060398 -0.066627 0.075549 0.006965 0.209906 -0.227881 0.118640 -0.071046 0.168098 -0.183107 -0.232239 0.114308 -0.193530 -0.095509 -0.319125 0.187797 -0.167233 0.018172 0.092052 -0.158014 -0.027365 -0.127311 0.280409 -0.076163 -0.009304 -0.061755 -0.116404 0.083824 -0.072621 -0.138085 -0.297772 -0.484320 -0.366087 -0.082144 -0.088091 -0.255416 -0.048625 0.108639 -0.396367 -0.520703 0.096144 -0.110083 0.194219 0.130781 -0.117763 0.147117 -0.007877 -0.248938 -0.278667 0.043496
-0.266055 -0.238048 0.118739 -0.266105 0.155726 0.154427 -0.128366 0.077586 -0.191883 -0.141132 -0.052228 -0.115034 0.035166 0.039434 -0.290439 0.154346 0.097526 -0.061802 -0.100452 0.089299 0.071895 -0.127406 -0.256972 -0.057578 -0.078082 -0.172709 0.239579 0.154418 0.206508 -0.157317 -0.122333 -0.012612 0.265963 0.004878 -0.066211 0.251319 -0.095675 0.051184 0.224352 0.083530 0.077941 -0.179953 -0.386132 -0.059363 0.162361 0.249726 -0.090404 -0.204604 -0.147873 -0.113800 -0.148888 -0.244449 0.052691 0.092334 -0.137663 -0.156107 -0.312320 -0.205088 -0.210928 -0.203089 -0.072060 0.115811 -0.161954 0.004609
0.068824 0.050470 0.210672 0.064013 0.029858 -0.002483 -0.034202 0.065312 -0.148211 -0.098821 -0.142568 0.043567 0.125375 0.080026 -0.109645 -0.145089 0.001137 0.080779 -0.187375 -0.051928 -0.172005 0.213180 -0.138743 0.094706 0.168486 0.161870 -0.228461 0.113231 0.123053 -0.032059 -0.036220 -0.042910 -0.135668 0.008504 -0.144037 -0.005707 -0.152083 -0.156667 -0.212879 0.080113 0.119649 0.133992 -0.236705 -0.085195 0.056850 -0.247864 -0.238976 -0.132728 0.178420 0.000328 0.159849 0.037792 -0.159085 -0.384866 0.179134 0.011620 0.184797 -0.117677 0.133106 -0.026491 0.014777 0.134773 -0.198315 0.099655
-0.040733 -0.166108 -0.062800 -0.014571 -0.330901 0.073266 -0.003853 0.167784 -0.049957 -0.206242 -0.120851 -0.165736 -0.043764 -0.224113 0.154748 -0.203488 0.081279 -0.122311 -0.111868 0.187026 -0.039887 0.044716 -0.073521 -0.052967 -0.026146 -0.249214 -0.100384 0.012339 -0.056443 -0.326934 0.184125 0.150797 -0.314545 0.057330 -0.080445 0.062908 -0.178111 0.164487 0.039309 0.047003 -0.017640 0.059812 0.016939 -0.310450 0.137415 0.025055 0.053146 0.110004 0.138400 0.063272 0.061780 0.178158 0.171131 -0.095148 0.064314 -0.028360 0.011742 0.053010 -0.160674 -0.012145 -0.000354 -0.081505 0.053511 -0.126855
